#ifndef BIASES_H
#define BIASES_H
double b0[30][1] = {{3.162015631826121, },
{2.3794236946571403, },
{2.4169788374634047, },
{-4.091750800920791, },
{0.30280876358066655, },
{2.064929309838982, },
{1.0419405526214582, },
{1.9736555714313584, },
{-2.7341542813890762, },
{1.9291755017270729, },
{-1.8863284201736201, },
{-0.28268150961393435, },
{-3.0281739612099696, },
{1.2806405455792267, },
{0.25181603513683887, },
{2.7061117036143316, },
{-3.4251396279135786, },
{2.233141917757718, },
{-0.8554210379331081, },
{-1.9155545404743115, },
{-2.9607297798285175, },
{-2.80135105417761, },
{0.3051252542283147, },
{-0.29917086539318344, },
{-0.22244188819540164, },
{2.674900438979367, },
{-1.3268170365567802, },
{1.3540244844483944, },
{-3.955575346165827, },
{5.193451664246411, },
};
double b1[10][1] = {{-1.614157783352885, },
{-0.5216440977946598, },
{-4.154275198639794, },
{-4.763089451654908, },
{-1.2939752700883158, },
{-3.285442328826722, },
{-5.279312909399039, },
{-3.420410802606524, },
{-4.26049700769405, },
{-3.2246442549970937, },
};
#endif
