#ifndef BIASES_H
#define BIASES_H
float b0[30][1] = {{-1.1261335152287621, },
{1.4805916901006342, },
{-1.8703140107780563, },
{-1.4065072851285885, },
{1.0540470777853153, },
{-1.228256590297521, },
{-0.675735970051562, },
{2.86327742470588, },
{1.629576417105261, },
{0.878572342679212, },
{-3.743093909624019, },
{-0.3648838587557213, },
{0.11468602080614516, },
{1.6442457253793987, },
{1.1612347374140017, },
{0.06847601876625872, },
{-0.841603045553265, },
{-1.3563325147482352, },
{-0.041409821474158885, },
{-0.8307605284741164, },
{-2.991596925924664, },
{-1.2407073527110943, },
{0.7888604092038016, },
{-1.2797445767295257, },
{0.5635956856956313, },
{-0.06557725233057272, },
{-1.7400258602769558, },
{0.3641124123113824, },
{0.1633780332069117, },
{0.7365281051738041, },
};
float b1[10][1] = {{-2.7205915521448683, },
{0.05304819091376094, },
{-2.0782830745944985, },
{-3.809274428951248, },
{0.23285709781861968, },
{-4.979878187959991, },
{-2.6384335854937198, },
{-0.14401115239437653, },
{-2.1970178768879625, },
{-1.4474347673840442, },
};
#endif
