#ifndef WEIGHTS_H
#define WEIGHTS_H
float w0[30][784] = {{-2.5368716613913174, 0.8763131410760323, -0.007452893794820825, 0.5114529615021737, -1.2398796333658628, -0.927787905159013, -0.05329148097023095, 0.38829842233854583, 1.7495323258505227, -1.5021987030444144, 0.35544053582894997, 1.7854412943838474, 1.1582632170962908, -1.996381936336233, 0.9498573120158149, 0.33162218714149955, 0.0799760225272343, 0.3212621418544118, 0.3381120366377582, 1.7595609692412104, 0.1949592728510849, -0.8774105049000984, 0.21792314653975972, 0.5875280813515229, -0.7601195942567324, 0.6051553634536804, -0.6089837295076959, -1.2206020357773475, 0.48820319995474165, -1.0552878675385693, -0.3688115526391534, -0.4251665252097675, 0.8095214582370293, 1.0565238945464699, 0.6565953250528872, 1.6074071448506795, 1.5449162654922408, 0.6367152018308221, -0.4130336781385764, -0.6042107252362349, -0.20327347437248966, 0.7659583381583748, -1.4683639973450084, -0.0715637594766359, 0.7211310933858149, 1.5873694357596995, -0.8137136673277207, -0.3688844525764226, 0.242723668015973, 1.0528320024211537, -1.1899848561503585, -1.1580684367363532, 0.07006586267364119, 1.3251115581357524, 1.063282852374454, 1.8197818365066378, -0.9661592887950987, -1.161456275518457, -0.46757368605338884, 0.8453073655726211, 0.29905747308794833, 1.22668438953562, 1.342428435284352, 0.9967850421488398, 0.5791598431705782, 0.5102310618381968, 1.1966689767111585, -0.5160786532902029, 0.38677456928293164, 0.6614382526328345, -0.6701790103751718, -0.6927768150717284, -1.252606728913431, -1.130954937088301, 0.5354251436741306, -1.6375659083727807, -0.6252688905903887, -0.9416453447134496, -0.6978510785797217, 0.7795208010275775, -1.7981331166030599, 2.419080386630766, -0.31818353496612245, 0.10317110154611123, 0.35241212829824703, -1.4606905762515199, 0.5261614685471695, -0.8987223693259867, 0.373790471408941, 0.723598706934522, -0.022020375468412248, -1.3119404621688109, 0.3231693851054537, 0.4188111669582986, -0.21630289639830413, -0.8640036293943297, 0.4030218043663965, -0.0774470382118249, -0.41962887288645667, -0.00029673884153876245, -0.9006786610529818, -1.803879228811102, -0.3130919973315614, -1.3292115908207396, -1.7703481025799532, 0.7075679367626165, -0.7322853020171082, 0.5110694613914968, -0.7168765053596358, 0.6855043536614336, -0.31793036302194166, 1.0496207366793415, 0.35245309244926126, 1.5872003357733504, 0.011106689816549373, 0.11064496306385263, 0.07211526867860223, 0.6218787721912165, 1.3585133296137295, 1.0752178004448227, 0.0702980974455195, 1.7243868863564378, -0.9114240995216373, 0.4228035711246766, 0.4422076529879755, 0.11080602596028838, -0.1451242105646238, 0.512936515384912, -0.6896670371966389, 0.6101896890492121, -0.6875424342365339, -0.4999005347613004, 0.038785364594882125, -0.3372458265114909, 1.6453877906180816, 0.37992669688284325, 1.5675907193071055, -1.6391845269050989, -1.670705137949683, 0.3139612083783483, 0.8753553219634257, 0.1497166228233997, -0.9368813795337864, 1.0405575306135926, 0.01261776441165627, -0.09094322551082389, -0.45178576098731, 1.0945654711501072, 0.5338694139839857, 0.76766631701088, 0.7563774753784501, 0.14864368105164472, 0.4496734746673047, -0.22435356803939596, -0.21739396183297807, 2.163041577669295, 0.2401975990259465, -2.2133492600320506, 0.0037263040494273925, -0.16568603735322923, -1.8436879594868774, -0.3655297190552885, -0.24889875883810475, -1.072891024112031, 0.42553033530588585, -0.503638146252138, 0.6133407318651162, 0.9031108616737189, -1.0446204252046913, 1.9915253047656514, -0.19505567954989714, 0.8863961779132276, -0.015710434940608316, -0.09072853753485134, -0.1704086110638019, 0.09221758974505737, -0.15266135619246265, 0.13366562597290474, 0.09698101454364873, 1.2497444376297435, 1.2172650042077318, 0.2440294097530233, -0.4010485925551019, 0.4195000728703953, 0.6745229165497522, -0.9209243904073472, -0.03904433817637689, 1.038726643754677, 0.808066220736912, -0.8870726222710561, -1.195825104587583, 0.13361008491245044, 0.2566888300599001, -0.39085642224090245, 0.06427534923150524, -1.2020800995720018, 0.3612098222840307, -0.41880004161720313, -1.606468169702947, 1.3874559728294618, -0.5873626561448151, 0.12329231622508449, 0.33567168909321976, 1.0872547838667146, 0.9453260482510694, 1.1537398691917582, 0.13483389494962808, 1.0794592638188996, 0.313964635065649, 1.5698251823059055, -0.04414539457287986, -0.4912036907597049, -0.6241379638803546, 0.6465632295488497, -0.41239936444301933, -1.5797863720708623, 0.42380116066899076, 0.7451978184831747, -0.4198988946812965, -0.2719264216045449, -1.2053429205688286, -0.04146082595475334, 1.0755230355794216, 0.01743060051152566, -0.5617274249929142, -0.4896989035165536, 0.4376370435484752, -0.11203809740476507, 0.9079654114088339, 0.597955764802299, 0.19930559294650646, 0.3717429498134877, 1.916694441620712, 1.1938199555480937, 1.059182560243326, 0.5392995749676726, 0.6051990366238884, 0.7539287121219973, 1.7335501755342846, -0.45720364875796476, 0.5859118838333086, 0.11713217289959885, 0.4878901276895428, 1.0435070411333784, 0.19466368596124442, 0.12871479284597795, -0.25945178757129234, 0.6674560484533824, -0.1303148721777207, -0.15635800448700515, 0.23288409951949054, -1.2355385513671067, 1.879582339857119, -1.0870186179810357, 1.3172854645622216, -0.6037645438518462, 0.2799816942749531, 0.7536029457676937, 0.4988642653864207, -0.6814946287941887, -0.418792674065789, -0.4538069022105635, 0.4569795168180469, 1.0696137151461644, 0.0003710723838763507, 1.507467976927955, 1.3754616340089547, 1.2739083887592018, 0.27458638580663425, 0.6243423664987648, 0.7391462171875096, -2.112156774902601, 0.6252052850815688, -0.8290225112221049, -0.6227676710772038, 0.3907550539838159, -0.09320250372481831, -1.0157783846061044, 0.8783098555062715, -0.03686282483642398, -0.07903918470106151, 1.9537491228870936, -0.19265585983041908, -0.8390578698996549, 0.35445673585939846, -0.10075672054605381, 0.8635695534995699, -0.1500029534902675, 0.7114595871629273, -0.20467439193114578, 0.07543877740317591, -0.5306048082654766, 0.32927159223476243, 0.42642890561202473, 0.7289250079099172, 0.5215815965255213, 0.8565998091772087, 0.012049717699198012, 0.8710378572786893, -0.6339634228816029, -0.7927857782314797, -1.4360940032583676, 0.5410776104370018, -2.6925835973132304, 0.1665885788597897, 0.6397731030855643, 1.5137792902826201, 1.2480861994911405, -0.7868698722447242, 0.4485050712854809, 0.17089646696019603, 0.8718781711755871, 0.08446448418546192, -1.0171509914843193, -0.21774567638603493, -0.547111153272627, -0.33888283281310216, 0.9939628793262991, -2.053860221476829, -1.9046846469252414, -1.6308420975432416, -1.9339681156488273, -0.12228319999135374, -0.23661875710557775, -0.5816606469859787, -0.22509584226615867, 0.5351941858849099, 0.5447759515330145, -0.7305520551913468, 0.4492650028512754, -1.3488450475726301, -0.4073733399303359, -0.27490117944992926, -0.5465941306543018, -1.4762948667593385, -1.2138244251118246, -0.38167319448507186, -1.6302693379269853, -0.24386032853000594, -0.7667769200063417, -0.6722886927658536, -2.7058837340467625, -1.0935152456924866, -1.8999213635968122, -1.788942634434475, -1.2950921511801443, -2.486584752099267, -1.537272031706782, -1.8604634189209681, -2.0614649911630636, -0.5812682018145593, -0.663452143638562, 0.1574683681366764, -0.9214037251305874, -0.42769583174154713, -0.20019232442144605, 0.9252085783089347, -0.7645102534118752, -0.5171333080448728, -0.8157437406081949, -0.4262637754994491, 0.36192767274883303, 0.8487331688730667, 1.8163486577578296, 2.2290764906443834, -0.7508561096797871, -0.4745887528092147, -2.180729189191336, -0.36819875174628824, -1.8607225052932215, -1.147267412430641, -2.6335926315107825, -1.0646761775435847, -2.4734585360485646, -1.2070279280847274, 0.38497983031784394, -1.6950078922949183, -0.7527999201516973, 1.1678784236956468, -1.6445080856370322, -0.17348943466791392, -0.011093837022688808, -0.8883513030385695, 0.8762455468645595, -2.1926596035378676, -0.9987686240322571, -0.7429098308812789, 1.152977686880393, 0.20696235026262527, -0.42899641398507216, -0.9743748703843815, 0.1856905803575469, -1.4940751154951117, -1.4938697496905011, -1.2571613859091835, 1.0608043856293132, -0.026852664344387746, -1.7536570883609481, -2.710473142998669, -1.1916745081144702, -0.6216949080043352, -1.2134050987136014, -1.770227326119414, -0.7748310169886762, 0.06315931037816344, 0.8890860798261166, -0.21374551679798037, -1.3635260223973844, 0.24591490512962574, -1.3816247509848398, 0.6435890443329405, 0.5713390364007946, -0.4669172196182438, -0.016492338402671947, 1.7244222641261655, 0.940679481012117, -0.3923575206501617, 1.5660828361440455, 0.07254719877233065, -1.42066121919509, -1.5717590430545196, -0.8211387317144735, 0.930473354658269, -0.5725728158036699, -0.4501300541969476, -1.1414207368818603, 0.9400769628256294, -0.5615057137532057, -1.0761408573112132, 0.08946534819546577, 2.131109665961358, -0.1558058503942056, -0.9557504417248938, 1.207535400086224, -0.5921689123481393, -0.8509539411753703, -0.08383324826959869, -0.508534523089166, -0.21210198708253628, 0.4028017310790394, -1.3555889871849662, -0.4998684707410679, -0.5689593261969529, 0.3287062442223504, 0.9050942880510154, 0.29932559173631346, 1.649504720955085, -0.36396947690486986, 0.6293511309674071, -2.0088842046008346, 1.0606586071742434, 1.6081831086557146, -0.08516124904946412, -0.38716163628987615, -1.1818505403789263, -0.3765301770683202, -0.31473602131807465, -0.4479719048747169, -0.6240480620026794, 0.4369952157608177, 0.05814633600127487, -0.09728967754645271, 0.9289642464479192, 1.2108678927131782, -0.5335577807695857, 1.2422680382944984, -1.6603398066139643, -0.010388587348992067, -0.39943942208871436, 0.3130543563367609, 0.16580099607510526, 0.5027615426006083, 0.5528882435654945, 0.27550099697720865, -0.6920092523705351, 0.4918270506416944, -0.21722736127121975, 0.9186128588698301, 0.36552957331711244, -2.128958766383722, 0.553152646370089, -1.0411034217990305, -0.0835739010083221, 1.0379180883889012, 1.1812132345186792, 1.1150998878276746, -0.0019719517220783763, 0.6586273479007663, 0.8207447532645801, 1.4715986138095645, 0.3671454471056024, 0.08714686937820278, 0.9353356814276701, -0.8891524485945926, -0.48342906866302204, -0.846728507854451, 1.3738768523090341, -0.0399835590969412, -0.2981243835237553, -1.3543990025534274, -0.056146188705156995, -1.3970034884738258, 1.1486607693014648, -1.6233680064302831, 1.3198691604143675, 0.20003295775984878, -0.35587770092870646, -0.1335253908688897, 0.7258545282920186, -0.5568820830023157, 0.6417081950597596, -0.49992672932509447, 0.2905519772087151, 0.05764312765577143, 1.0284400511444183, 0.2838561551652721, 0.6472104124032595, 0.7645875305690655, 0.362620373600524, 0.2183072036168383, -3.148124490479938, 0.35917766092418696, -1.4741656703974042, -0.5533785499341937, -0.7410454031030775, -0.9014455759411559, 1.0180021717125687, 2.5692129318429386, 0.08582386509929613, -0.4284199920706906, 0.3992106991545826, 0.47798018521908375, 1.2755533769608318, -0.8698180915777313, -1.1157270516676225, 0.6961760896594554, 1.5525400851707165, 0.42679129866763515, -0.49939554084017884, -0.8627517498387426, 0.5239477897134697, -0.2396053984666685, 0.11241905749438783, 0.5801940978559496, 1.3811938581250036, 0.6850259138915471, 0.5521851083489947, 0.8668672268454859, -0.14658642829172835, 0.23797932092850133, -1.3519750187436101, -1.065172720727377, 0.9126741899361787, 1.0124820413259672, -1.1018024398408333, 1.7509073847029646, 1.2666301353511873, 0.4230984982819469, 0.3350520922523839, 1.5137032216203075, -0.342340049384937, 1.091878598479314, 2.476280539143709, -0.929393336884383, 1.0643596952579368, 1.1603849900843648, -1.2182953550461608, -1.9721096507172555, 0.32388175205755537, 0.968689758016147, 0.3773068839488121, -0.4434510059173951, 0.9762636340266441, -1.7200050155122724, 1.6132943885213367, -0.9452844771044708, -0.2533911566105797, -1.5024771148185132, -1.6830433678631878, -0.3928968916431222, -2.4894412470580813, -1.6394456575446559, 0.2095909021116838, -0.8871310756392248, -1.9154511513776404, 0.05421116964162473, -0.25339494774322985, 0.7976877069831521, 1.6749406210128122, 0.18255343812643912, 0.20807181292353208, -0.6292478616501892, 0.5942395715946658, -0.3162805560553235, -1.534379062038945, 0.013888243381891112, 1.3687807908231797, -0.07844241325290673, 0.9702379800805867, 0.34593313480430116, -0.023461230024631755, -0.15214077715567262, -0.17345889536169123, 1.1318439634905832, -0.13977881162943, 0.25346346762095184, -0.7226845465395213, -0.9951113349900551, -0.23073923673512017, 0.5271370932954546, 0.1067429886388874, -0.6741472321303883, -0.1587179295445732, -0.283133061375573, -1.7817816312948371, -0.30376187845106206, -1.0883676737526455, 0.06197166583642923, 0.919285298802492, 0.693826455413146, -1.526845994083111, 0.030727719446080982, 0.537502425098976, 0.04307820531301514, -0.9456508261485762, -0.45228691793008724, -0.3575681715608178, -0.20126340220793112, -0.04981936757111339, -0.6812292481224737, -0.6735437086342858, 1.8191298616897953, -0.7999709920529439, -0.883750861591973, 0.49714055472425756, 0.07247208600859856, -0.8615592620641885, -0.657586305395079, 0.7233092871586966, -2.6569270608861935, -1.0640994529654582, 0.1706220587422364, -1.839421436982857, -1.5075492099898453, -1.528046467081328, 1.38272163628342, 0.1703009614105812, -0.3494217806202114, 1.6292683060733606, 1.404990072584227, 0.4138763809881199, 0.30901538229916015, 0.6390511066395641, -0.19885499396719333, -0.17840279030705383, -1.351127283571701, -0.4801540552367925, -0.6695143027950454, -0.3922875365135463, -1.2640818098713833, 0.9514895997112691, -0.023499688698713817, -1.1511770763022455, 0.3746474257821413, -0.5437755214055198, -2.4709142240158206, -2.8948773731464548, 0.4916634854353284, 1.475551596522061, 0.6561940184347375, 0.3045770001701031, -0.2497962665290991, -0.4085439936069637, 1.197828260360329, 0.33146552886289654, 0.11844583077523839, 1.215752574188475, -0.04016838734025124, 1.017356671674405, -0.9228725849821237, -0.43285246357742924, -0.28649214605544304, -1.7494982347145234, -0.1926688717391869, -0.4300075668852024, -0.8643646709528028, 0.7580536823206733, -1.5682548138770387, -0.5903040944683416, -0.38332660160022314, 0.7494413633251837, -0.8683018668949334, -1.5179654433298053, 1.1927462487498601, 0.4114986284106483, -0.13500600890024575, -2.3262915089943466, -0.4787731941993179, -0.7339137888706239, -0.0018538123150569704, 0.727379477700786, -0.5788970324422539, -0.28172459795553023, 0.992620505400478, -1.8385949388601246, 0.46159643424838287, -0.2930998434856697, -0.48952255151092333, -0.6061317146830393, 0.11228899565625504, -0.23280694486071693, 0.7147284606952162, 0.4683350298090352, 0.4701093645232159, -2.391436699398623, -0.8020714824553187, -0.4728308357927633, -0.9887982739833813, 1.3398624044496985, 1.5905600616626183, -1.3509397834903072, 0.7653266087375822, -0.5717627588515883, -0.4406122699268468, 0.09391743110454012, 0.039142723149225574, -0.7090419469232841, 0.31228600128060235, -0.48889136304084313, 0.7768632142821849, -0.7865047271718546, -0.6454358893362152, -0.4042747131213705, -0.9933123061435489, -1.0203228717872843, -0.6126006178704232, -0.34104282419662946, 0.9825213405285752, 0.948331531509594, 0.4107217971318648, -0.3694287759190788, 0.6359747787788628, 1.0232249617824398, 0.04470211899864324, -1.1186944704975974, 0.45370419965389924, -1.0126759905620362, -1.7116646322591733, 0.2622988700952911, 0.6023474012252441, 1.852034762952505, 0.17118255801068427, -2.0739359657715797, -0.18341269067480795, -1.1484490380878527, 0.8862396775423121, -0.3744320014962778, -0.6950290914711212, 0.24376587567336852, -1.030940075436551, -0.0035634825733202613, -0.3747628157961298, -0.941260276842163, 0.6905621976124854, 0.7460622823722932, 1.6918663832712426, 0.5973439112283035, -0.8169145803780777, 0.15122946932921608, 0.7423029520809178, -1.1289166332320422, -0.8887191979801916, -0.44741341131576673, -0.8801863835955818, -0.14429065002053826, -0.7934212943427382, -0.4723489931084816, -0.4536174760133221, 0.2853125770391484, -0.1285162757733775, -1.362413789978472, -0.8990999540784855, -0.8701549775276013, -0.9002004540536841, },
{0.16193706542722078, 0.03360405909671804, -1.2386583900357433, 1.4193980470674377, -0.011745275790799025, -1.8038795984770535, -3.622907374777198, -0.41833703105080083, 1.5223546060418112, -0.40021032848658855, 0.8321452619723229, -1.3129334012611935, 1.240571615193565, -0.34271096744363294, 0.5624195076846007, -0.11805761273908, 0.48512095376282266, -1.7959663798243772, 0.43875776834395364, -0.5926965177012178, -1.9837477472738916, -0.7520045282049047, 0.17813277098030084, -0.1941796811923765, -1.1888147553467305, 1.186563859767747, -0.062449735123819315, 0.9674653935921859, -1.5178784864755948, -0.19429039923410374, 0.49771284197307564, 0.3050738144543961, 0.6481831303765575, 1.0481085915384645, 0.011085579701812615, -1.337680121844909, -0.2770284615856893, -0.5701358290033361, 0.8408863784369055, 0.8931736253850279, 0.05691235363052968, 1.969084552441472, -2.5701844645792753, 0.8387237627167347, 0.06701102650589336, -0.3843952256553663, 0.8288581103976483, 0.2301451249680608, -0.20062668667482475, -0.7192544403256171, -1.1193279821748339, -0.006011481875239979, -0.05645116878403155, -0.8788554234631762, -0.0070982288149998435, -1.4517974076243305, -0.9085760740462697, -0.16641014809764812, -2.9269545607436704, 1.2080154087375616, 1.3403978253383335, -1.1104166086896778, 0.18054803005678416, 1.5362866482841886, -1.5349589801329395, 2.0783358661258426, -0.5034449843053624, 0.6564457318821011, -0.3473762197298698, -0.6786130761368975, -0.11320460584466113, -1.0410198198637406, 0.5932951567141033, 0.7335239861885622, -0.9587199605478457, 0.2736392596641194, 0.16599914287422465, 0.33113784089241427, -0.40392851806700875, -0.572700852663862, 0.7753679125441669, -1.2273943425707765, 0.9868670413920647, 0.6460226312784221, 0.1542048963661048, 0.28037304543678493, 1.24561608503396, 1.319658182748258, 0.5515545395913074, 0.02894098924335531, 0.9073595975108055, -0.3702033581183866, -0.7733320476297088, -0.3996909901292718, -1.1494554431786872, 0.6557044771120832, -0.10383963940629311, 0.1313123342903513, 0.9181783432839229, 0.049450147728295715, 1.4925951269620572, -0.8333667713043623, -0.1876868595204039, -2.1962880116705126, 0.8387450318751871, -0.2943080497078141, 0.5724436665070315, -1.1263135145389869, 1.026426058346487, 0.5623862804178288, 1.8627240729921257, 0.4256791316581521, -0.06623983174349765, -0.9990839244136868, 0.7160925700307562, -0.8613642468815088, -0.006076953893043941, 0.1329009511386477, 1.7916359485365747, -0.35378067411455305, -0.2962608476994379, -0.2895181004505851, 0.18252264808705418, -0.85387716177468, -0.4965555672622078, -0.2400468363606434, 0.20173293436919934, -0.5256174170185393, -0.7181272784394179, 0.42002864602650974, 1.815305470558874, 0.6798345780530498, 0.09298424337084342, 0.1278951398867182, 0.19724898003242042, 1.0374483441038609, 0.18470806690816155, 0.1322317936509544, -0.1502669927704729, -1.1975054112596981, -1.082529854079013, -0.2307571751487738, -0.26405054283749996, -0.31949886807399874, -1.985278961174547, 1.2306517846304337, -0.014598490604247687, -1.451550242372129, 1.6435914982542335, -0.9243619908693517, 1.130930520347025, 1.309251215635497, 1.3251462408606849, -0.8337117412436492, -0.07661306388078915, 0.7302922783165207, -0.6010300274526963, -0.825183738195136, -1.0340707916042593, -0.23239653024864393, 0.3874992857308489, -0.3990173447141937, 0.917115747202866, 1.7568326683153108, 1.2024251069485425, 0.09376976378769164, -0.46134387632873186, 1.389996081981732, -0.21996646195539313, 0.4504546190650687, -0.5860988877663819, -1.2853826085032967, 0.9432624953941934, -0.44237737505160657, -0.9966333084323334, 0.231917186538472, 0.16422957793056783, 0.7095902959915809, -0.8082887978730341, 1.3217427755756217, 0.7282877629413095, 0.10986131543302691, -0.17792588086983574, 0.19568193704621054, 0.31186661486172745, -0.8713576158177139, -0.7690205482721191, 0.8689017342988995, 0.24691609580899207, 0.053743587301270795, 0.11699651816928333, 0.5236736872821725, -0.12659405973400722, 0.6302152379429787, 0.2463607434691917, 0.8316403500895586, -1.115737672070675, -0.42743665897027405, -1.7261639855894197, 0.618373787203114, -1.0107944494007781, 0.24066460979167906, -0.34989622516146307, 0.32779829325873766, -0.14980302621339794, 0.7664913033385689, -0.9892999677285281, 0.42632414476121216, 0.09332500292886883, 1.5993031764943932, 0.619998777970632, -0.40927275940257823, -0.7292716240311253, -0.7253331533357622, -0.2373216190820203, 0.6874892385694907, -0.8546852382226308, 0.6193499165457722, -0.9963792338810433, 1.1953027835740455, 0.6575822847323193, -0.6972410948931488, 0.6836132433335479, 0.28237609633774874, -0.41021270779184343, 0.7531165527905982, -0.3517051422804912, 0.7316790339942195, -1.180219732470334, -1.3708889701709712, -0.44715319723431585, -1.0123844806292452, 0.16314812379923294, -1.738765221831643, 0.3902953150480846, 0.3306436261854957, -0.023324324110757386, 1.5103010249228261, 1.7588993532776316, -0.627409858594839, 0.07903026296505068, -0.05535399788082192, -1.200548847386646, -0.5371243195025717, 1.0119164117203805, -0.8365217301033823, 1.1116151362726414, 0.9858469469225988, -0.051013221529153906, 1.3916835179180953, -0.6959764316301448, 0.7427200818808746, 0.9237957767853425, -0.10456021098905194, -1.644031329247228, 0.820648693168662, -0.27878397047733355, 0.8697662591760946, 0.31519662630229767, -0.7578761745318744, 0.35966845199752595, -0.17127552058180973, -0.2573964796781851, 1.0876966466004983, 1.8610098127639292, 0.6745432887531201, -0.9348061404142969, -0.5372834823353317, -0.4147384771401379, -1.3825009819604204, -0.2707350769948165, -1.211177339331085, 0.29194776725650495, -0.9971242976085313, -1.8427274112269973, 0.542980267308241, 1.1946621276499163, -0.47584575792862566, 0.40678313422720247, 0.6568726595451371, -1.5888660302962714, -0.5550290261675825, 0.6712722215057643, 1.133695946973423, 0.918068501068394, -0.9945047928416018, -2.20686344436609, 0.42651255834686275, 0.2694391108567545, 0.4925783611892607, 0.629015572060671, 1.226485036098661, 1.9525391452124696, 0.7793741981579664, -0.6743201032824404, -1.162348303165898, -0.6680131128015415, -0.09800085495709052, -1.0660077014008877, -1.5382729062324338, 0.7666161792548445, -0.7114811762866726, 0.5975883962677148, -0.43729395537462895, 0.1792471436224182, 0.9987505432355401, -1.052596697004359, 0.8445077370987243, 2.1121791383094455, 0.10107453924554888, -0.9109740648542518, -0.3787399966401779, -0.10506895719511854, 0.05737056577087377, 1.1198412336194128, 1.3035820480995897, -0.7463523011511648, 1.3215060256755584, 0.6539599854158116, 1.8484439700890911, 1.9452152282118433, -1.7602639103419397, -2.809568080351815, -0.7874207421284085, -0.06017654151929285, 0.3038426638120883, 0.17669739188160657, -0.8038422059617288, -1.4754412942251767, 7.867236981046766e-05, -1.4910119834808242, 1.3540408589311965, 0.3206215166389293, -1.3389579525739468, 0.9864137415553215, -0.24512136286252428, -0.8761636997746289, 1.37514661347509, -0.07777354356818837, -1.1895877459465216, 0.5782506758394917, 0.17074318006071593, -0.5321068841720346, 0.5623488074578052, 1.6030905232044506, -0.2751566604394646, 1.5779209287698714, 0.4594058191349616, -0.7892289215201297, -0.975391221823127, -1.212716016064401, -0.5981159449143594, -0.23140236604247202, -0.05483231551664712, 0.01771608015848347, -0.1786017254135198, 0.021965213673947884, -0.13911392046510057, 0.23056688819001495, -1.4287297136862276, 0.23122603229362718, -1.2425936664344102, 0.16248997740996446, -0.7659204304688539, 0.9642766390999522, 2.153047404034064, -1.1594069854496982, 1.5261194445774335, 1.2129937069233325, 2.0742295091600975, 1.4984230308891342, 1.427357320938291, 2.6844965607094697, 0.5095219465725056, 1.3330736313703626, -0.660124418897333, -0.03576803307118772, -0.1616189309770109, -1.224546334180009, -1.8311049476034558, -0.7296260436876004, 0.4379987753781627, -1.6056353650696726, -0.43835143481294564, 1.0656112901036676, 0.18762790292387946, 1.0935363216644824, 0.0035483652096266836, 0.05827692344835543, 0.6285974984707693, 0.7355359786541864, -0.15030721276922676, 1.2837252444303946, -0.8614314744795524, 0.5088581943304296, 0.28207023501326806, 0.00802190165177058, 1.203182830125609, 0.6979126828014259, 0.5119194816095005, 0.6579384376820169, -1.3658831327765846, 0.1662881787444349, -0.06162087221702725, -1.3523635126174978, -0.39253560687590183, -1.1993188502987628, -1.195145080348256, 0.40821746569524886, -0.7720716699274514, 1.095481416561541, -0.1964276896191305, 1.3566724319880243, -0.034561296717069874, 1.1433394723433161, -0.026944205666052372, 2.1489718851894746, -0.29650872154799673, 0.552123067780484, 1.012122593513418, -2.567773680568222, -0.7955306459332151, 0.6323513505316289, 0.6716577005354828, 0.43847327661076607, 0.6699976249023195, 0.7647647428873878, 0.4241042095794067, 0.7099956467000156, 1.1534408153258544, 0.10293191935515811, -0.31016293274760215, -1.4256193783123123, -0.019503067138169884, -2.7571528267695857, -0.5143930508765379, -0.29092178561457804, 0.18617910771474147, 1.0892763707738329, 0.08826792610770613, 0.7981709157956896, 0.23246244302868738, -0.4197348014791543, 0.653477918304109, 1.363312626768158, -0.33280592870989595, 0.664324856995966, 0.6605088773483306, -0.06738780006179183, -0.7555292277230305, 0.6921215757934437, -0.07346590868401395, -0.48726375341729883, 0.023596768718503445, 0.4596651744234042, 0.06336593551832877, -0.1985949583035943, 0.4940339667586162, -0.5603800405398495, -0.18235463470889154, -0.7796952107330782, -1.2659070097233902, -1.456742612058992, -1.4181279543693466, -0.8575923901933126, 0.13836520814671396, -0.19278569331728632, -0.3370158952827325, -0.3552254118651033, 0.38187627685632913, 1.4092107227136847, 1.9944094654155688, 0.9632462918042195, -0.11515139677451124, 0.17668780852009996, 1.090215596072257, 2.191075796594394, -0.7068608996096017, -1.8771948602205994, -0.05821070215516779, 2.512514208496062, -0.6968941019807453, 0.6240832007402025, 0.030179168144097383, -1.7133932879001756, -0.23756399692727453, 0.04401633011267634, 1.5400544283458049, -1.000661489002354, -2.4972424178428327, -1.3347772439678565, 0.091335809838987, -0.5184936578288394, 0.9962860864814099, 1.0049422808373525, 0.1286932028794952, 0.7279181375933519, -1.7829740965460872, -0.09174254271781256, -0.6726434994668369, 0.20179661575890634, -2.1793884559190855, 1.3761715167574031, 1.2722457731191654, -0.7828826255676297, 0.3045758557696264, -0.4126806052204018, -2.1202587926025123, -0.4484149497540321, -0.6068374325652074, 0.1317982953954503, 0.05418753073692794, -0.806124562402108, 0.22557892618813752, -0.4465493338298251, 0.5525043721588504, -0.5909687891855284, -2.4806633127652504, -1.942811362266154, -0.38126751910445034, 3.1951140722760103, 0.18553283215538924, 1.1051987836388955, 0.24778395784986892, 1.4037172754410023, 1.1137828082043917, 0.5756253470021405, -0.6737590061580169, -0.8406007075739448, -0.19844669101931733, -0.5918843985977721, -0.4359924837637962, -1.563128081799002, 0.23437817587434095, -0.8663431961657457, -0.8756711251900918, -0.342539189467211, 0.7087062004813289, -1.9397598708941308, -0.5913873781994838, 0.20237789651202498, -1.409675713812209, -1.2868870795150054, -1.9127610476682624, -0.9243554524394633, -1.5731108185151077, 0.7164619603635365, 1.6455811443085853, -0.9636647152551472, -0.06013604118235514, -0.6739006994998678, 0.5297012636457737, 0.2768235123564031, -0.3392512846526508, -0.9134005844534733, 0.12912101689273361, 0.31416999843157106, 0.7741635256055579, 0.36237952833836556, -0.12759052155739778, -0.9788115206755313, -1.6598800398662394, -0.4246641042707816, -2.070250366483653, -0.06340247685695737, -0.2825962170943115, 0.17708257185728002, -0.8800920279754024, -1.3828509782766696, -0.4941873070919749, -0.9300109607203731, 1.2363823382475772, -0.5143800265071273, 0.41968101363206894, 0.5249217774574707, 0.07972909039289057, 1.1240527954952768, 0.16062155678295528, -0.40677549018453757, -0.7588211661130715, 0.3597358900930842, -1.4598473988733505, 0.8617949158768912, -0.1107998980543837, 0.07332996067027635, -0.4425565307388403, 1.793220046121474, -1.4288026358258985, 0.2664663851165151, -0.3174395349572573, 0.3899128257925664, -0.713644688523672, 1.4916471751439642, -0.9133135843982174, 0.06572618760717995, 1.0468936781352038, 0.04910733388796108, 0.9993945784937055, 0.4200012724005283, -1.0431049922513917, 0.3621206880758109, 0.695218354237894, -0.16809501740015548, -0.06404125030490192, 0.2519684949910257, 0.8287600440793321, 0.5966987700853527, 0.003929584844618281, 0.8311421005217793, -0.3648285202570524, -1.0549278269508455, -1.3672988219860387, -1.9679723055898268, 0.10103886580128475, -0.47267386438297065, -1.115380786263478, 1.1216009848187394, 0.4536376390913958, 0.29977009086223705, -1.0544145696185778, 0.4265277397020382, -0.9172122022854711, -1.425217878415479, -2.0289569273999484, -1.5904675271080364, -0.8912601212670903, -0.4171336125272142, 0.46366468899092933, 0.6743472708413488, 1.026149436213581, -0.3911389169186759, -0.2814313291876296, 1.2751098493921336, 0.7719996914225679, -0.21085853927406387, -0.9291166417260556, 0.25945132986654934, 0.8406003585509563, 0.39731447422543276, -1.0335085179923198, -0.9211750409717647, 1.3719897955052935, 0.4821132844261217, -0.29651977697379367, -1.5520472080419452, 1.5423426365165287, 0.4105980039849071, 1.2819573069427108, 0.9139310438418362, -1.2292754286705678, 0.6711962321151682, -1.1118510974690268, 0.9854774117776163, -0.3941123733628161, 0.27234132058334765, 0.07351297319409149, -0.32758795430409055, 0.4872661788101251, -0.11480891185504796, -0.057196936226966213, -2.042996513391448, 1.5376587382271503, 0.9334781094658103, -1.0246020171416816, 1.4354087362123218, 0.4648585385726598, -0.011623285873770095, 0.5941612297318475, -1.85913044100344, -0.28815676485438235, -0.21524774086030368, 0.01039568436474387, 0.20111499587923146, -0.9098677279981774, -0.6029218153551954, 0.8110558978521428, 1.0811998915022627, -2.538137071755369, 0.029532528498054232, 0.17698623901575328, -2.293693517862707, -0.16353742941782445, 2.048564008017628, 0.5633317648266905, 1.142722656477737, 0.26186489988095324, 0.03249854100813257, -0.6716534419126876, -0.7818137151187942, 0.7654359180545426, 0.43089038947847536, -0.22881417011140043, 0.8413525478301331, -0.9093128446491896, -0.28766054616735415, 0.7191694294727299, 0.9775972953909429, 0.32654288751621435, 1.2218591114309063, 0.22703158133894483, 0.6294769498088749, -1.0797479990598124, -2.2930654976042955, -0.4420374879772034, 0.5100455778410226, 0.2729208886421566, 0.3828653325545908, 1.277575403406586, -0.8756997368029181, 0.3916269969636656, 1.4105732953715506, -0.5938693249064806, 0.5333855714135916, 0.03952982281551182, 0.6960146282538808, 1.2787551005483533, -0.07623007489022576, 0.5010181784321182, -0.3963055746171046, 1.9093361826835877, 1.0773630755565784, -0.6715620374926616, -0.5050561174253642, 1.3370841673678289, 1.0360636588723204, -0.31993410746561285, -1.7045606382524086, -1.572900748337227, 0.5205649386952202, -0.2083565540257189, 1.0725282047663647, -0.4710306754505386, -1.3714249357275212, -2.2658079812558585, -1.475681319651535, 0.6561555574226269, 1.4231220855357234, 1.0262153421050977, 0.40221807112325925, 1.270570604626953, 1.0460429298396836, 0.17648059984527384, 0.8097150124711782, 0.07714111962915503, -1.3473008125474037, 0.44559077704355854, -0.2914382551969071, 0.820203464004514, -1.7230957049780276, -0.0943920663412558, 0.048423066540575196, 1.1166616027790994, -1.436546264651126, 1.8106854645508466, 1.403869191997423, -0.7601796366135491, 1.4841820885459185, -0.9500431917136384, -0.806178075843812, -0.44797414280973774, 1.8077561535723954, -0.8190635794519627, -0.1970861419305146, -1.1313037298292339, 0.5295649144017603, -0.3146721628061958, 1.2665331264114583, -0.8300187385026773, 1.6496369126697386, -0.21765642110963443, 0.9473805690209035, 0.4356718124215348, 0.42566409396447896, -0.8738368754741589, 0.4704708198646314, 1.1638945986876912, -0.11515467506224636, 1.2891457974320166, 0.48238666458369084, 0.5671510200570818, -1.483096839052413, -0.7608403976771555, 1.1580717087428904, -0.10741371254640067, },
{-1.0915453894603253, -0.7847772714130156, 0.6862756450631091, -0.13720769126141866, 0.6993073031310766, 0.1223375416657046, -0.7569624706356924, 0.14369459024685893, -1.5744828215753814, -0.8908058446703391, 0.1753393647917479, 0.9524571425730958, -0.13476901344363096, 0.20896025929799666, 0.8906793053704882, 1.2451401763146166, 0.10991459198221024, -1.1117363292870597, -1.3844734963806855, -0.4201883751764123, -1.0828284753537705, -0.6351657382132408, -0.08969238315501214, -1.413153459719489, 1.4721828537961936, -0.12748413721603954, 1.0223344761117417, 1.5689086232589546, 0.18708164381135153, 0.41236461938113733, -0.6181919560751632, 1.0409664379016816, 1.719640084936809, 0.7485265980480913, 0.22164577984549416, 0.9762699936937393, -0.20449721260206757, 0.9014807013232088, 0.5792990258196938, -0.009546456672620279, 1.7943872287068912, -0.8636919372010236, -0.7191300579931317, -0.2957365932793996, -1.0320872821800458, 0.28479806919565653, 2.0235229262379257, 0.1094733987700219, 2.238198102525787, 0.3269977223125858, 0.12477565633210574, -1.0955844256379106, 0.24086748947258263, -0.1670682967547828, -0.2473670399764757, -0.8523226919851106, -1.782699007336725, 1.638043954733216, -0.042874318238906924, 0.5201030221855789, -0.08691593523507456, -0.22058266230141346, -0.06063457039236758, -0.3800416433561031, -0.11602804932383118, -1.2703370349651861, -1.1047230448203964, -0.06398972833895109, -1.1872951411026151, -0.2627267404416079, 0.9476818487227081, -0.3236812464421064, 1.7122245573027963, -0.10307856674661525, 0.08366540684880781, 1.1133310418730726, 0.6938262783831189, -2.2689933996256073, -0.4993948962370077, -0.8866795849129223, 1.2595128312747819, 0.3589360815457099, 0.7829775374928567, -0.9016682166156981, 0.14977008922985968, 2.745948626998927, -0.24128787891250442, -1.7678252745861323, -0.3874385489336989, 0.40984415475985986, -0.15286681264828006, -0.37491558586442925, 0.7900198925146678, 0.08558915918068688, 0.16764600030075763, -1.386705941732317, 0.5495801806589169, -2.0607453734665633, 0.4373933566656523, -0.41748402923785033, 2.0284130234856868, -0.09488847613897233, -0.0774749046791834, -0.6326543990576032, -0.033866084036866174, -1.2134028163252153, -0.31073190391076067, 0.5222951334111311, 0.20756885298307165, -0.20881568327663746, -0.40415207442964324, -0.2889099180888741, 0.029445996450938386, -0.6457268284960176, 0.38897032853848557, 1.1123740572899792, -0.13080104696704073, 0.5804047604605489, -2.1659339409992677, 0.01429545440162832, -3.0413380293819063, 0.9059647545036453, 0.45289122208643373, 1.9658126799654756, -1.8739620274395759, 1.86791236852343, 0.3664899141438344, -0.077473706560968, 1.4715041038086474, -0.7986209401402927, 1.726202748618929, -0.16872704553988171, 2.7763961871104113, 0.27085797405055895, 0.5073578266885372, -0.04204192735134618, -1.5326792897632648, -1.107881667178914, 0.8627205586066397, -0.12459555455003539, 0.6494094705790824, -1.3685629649921462, -0.16684760423831477, 1.6250866528190657, 0.2599184899460782, -1.0901370025785577, 1.1730983628890403, 0.4380464837537172, -0.2100567873581073, -1.187841326039284, 0.9545435010814727, -0.06887154781725661, 0.44824247022730934, 0.427376164207812, 0.314981467296912, 1.9495475210240865, 1.3023261531155916, 1.071667562125075, 1.4852742889654136, 0.026454909294849737, 1.2902732998932906, 0.2512916668915953, -0.15416404760883687, -0.17381922945063938, -0.200085300513277, -0.6017387500693113, -0.5894711793319092, 0.07408764434592745, 0.38192465384159674, -0.7381819444791322, 0.8590408162707932, 0.21292046414093865, 1.5136711223581463, 0.34165202407087425, -0.28626070503710116, -0.24445105021108926, 0.5645041693855655, 0.45743883727646856, -0.043749894634829, 0.15770814002386635, 0.7905735808684806, 0.3918900633421272, 0.974107430660027, -0.4111230833082989, 0.9699743037756714, -1.2598710709263363, 0.5747669785197819, 1.7488879582211798, 1.247432569890418, 0.5105644712949472, 0.525014780507367, -0.34042535936741597, 1.8122203585327048, 0.2078888872087598, -0.06271880371295353, 1.0654960486030387, -1.1608256314088357, -0.4978284336687617, 0.74120280506621, 0.1820414357168678, -0.7459154347242472, -0.6928285458517189, -0.782403118153103, 0.09582278790877605, -1.004594244467604, -0.5019660770063806, -0.4636402108321954, -0.10428334366191537, 0.3104631409526471, 0.004089695045544525, 0.3199066205276413, -0.6801938004780467, -0.13684631576459633, 0.21047006454232028, -0.37227681141332497, 0.8913490078923737, -0.6394198800709626, 1.262909749327866, 0.9317483266212391, -0.11070824516071828, -0.8614947507286339, -1.4230591349406292, 1.0288768805736965, 1.2862386323481438, -0.5622381261527806, -0.05584188729660163, -1.0516318974654415, 1.1740088869423506, 0.9945375307088197, 0.2536321718471522, 0.6628767007852584, 0.9232701224303421, 0.40317524250386405, 1.51413586247914, 0.8331781158096006, -1.8781647001680242, -0.28744945860889215, 0.17125215041674294, -0.6773883292169276, 1.420791048250983, -1.670898255615259, 0.933095235276987, 0.0288159438532983, 0.7567677597842035, -1.2194707344813527, 0.47485579333702416, -0.6941971796070618, 1.346002610806248, -1.0675622704148038, 0.48816684261793014, -1.2069796520268328, -1.6275995145365225, 0.7514678966732609, -2.2586522316302986, 0.5091291520003313, 1.6190468577356638, -0.0481846148553612, -0.44161353232287565, -0.7870699527054699, -0.5302134605372482, -0.41647106676030554, -0.9692825786143187, -0.008100653064660634, 0.7405664015038251, 0.11139162351117736, -1.109101896955281, 0.18365334529376173, 0.29126615220434854, 0.1295009085285558, 0.6723696052070983, -0.7729837946297065, -0.08279935110001861, -1.2830725981046531, 0.10534425714638487, 0.34287969980227095, -1.2027856258834724, -0.19373798050664406, 1.1863060818098934, -0.23772592369151352, -1.869427761424196, 0.6550444929984748, -1.4752733082705822, 0.12871308262421005, 0.42605331874275953, -0.46546817264661977, -0.27736461581722827, -0.6741269559700525, 1.9129415133451122, -0.9550903465083459, -0.12583481844501104, -0.3298715665052346, -0.8694203094847891, 0.499060411987769, 0.8959873328362262, -0.7850421539894308, -0.19417412685626992, -0.4905229254798251, -1.896882305197959, -0.29341416135432713, 0.5488890964987462, 0.04849915586084851, -0.29324637005527804, 0.9092253605771163, -0.41881679720197906, 0.25230490470318934, -0.11903674786945029, -1.1482617582953598, -0.46331588078071273, -1.3482824008978427, -1.7221005195628847, 1.4201280173212296, -1.2342986816986214, -0.9726463454447252, -2.198852142963115, 0.44421501814260667, -0.5067503281913454, 0.4789329838732902, -0.3901358948782653, -0.2208612181861222, -0.1224581447052298, -0.3091223358820067, 1.4252048315528623, -0.7816865402396642, -0.08502976283000205, -0.9548830008624678, -0.18701533322906616, -0.11284405867273764, 0.6341278750088847, 0.32529786500329816, 0.7002632587532552, 0.28723793736426423, -1.0281893569574505, 0.6704011923007338, -1.1858891410461885, -0.16166996182227436, 0.7903261133440875, -0.043824261568585654, 0.5007887186088318, 2.341551306210928, -0.7917284174971821, -0.9182743600592089, -0.12189730842890781, 0.8587575159712544, -0.10859531080023922, -1.1401612635195741, 1.1767609638402792, -0.43532360819094335, -1.0700444838791014, -0.12396051072384023, 0.3923216701629646, 2.4330505119498342, -0.5911835059342873, 0.2742031908122172, -1.479563839894999, -0.36092501716537473, -0.3836165694242764, -0.7491640471119181, -0.043723686372423534, -0.04040767747833599, 0.43586988096225604, 0.2618919895268022, 0.14553741345423202, -0.7085402141653091, 0.10376295435973734, -0.8939736702209078, -0.3398016115775816, -0.589935099935244, 2.050857528056937, 1.2361536491378573, -1.5711270212235384, -1.3245037281803096, 0.34714005655678787, -0.7357007928598822, -1.3639847107571814, -1.9122399919052575, 0.5156359967682973, -0.14246044155193202, -0.17309300256120175, 0.4488652533659536, -1.2163621986716269, -0.8149767211245103, 0.5384852975050466, -0.11853501009509669, -0.22495391368519488, -1.380095260903946, -1.2466940267836382, 0.1289036024797398, -0.24162347256112124, -0.6041972516612831, -1.9075780716966468, 2.185463969419959, 0.5666201901442179, 0.5804730197031202, 0.8614892237492027, -0.4658967192109026, 1.3143175163825216, -0.07467210559658746, -0.9168620741836164, -0.6953712744125331, 0.33082006788935897, 0.05488430440606962, 0.15479112827573974, 0.17788486301011092, -0.6877440480648824, 1.268832844175219, -1.0354307645245677, 1.1576211011644366, -0.7009552756157449, -0.7552934606012398, -1.0056374156752752, -2.020969201132132, -0.37910238631371024, -1.4725891038170924, -1.4631035475916363, 2.33052336459018, 0.21031922270153358, -0.29315836348385554, -1.9322538136402612, -0.19218807065241825, -0.08771978210178533, -0.15430360940044432, 2.0018196680225913, -0.10992965170543667, -2.313993354514189, -2.64086502266244, 0.05608340080296569, -0.018727184108746273, -0.2079508964766344, -2.3631091747343334, 1.3371350523122858, -0.33592804974557233, -1.073960952690508, 1.2497147597913134, 1.4805052740539522, 0.3203940041223314, -0.7522141570424155, -0.9691636784319202, -1.8567984022584996, 0.01412116317407628, -0.5790427265493563, -0.46315517265262557, -0.45555050936619035, 0.08166530425636773, -0.2243980923011775, 0.7893663636131648, -0.2816991910483712, -2.8632904765842917, 0.98269969375622, 0.3846705576891343, 0.8243434062847685, -1.979075747004696, -0.7564728508776734, -1.8817344571308148, 0.548691327334011, -2.2611715725966186, -2.1040476215032204, -0.7291896169292451, -0.34199289315000464, -0.9401126248523867, 1.8450358228234498, 0.7222018986843722, -1.1688335643305898, 0.6461165276155443, -0.2787476534235394, -1.386012213748475, -0.9677379813278201, -1.9098629764057937, -0.1867151877782949, 1.1285584224997098, -1.2344641529633478, -0.36268438160795163, -0.9686458996793267, -2.3364785184870933, 1.2904252826188316, 0.22656148793321332, 0.03584103739042873, 0.15933071204422045, 0.5174577243480745, 1.0595013746774744, 0.22194449272783312, 1.8984458438689271, -0.37080149781979865, -1.7935191183905617, -0.629506110363537, -0.368091135322918, -0.9082805542179525, 0.5584738267577763, -0.4818765252414551, 0.1717486897784042, 0.7685151123532505, -1.4651835119384622, -0.6830321420550252, -0.5364345473971801, -0.7368659292499282, -1.9946134781175977, -0.6842247341964056, 0.24098388794957318, -0.8392970284963216, 0.5932123629404173, 1.756645430873381, -1.6256818033101768, 1.2979053149522675, 1.2581693241613368, 0.8100550451643787, 0.1115344022360491, -0.003102969740622281, -0.026363289652335694, 0.7625901321179899, -0.4560224975453501, 0.10278346122514058, -0.538809170818996, 1.0811503229667292, 0.948293912226997, 0.11692286414752691, 0.6610002610578628, -0.0988338512407721, 0.7937021198353358, -1.0466119726585652, -1.8009941247249608, -0.6463818338287299, -0.29560457269321483, -0.16430747822593506, 0.7311981709082541, -1.4416600802057107, 0.08239561268845201, 1.6395079480578005, 0.7691962371305877, 0.008590306958617263, 0.04070470612406746, -1.696922989650656, 2.009328848731834, -0.681684140780638, -0.5881376628046888, 0.4540968647595402, -0.388952273816416, -0.43944816705068296, -0.07339718462381511, -1.0695423739203542, -0.8476190442180024, 3.2303741651911686, -0.230746247080681, 0.07492791778757603, 0.3583567344049993, -0.2371515473816416, 0.04953162266024988, -0.21481362353272443, -0.490478925612275, -0.9678264414196922, 0.4763979301982445, 0.36652168701061194, 1.755173586239263, 1.1755754799373275, -0.16992723476032942, -0.7960719662833671, -0.7670409456135991, 0.520844122438003, 0.09500034329106703, -0.07868177245494536, 3.0704389717205784, 1.7491198348045378, -0.5668402124635193, 1.889730237719877, -0.6794853860815431, -0.718934252827259, 0.2269151727699721, 0.03593471035643129, 0.9608878360211865, 0.38634707202724844, -0.13109924294333397, -0.0031543738736286636, 0.1310791959341822, 1.0555494114787414, -0.9189215877311453, 1.5389845224526102, 1.0540677432464354, 1.183000930512842, -0.23476419298361995, 0.9140860128809564, 0.9321531137180952, 0.8119750672927191, 1.9265099480672916, 0.4822713296746954, -0.5639278693635728, -0.04108922623123272, -0.5301065878737621, 0.9992791784402586, 0.2686414817344184, -0.0937104195650653, -0.5810653593567024, -0.3989675471526078, 0.9736416613933582, -1.2072141005684862, 0.4660487939431702, -0.8612272459658464, -0.49077925234942604, 1.3182368430440727, 1.393701074451028, 2.163196284495559, -0.023623628424319396, 1.7538066199198756, 0.3926800672253846, 0.6643236181508453, 2.6437233686070307, 0.20130314772600788, 1.6644044680936556, 0.7236896414919922, 0.3011236962720273, 1.0681848722288672, 2.185947187218204, 0.5082883339655728, -0.5020656611747367, -1.2816949104532076, -0.4900667572533192, -0.3442250320228439, 0.264938722856109, 0.32528383649858755, -1.9797379918490674, 1.5592071076717025, -0.41976805147020185, 0.5004821827554539, 0.7896031305126198, 1.919569328260423, 1.3742258058666257, -0.25015691525010014, 0.5865226573030073, 0.39733130125670485, 0.7457245952341381, -0.4504725992682533, 0.905884177221252, 2.0966768831612845, 0.6077184423645808, 0.9362719491882286, 2.1550600508681, 0.37778691008535037, 2.9674404360503703, 1.1802611690925233, -0.9602341727658392, 0.6572310017293325, -0.3401759682860806, 1.327451327278318, 0.8075483518951965, -0.5708077312635854, -0.9279564126799922, 0.8676944320273322, -1.0178674587461993, 0.3453042892785974, -0.8540019349094718, -1.2516022871552992, 0.5388400094107683, 1.0066159190671662, 0.47202203769868484, -0.6320967050626718, 0.2890058644869794, -0.23984050945031446, 1.32461925154355, 0.6807578530409976, 1.5780045297826961, -1.0072174562815257, 1.3564356089873555, 1.138072515124954, 1.5117598313224034, 1.3433030146213933, 3.6314855050602515, -1.0951333242921484, 0.2297814937847385, 0.45827830219884164, -1.190900329364281, -0.6877297005448747, 0.8664184503436924, -0.24383772157457576, -0.38323179364813764, -0.29436008672731717, 1.1221551884096712, 0.5935673384238166, -1.3873207841703545, 1.0053815877299124, 0.7149733470230234, 0.12481968226634257, 0.9379843592870967, -0.6949610481045463, 0.33338226566751145, 0.664999533230831, 1.6111784310641157, -0.1284816089107267, 1.2993045103441208, 0.3911957210602103, 0.9805799269141446, 0.2515987046606204, -0.2059200102763954, -0.7478841212558975, 1.2158394053372623, -1.4707877356492864, 0.48834223754196865, -0.48476147566485295, 0.7672383286248317, -2.0448816038090727, 1.1016293399224557, -0.4627055255119695, 0.5192318666021564, 0.19015194178683106, 0.46757030245207354, -0.2700673993980184, -0.8660712506044291, -0.3239765072437255, -0.2611876713483811, -0.6641393940890045, -0.29814209633707783, 0.7960211859870464, 0.717824067309281, -0.6019351524341096, 0.49131246193542627, 0.25542299652632144, 1.5114056547224144, -1.2258002846103768, 0.664518373477159, 0.22615771673038168, 0.04028778081812679, -0.762926079935657, -1.5381650804120641, -0.06375953615557574, -2.1163476112511823, 0.23730463846207756, 0.29631875560241117, -0.6108475956623796, -2.675186417539662, 0.4629741027021909, 0.5533137823174729, 2.4402347586165996, -0.8192959126267615, -0.8097751738916924, -0.45598207308283906, -0.3094191297772353, -0.7028133012595082, -0.023451441135384807, 0.42421585792178335, 1.3435682086293623, 1.0869587163974064, -0.1468224316511973, -0.8421623311284406, 0.42244253754484673, 0.47976906876172903, -0.6750574469579758, -0.04064686786398054, -1.696627865577992, 0.26344385663534986, -0.4193868801340808, -0.3971230449489785, 0.7346542722099775, -0.42296486189538374, -1.2927375916037478, -0.22460045538097512, 0.36732507784217483, 2.0336305340045846, 1.1221707650858526, -0.3728329444780733, 0.5984258534278685, 2.3846533227148154, 0.16176601869236454, 2.198601607551896, 0.07914428163897808, 0.3940338263180684, 0.5950609717856071, 0.16544530373647437, -1.2241424374856162, -0.243713825251032, 1.2145796538757625, 1.8818631616448325, -0.6919971263603311, 0.9741325689694759, 0.34804757712499906, -0.5786423091335146, -1.8800249264026763, 0.0735552444510848, 1.459132088917863, 0.611429514749471, 0.010527784260722197, -0.29223186897355924, -0.4067297348761014, 1.5570315718424652, 0.2936391309028765, 1.166682004619778, -2.8459088418369265, 0.24161218253737013, -0.3477226096853081, },
{-1.0397043362936784, -0.6876418531395493, -0.07286182296205225, -2.1783236394819894, -0.7368481861783958, -0.354592565587357, -0.10369264805301354, -0.04010400716386022, -0.06961749222096443, -0.04319013752700268, -0.37816730320587416, 1.3695835158481642, -0.6996177035558124, -1.419986526604202, 0.7316650495787924, 0.5688027125791659, -1.7633158623108498, -0.28546286703153256, -0.31831217118190536, -0.2348132803171046, -0.5098796118812496, -0.5066744422414495, 0.09825974694304104, -0.2724287690784568, 0.2701394151914245, -0.15506560729594493, -1.338907158945547, 0.004353167615759058, 0.4549921326077993, 2.1411900616300357, -1.3770560456251912, 0.975560903915711, 1.17025607917689, 0.3887777668470982, 1.986636237685379, -0.39776445774300356, -0.3509499966354759, -1.129594414210341, 0.46875001462456506, -1.3653930812176025, -0.9149742521604028, -0.42254808175775427, 1.1447168163055952, -0.7365757106614098, -1.712996697893137, 0.3448721501335808, 1.0914360201871562, -0.5381566964577529, -0.3063657010678393, 0.4151429978040967, 0.09424522233762356, -0.07903533768743916, 0.2783073952955493, -1.9186769446800935, -0.698745490975009, 0.1768350871430339, 1.0489546640350438, -0.40123171630379434, 0.10730392230589314, -1.1264162499565684, -1.4215293681881782, 0.840750554551905, 0.7339193443937571, 0.3884405013643433, -0.4528405511493749, 0.20488821134210528, 0.7778966269113832, 0.18652274572793237, 0.12326290983682474, -0.054652520797148114, -1.5241958327280674, -0.8950503132205562, 0.5893565710044113, 1.6827672715119697, -0.027727603501029957, 0.3215145234670346, -1.6566599986392578, -2.008931128641482, 0.6599446568273175, 0.8048304228593274, -0.4511468403774027, 1.7954061875786858, 1.3772988218458273, 0.2986724413216979, 0.17600858400497563, -2.3429721379314925, 2.0242219551035365, 0.893979945085992, -0.2320125050287358, -0.6698301426044827, 0.5963582101740058, -0.7033915828984992, -1.6750822811916761, 0.7217041213324262, -1.8011177845559747, -0.3792642587119252, -0.046096116986861356, 0.5961060104383995, -1.6393627713276668, 1.9597487811204957, -0.6415147769216755, 0.14705734328816347, 1.2835361456037246, -0.5159984175758126, 0.5628810075690064, -2.2702528101254282, -0.264695318079394, -0.7439353989806985, -1.1601379040278008, -1.2429025498370792, 0.09504313697285413, 0.30023517472895483, 1.402939673258026, -0.3991132050245576, -0.64173088175366, -1.7924766377229766, -0.3991081742573022, -1.5692230917183034, -1.9991494587821996, -0.21347271901836654, 0.09390628201904228, -0.7213393043598288, -2.283105358245018, -0.07427955780715167, 0.6552594508836455, 0.2747842471646315, -0.9071295766088466, -1.5191730744433203, 0.8467798527387903, 0.15359394947283195, 0.14822384478327916, -0.6415651964905492, 0.5773683937865095, 0.7540373190638878, -0.3606866561295495, 0.4621683537414512, 0.4359388205626581, -1.9339958361620047, 1.369864191286844, -0.21098024053776424, 0.8114106174987462, -0.9032795597190469, -0.2578804964062886, 1.9140611406306507, -0.401232495486, 0.08500394209951588, -0.5853895149482146, 1.0901964903582775, -0.5464751909486812, 0.33879477753638804, 0.3315880427389481, 0.3373570220967401, -0.06386445123738141, -0.9508827667503776, 0.2712439348571301, -0.6174563275281415, -0.443898409109148, -0.739638428634033, -0.008262948164073013, 0.5491343196829279, 0.3184040347273049, -0.10859277314108223, 0.27021023161982116, -1.5245959824122919, -0.09883445089515253, 0.12207961050686228, -1.1273391539173447, 0.8739894441828512, 1.60522109966119, 0.885053937741504, -1.0131884984054733, 1.3175195853576749, 0.2319675671929373, -0.4781592853054122, 0.9526663257004546, -0.7352162425478292, 0.7992525128619825, -2.136726349452629, -1.6784425588260565, -0.17648978512149352, -2.771895386765964, 0.35482771238441435, -0.25820519186845053, -0.18341594818609597, 1.019433626181718, -0.23003466241516582, -0.18807143605424506, -0.32502335249614556, -0.9662761245539382, 1.1682828834821097, 0.1924980218407928, 0.1805096765404531, -1.2457727229331468, -1.794392541035615, -1.0596535059016836, 0.8845015332573702, -0.43768681483818206, -0.8229919278697062, 0.6784785559689906, -0.9019675951670864, 1.9764660749726017, 0.7024060512652694, -1.2035500422190348, 0.8780562974441641, -1.1410921246044832, 0.3740394892492267, 0.44890834285016834, -0.27789794159590014, -1.1383071305486019, -1.626717175953802, 0.1855460572077592, -0.09793873212327824, -0.6038208035618415, -0.715461139066123, 1.2615442748296033, 0.018454817881169903, -0.7539971311721246, 0.016032641733655744, -0.45977967934974956, -1.0283280337527603, 0.29581137237766214, -0.18524408951296323, 0.9757390090858027, -0.8727207439494769, -0.1394292652001844, -0.07191421822116528, -0.30580996959326184, -0.08396423674644277, -1.1804945783441259, 0.20268738191483418, 0.5773119567244295, 1.6381084100793613, -0.22343704040606693, -0.23155548808569862, 1.2997673477756024, -1.058740451564303, -0.1590822347554177, -1.2823891397713805, -0.5700320470450488, 0.3512559643464987, 0.4818503615798415, 1.5866001119634152, 0.4697830256844112, -1.416296539788171, -0.7518064097928043, 1.2968854716734308, 0.7420727710082207, -1.1182982045415246, -1.170545729040061, 0.12758046420559596, -0.076316665235978, 0.5209706431302401, -0.18551898815298246, -1.325795674120517, -2.019653636165934, 2.083926727071043, 1.1248475940138196, 0.47782374298742675, 1.7021101728985863, -0.4793890524858372, 1.1717555201572767, 0.4921578861660915, 1.2823619358554037, -0.09843590534916437, -0.6705534680253885, 1.2719130004994286, -1.2183996481119217, -0.7058783043273988, 0.6051226647226736, -0.38430932271154095, -1.1581566311346752, 0.8463960603629281, -0.15570083077639735, 1.0391976190505916, -1.9216478584342684, -0.409999138566485, -0.13882410445978358, -1.1702329739149975, -1.6309298607565437, 1.9997347883553425, 0.9030358801733961, 0.32265948780789155, -0.6976964300779979, 2.0678740506102726, 0.3624587732522623, 1.3119326771192044, 1.4390478543660041, -0.2618213601362292, 0.4982237755347332, -1.275036713235021, 0.8481992242278731, -1.1975256064855497, 1.4095239441253935, 0.7692868933375091, -2.5137390964875377, -0.5800016102625899, 1.0862684443536452, -0.10147292445526146, 0.8604454409323258, 1.0036365373466676, 1.1422636075907076, -0.013589458468938788, 1.9274440460814783, 1.503339282314466, -1.626587495391259, -1.4336595629887354, -1.3224519723503578, 0.6182121774571472, 0.19000164619433002, 1.433526523953422, 0.576387441447163, 1.8865928425962388, -1.4183286966913082, 0.9151080826716279, -0.5916359630394918, 0.2052389533234125, -0.22879931026178707, 1.125083766192077, 0.8569135355073108, -1.475080173511553, 1.306485840964837, -0.3324177670924353, -2.9677761294030054, 0.5473575117493931, -0.5352517831626492, 0.6909416106124214, -0.4978791733777628, 0.2158020280910245, -0.3825091640193677, -1.4269797405313867, -0.1483939099832025, 0.8059035546183774, -0.16976771839750673, 0.7526077576445152, 0.1702986748016992, 1.997908594271948, 0.49102707390076755, -1.515273992981273, -0.5164999577520824, 0.04163441833192728, 1.1372347023231135, -1.7827877274015491, -0.62250589013932, 0.6094882484942659, 0.8664001180475601, -0.27507690362247605, 1.7294150274438829, 1.6647259478586738, -0.8387241628505613, -1.4652650491664467, -3.154993317640224, -1.0057391113000416, 0.6638485956000386, 0.8952305675433959, 0.5227905823054759, -1.0744407790464652, 0.1883069856978768, -0.1507223958077324, 0.3841380670784714, 0.8142577242451409, -0.08250223327127176, -0.444955389310579, -0.23340558662045957, -0.07635818342528534, -0.2272822391596367, -0.5042205324245842, -0.7677048385172752, 0.5767496222702293, 1.7759139101718124, -0.8197056665296573, 0.2701179978133623, 1.1143991405799383, -1.5359221654742574, 0.3816331025363559, 0.39643895651204447, 0.22908377415365835, -0.21355270392056022, -2.3151670346995528, -0.9615971039692819, -1.8208154392689535, -0.7198701939872274, -0.5898063402848099, -0.293896166046625, -1.971076034127019, 0.29736807355719264, -0.9559790202604939, 2.4199124884023346, 2.33306081091741, 1.472150186933096, -1.3488653474961985, -1.0249391287994374, 0.19906533718804637, 0.080645007324277, 0.6366670550602436, 0.6136092893102417, -0.7617812878549202, 0.4454908089824075, 0.8587832659565904, -0.0727985477779867, 0.847245561835317, 0.13967216647746256, 0.8202914911867637, 0.9787102843774226, -0.8857556528687844, -0.7339046448813396, -1.8696492068305064, -4.2801980042114955, 1.400812128277366, -0.02501281341394791, 0.6464014008827175, 0.24349202324793118, 0.4052738849222835, -1.0979431103594874, 1.9671716904020773, -0.1043045320161039, 1.4484750608009855, -0.9813853298378453, -0.9471546620816729, 0.542338655285636, -0.4440504393613069, 0.320987283202581, -0.5543490235662198, 0.13081395062001544, -0.7795551713843049, -0.7318969103531537, 0.4684499643239985, -0.5579042046343357, 0.37393274836664747, 1.4870890046852177, -0.09715210641622773, -0.1994266838975953, -0.7705199844846748, -2.3354338499007543, -0.17540737244002966, -1.2094289211614377, 0.11197031520804987, -0.515823214536845, -0.3322424573964391, 0.2113205708207694, -0.4942698249776473, 0.001515717065764791, 0.34757437123561946, 0.02632132444826102, 0.7751447205769622, -0.6510416147407273, 0.7493071130992731, 1.0369591869069865, 1.5732028207990478, 0.24541886967628052, 0.6953379667070729, 1.177623963582486, 1.2477845930265379, -0.11528584783490135, -0.3531349560606487, 0.6204459497512715, 2.068323586616706, 0.15673488356053644, 0.29932595674376006, 0.8313134660192021, -1.4793248267707333, -2.9505499643210644, -1.4350709761700748, 0.26445524159053757, -0.3479790158663764, -0.4978930688945246, -0.8202838197690238, 0.023344671597259163, 0.8059008673556489, 1.168406298091247, 0.7386615040359057, -1.052488805966794, 1.5409848668544899, 0.96747628624173, 0.5083959579859989, -1.2260906100822093, 2.036202413468661, -0.9800155634959979, 1.1535532294909832, -0.18454322162656273, 0.19657603004126356, 1.5539513920549393, 2.6660194869845584, -0.2867157208798339, 0.05321391531075173, 2.236187166617687, -0.484005442475191, -1.0767522185445508, -1.413612868579646, -0.8295775577399253, -1.88416313127098, 0.6801039135828781, 0.8817292984012335, 0.16559105146723355, 0.7323082539679704, -0.5377135019295604, 0.05364670456498728, 1.2237748322318278, 0.6240291962767687, 1.9936927720995883, 0.6759288683588212, -1.3619824260027598, -0.36444759829227713, 1.184918279451794, -2.244657689358482, -1.0210008689030248, 2.072081370941572, 0.047706418819313284, -1.3518834695951818, 1.4750506338789966, -0.33219091486273433, 0.3602743673548013, 0.49929821703169097, 0.4150592623235213, 0.7839412351862397, -0.3820973238620083, -2.598328830770788, -1.9682058111032505, 0.35331870161621043, 1.6452613393819997, -1.2428484027975266, 1.6412648339890221, 0.9347925392446907, 1.285789706026448, 1.2270933872903185, -0.05619484788956437, -0.6041739327468709, -1.4896064504789857, 0.4962410729647193, -1.4980738235531175, 0.44014509266874347, 0.011391658078482858, 0.04778097615711934, -2.47003491964254, -1.6181785618110247, 1.2331769379984872, 0.0012807893851038406, -1.9782606941904086, -0.3345288981869767, -0.3315909584043205, 0.6447339807096055, -0.34598233247554755, -1.4854209177233186, -0.46951426747988556, 0.4799557544354847, -0.10545384024848663, -0.3936317828124235, 1.3497309207592583, -1.8052991131248657, -0.6113406594500339, 1.1845851029543466, -0.43413433981658056, -0.020581510976056493, -0.466238349512653, -1.6665390221596448, -1.008962243053709, 1.0915916183708847, -0.7982599804993767, -0.8793337640660193, -0.9521792806057999, -0.7014619775902323, 1.0232062928131966, 0.4940844676590172, 0.7896428438153029, 0.039065761111053296, -1.0496172942036315, 0.24324717391983477, 0.10770737012383096, -0.42185723266781416, -0.5766914785328702, 0.39013426194750483, -0.9089279453283632, 0.33262706260405905, -0.5164593974090325, 1.4120389084903977, 0.6907344824123456, -0.1639507972032814, 0.515129616526203, -1.1420542855824551, 0.798410712666679, 0.07088597285992858, 0.3385580524563692, -0.34020342261766706, 0.30849523500995013, 0.0722781871094397, -0.5975556819237895, -0.9785701431795752, -0.6206314703640288, 1.4688176004747624, 0.01759077448421464, 1.595977987641483, 0.29887672754706546, -0.9871004823874642, 1.4183932309028737, -0.34635319894435, 0.8147393430791509, -2.095036820241253, -0.5645410813209316, -0.37173498458887627, 0.47910635965145765, -0.11557025708122323, -0.4089585781955526, -1.0685453862790812, 2.2261192834814247, 0.007545826263816854, -0.9803710396701059, 0.156912303128135, 0.1134482292046952, -0.36895900554891425, -0.3258481627341803, -0.7233675898191858, 0.7273452393681532, 0.03705555469005374, -1.4219964985152562, 1.01380123033556, 2.4121088633953804, -1.0013405775151971, -0.4700582331875363, -0.9325296561506153, 1.0425655081654055, 0.4639060454265009, -0.8874763877183555, 0.2510103264800488, 0.46918443605189253, -0.5719694735256398, -0.3718909699270618, 0.7349388051743925, -0.3337785489435953, 0.0658369393403486, 0.480570695623329, 0.31721209182807253, -0.11319944280490456, 0.21330507227469725, 0.2295890377116304, 0.751667322941437, -0.8252027035989677, 0.7824426739471168, -1.065369394127294, -0.06055335179475018, -1.836615082056613, -1.9225487124033511, -0.9191016183864782, -0.5320977214973379, 0.7070927012786247, 0.3994108182195371, -1.1965461295834967, 2.2967712043080573, -1.0891238816902105, 1.3807854124336603, 0.029253604963445118, -0.695808516959477, 2.1355371979457423, -0.016509316809964935, -0.625422886129482, -0.32098019869963146, -1.2663197222062115, 2.422519699846606, -1.5175260003918813, -0.5382816080282171, 0.17340136766553563, 0.8145109208930865, -0.9863406486459884, -1.1337309354343954, 1.4350055944167825, 0.7266010926603386, 0.3783991348156645, -0.08586385944633146, -0.18334157157574948, 1.9045049596793968, -0.26385687434486665, 1.8003347955521094, -0.4508674757114229, 0.13376066068784712, 0.3374010138540164, -2.182971977359333, -1.4492817871010095, -0.5627593790745334, -0.5132146143641044, -2.2361947289999655, 1.5632129113673088, -0.695796475599892, 0.8222167561387481, 1.3066378364981022, -0.931747298791266, -0.7261994588919861, 1.3873911214793533, -0.7876905649126241, -0.17563747872951996, -0.12431615500876629, 0.6638445640870068, -1.9631911633642976, 0.5262838114490028, 0.15708111850342696, -0.07025613331746486, -0.7477567489561728, -1.8788617622842052, -0.5936097063215886, 0.9124168936262493, 1.336680128006343, -1.2812089752255735, 0.45804064700658614, 1.7254132819562575, 1.5054017292527886, -0.7785632981170185, 1.8774332451201659, -0.9292093518906702, 0.04639297884153478, 0.8404386898932326, -1.3049460352006064, 1.4250652150032284, 0.3515068091858734, -0.5012224730981684, 1.1858709763706832, 0.15108813436918486, 0.4429540828275383, -0.5162895545592673, 0.017092015405157236, 0.43650175531283414, 0.731260721168642, 1.183784668878952, -0.32425722994550366, 0.7643788014571592, -0.7401476706856575, -1.1316800013338304, -1.3471817027851294, 1.114098296656751, -1.2392460020580214, -1.4645193669312089, -0.11274813694420767, 2.069473634888546, 0.9849724758538064, 1.0076145688555256, 0.33388710657842935, 0.2955376096839458, -1.3355515432023333, 0.9310120690847286, 0.01620272114944285, 1.4638124222113353, 0.5050164689363118, 0.44102977843367924, 0.5909547928139057, 1.4737509758984846, 0.3461912476873584, 0.828051593277619, 0.5823305965566156, 0.8178360531378854, 0.11035451604975227, -1.4842845365703043, 0.14481925840075693, -0.16274941416329564, -0.5542925702981301, -1.234028422987355, 0.2611717311026867, 0.6068594137926079, -0.16268797588886927, 0.7996570487696971, -0.5615451172913644, 0.12801162060994334, -0.7463659015544339, 0.22242325066587382, -1.4614082664482206, -0.9346313283034636, 1.5492945717149782, -0.8873897043168922, 0.7972058899819808, 0.14585684529012058, 1.3025904804028774, 1.0989971432782981, 0.9622686168036922, 1.1201218609466, -0.21121657960867626, 0.34671791885303993, -0.5624586580741736, 1.2069788876158405, -0.5361577952924786, 0.3797797697436648, -1.3177754214408197, 0.2397746475525751, 0.3680632450935234, -1.2061212017116771, 0.1696951617862512, -0.3487269529993666, -1.3616806750168637, -0.7133382100013165, 0.8192786874297466, },
{0.6067206404429382, 0.49305197655680694, -0.2924570595673265, 1.9947643326847, 1.6067909375635427, -0.033063579985321834, -0.38497227885897733, 0.35889474857846043, 0.16976912591194698, -0.7022261380107965, -1.9057349006586277, -1.8550168969274616, -0.153337861758133, 1.035482029516667, -0.17710956546145443, -0.35811572097051736, 1.7824351649600532, -1.0642149487971375, 1.8201537585900593, 0.406044456056525, 1.3701640997938493, -0.7646297230303013, -1.483412499696834, -0.00500228313284731, -1.053313685721415, -0.6609900740289637, 1.0108072027354778, -0.07138149194150735, 0.4994281232775984, 2.5596211839741088, 1.19016691968992, 1.4626042345230728, -0.16189978217570217, -0.08535692906954255, -0.6405859586710493, 1.0421567326976147, 0.07418585927433809, 1.2737843168346863, 0.33289226900850366, -0.8293875059558016, -1.6269300854042903, 1.808637942931856, -0.761121940858864, 2.1217610797807476, -0.17560489951144145, -0.19410831981888918, -0.35570180157018993, -0.254328808746901, 0.02275746901384367, -1.6098128644382868, -0.07484465802307066, 0.7257058638215735, -1.0359570617077078, -0.815041772639824, -0.7779906009427638, -0.9254954215763572, -0.48343887880375064, 0.41780262191165546, 0.07637392654644264, -0.42524454939995787, 1.1901889923580904, -0.4137257303273221, 0.4729017315423001, -1.0115852136845584, -0.7009185356562535, -1.5881580324799605, 0.07254621005246671, -0.0018438159629042537, 0.7575158316241963, 0.5413749788772166, -0.8644776776086863, -1.340644970475567, 1.7035294539655486, 0.1492505565540628, 1.3728274601629706, -0.2690924217217262, -0.8697637390023225, 0.5366684189529989, -0.25577425157411476, -0.41790281586851896, -1.716984542856471, -1.423397921091255, 0.13752061519523934, -1.3515606524344987, 0.32284293167386663, -0.05569899543507734, -0.07158460472373766, -0.4595379574478827, -0.39907134464530164, 0.57999360741367, 1.1907160896964608, -0.4997650827112605, -0.7230219482190839, 1.2226663281859638, -2.012905617873547, -0.1115407060634467, 0.9262320174041092, 0.3354051072094129, -0.17902183876508337, 0.0413011811195572, 0.8932391280046424, 2.3505625310744658, 0.12780494349116897, 0.41214991191958733, -1.5278883783364308, -0.011853776747158457, -1.4661654774969952, -0.9341210495339155, 0.2932866588164938, -0.5998801200867596, -0.3221342935014908, -0.808017090640674, 0.5701945169313352, -0.0261275501144005, 0.7820121696520014, -0.9492231344509219, -1.170476382568688, -0.303755378973898, -0.5686077302955839, -1.9946170799661866, -0.3185932869189072, 0.400299243174369, -0.8457622458281143, -1.3183162582245187, 0.06293401200635286, -0.6704040047455888, -0.9051947392587975, -0.5543451550819964, 0.15904113107018042, -1.0551616066612104, -0.3430510516373564, 0.11348691244409398, 0.9472118053641125, -1.4997443061193834, -0.16269963853640526, 0.08202796200258984, 0.523426727586381, -0.22768263058354374, -0.1651303204140336, -1.0575599192736431, 1.693673431133263, 0.7547144738475874, -0.4287654311556611, 0.5931573044557296, -1.8410364702291035, -0.9432703441666883, -1.6233188700187453, -2.045691213671866, 0.238345784158216, 0.7262859627207263, 0.12304804864963385, -1.2410515247242835, -0.8809408240371932, -0.9710682270230858, -0.21097280587410042, -1.9857134138324992, 0.48724934560589284, -1.2333825057136527, -0.6852333606910589, 0.18192828123216698, -2.175942595115206, -0.06455197765855392, 0.039823254249843315, 1.3881104318126867, -1.2427228087040134, 0.43110658296142823, 0.7681647311974709, 0.46766399325743163, -0.2362924887358153, 0.17216252302338125, -0.765483618868607, 1.4660357954044345, 0.0527653987896416, 2.2161129371166575, -1.2080872386857116, -0.8377729586950493, -1.0515929152835042, -0.7236584670817, -0.5957412283421173, -1.1110439675281323, -0.4446722622446314, -0.18798402474825474, -0.9470803379033079, 0.460640413391912, 0.3791330500248086, -0.7739657137304046, -0.18108296387127043, -0.48026963722647187, -0.06547679435551186, -0.5790428181148544, 1.3053067980659059, 0.8886871543471876, 1.3067771720353318, -1.658030441781669, -2.580539569280742, 2.272542817485202, -1.2981663523715672, -0.20429122673565922, -1.600534077183735, 1.4191820159339168, 0.06312544019209712, -1.3360254051880147, -0.5994116917623113, -1.431649006021409, 1.14315568899983, -0.31368112821544175, 0.808330231998443, 0.5001839986003896, -0.6286428995112999, 0.6275614013216112, -0.8598303432293517, 0.49923621358924136, 1.3975002428970167, -1.461404228414062, 0.9340345082406375, -0.6842879942046226, 1.1559418112609852, -1.057807484358351, -0.5281864410762218, 0.08731794002326354, 1.9360417143972817, 2.8401132660053836, 1.3186672544613383, 0.2853676799496934, -0.32188048599972985, -0.8124823624173158, -1.0212170533815728, -1.3347221562923606, 0.5548063456518759, -0.9060354972679633, -0.8062241801394842, -0.48743655593383234, 1.1697852966439681, 0.2817258216078105, 0.5693695226956766, -0.09254563923607162, 0.5647988865720455, -1.7811893551093787, 0.8512694786068586, -0.7601354532344319, -0.4584728612308431, -0.6925518633212338, -0.22749257695475072, -1.005337219837801, -0.7830192893539699, -0.5315282448527965, 1.4664612927442409, -0.7477975349779563, 0.4950729021044622, 0.9172612928408153, 0.7779327809452421, 1.1378869878286133, -2.52713979809637, -0.3789612397692577, 0.6255026257017854, -0.5153192308524226, -0.7392799318809349, -0.0045570657223808235, 0.382964863283777, 1.3536651022293855, 0.3026213628283699, -0.24602222263872697, 1.5765718772619488, -0.9516657282142579, -0.7236235343224833, -1.6529443952120253, -0.7077739471068843, -0.8255453164306902, -0.5510490748733105, -0.7629323598802233, 0.5753727119732696, 0.024091730473304096, -0.03886976530104086, -0.9579328338277256, -0.6622817545127968, 0.579533766956413, 0.7520269213307561, -0.8840533666538205, -0.5918996611857595, -0.26975676718819364, 0.3498872226443155, 0.10406253625951147, 1.4073079223056166, 0.5833956263233966, -1.0039975843087765, 0.668404183340468, 1.1467613056390538, 0.10621559691638653, 1.7411655750986266, 3.026113523686112, 0.5208015697154331, 1.3559802867408837, 0.7735730868646499, -0.12849839056429285, 0.4686280121232727, -1.6618266010199736, -0.7078282033477327, -0.9045071692065846, -1.5694126267432444, -1.8419243250150295, -0.812335274043239, 1.09192184830062, 0.8700881554741295, 0.07827554459589141, 0.5625670343770657, 1.37377878639069, 1.1296020795976351, -0.06581099323784004, -0.92118184877467, 0.7464670329400125, 0.492219613045018, 2.1097744839611736, 0.5023689045327234, 0.45573308719253447, 2.8313836764675746, 1.2276893349997768, -0.6985965910595172, -0.49440525764464216, 0.9845618222659284, 1.3762121194336212, 0.3563147827796203, 0.891466753250075, 0.7267233501343565, 0.37689184320877567, -1.6019114129580867, 0.6014728098142612, -1.0477485303302312, -1.4964857205188848, 0.9330532061082027, 0.30049788277252093, 1.1334004040512264, -1.1783855719951992, 0.050183194831459076, 0.8443471808815498, 1.1373193776962156, -1.4289326757120722, 0.5885579605794854, -0.9616288869547596, 1.445595713504196, -0.6257985036700706, 1.5395763998765013, 1.4082573484438057, 0.9301436308398935, 1.147462576117995, 1.4257550949108768, 0.4952419889122815, 1.371612458947228, 1.0361555942043164, 0.4108928642625748, 0.15347470916775385, 1.6329738595878507, -0.4924758603065866, -0.3072387807961959, -1.2103792012595496, -0.1701401180960071, 0.24607725696790958, -0.6302566525819697, -0.41403269148628313, -0.3929967783194615, 1.8269768752979405, -0.8686844022221137, -0.8353503027099392, -1.267203425703288, 1.4980756214490758, -0.5467158577602875, 0.2936374709870508, -1.118184129195731, 0.7292938478115089, 0.03139325222005955, -1.0153147471211073, 0.2188398816203564, 0.08399253205692953, 1.1973337383418392, -0.1611142550677469, 0.33152152373483, 0.09300057601697401, -0.4632280042589783, 0.741843122204581, 1.4234342016239294, 0.8927698901803559, 0.3149329241111965, 0.36446354329180736, 0.6824266870048081, 0.9455638485629042, 0.23453276980690974, -0.8731736041405045, 0.6639585369642123, -0.15761846775438382, -0.234128354860602, 0.9283636319810261, 0.5974137179373523, 0.7424307014882888, -0.3981517960525082, -0.7347642502041135, -1.8864113144440782, 1.308935159104088, 0.2809403105614791, -1.1487998649576725, 1.4261251779810014, 0.4872361424837565, -0.5531268078121023, 0.4058186803693713, -0.3907247233071712, -1.670701487611827, 1.3151597637222754, -0.3838921459521621, 0.9147134968426421, -0.024696661240833653, -0.10798897594350927, 0.7938422116120015, -0.9369152214578743, 0.1293174329813992, 0.48644509733777586, 0.06888347021566794, 1.6433831507912786, -1.4246451855554463, 0.7143609706039301, 0.09795082467704862, 0.3962869935871379, 0.06030756120686281, -1.9518208222415252, -0.5223077663144604, -0.8398102128761706, 1.1322606474061594, 0.6000893823267633, -0.3785580637895513, 0.7553802811864433, -2.0874539713092717, 0.15516494069984063, 0.966231070095349, 0.32215623583338177, -0.6355558431939908, -0.3190069659408266, 0.6100825462335867, 0.8943220992705067, -0.7418403125519697, 0.05543193627700525, 0.5193535560450461, 0.6391310658099485, -0.29252033181265213, -1.83864836889112, 1.6821455484157837, -1.4394653445429093, 0.7151892778934286, 0.6924065603101184, -0.9057712949123676, 1.6541224816180848, -0.8978420073954624, -0.9343027921081741, -1.5497575243989747, 0.3104441710196174, -0.6482606908336085, -0.8757686290276849, -0.06522221079041478, -1.7277504781013915, -0.029770750207809366, 0.08952863625899356, -1.5073939802550829, -1.0680764958101538, -0.2516229218197789, -0.04430298268045706, 0.17083089698801343, 0.413450798955074, 0.07720142815051159, -1.1808884960335333, -0.10984687914294669, 0.10983092682933733, 0.5922961389825341, 0.5381775389802839, 0.8552535213115361, 0.8805849796295043, -0.8453267885197214, 0.24034057572687612, -1.1037801776551874, 0.17882091850624518, -1.0050183292657449, 1.7086922502274553, -0.7143525506618308, 1.4706463847268318, -1.3004605607221245, -1.174737931368746, -0.14149533453746826, -0.6258063701376988, -0.05438814006261584, -1.2288827240654578, 1.4807997263420158, 0.5943757372678277, 0.5355448798382465, 1.2526382472203226, 0.9625557078702889, 0.15760370598754464, 0.2962585314253678, -0.7751102904767507, 0.6854579150037697, -0.9086428636921393, -0.7257065133217687, -1.6046286646015622, -0.3897451703231255, -1.1397078291973324, 0.5153893405403321, 0.18173675396062078, -2.29770248644572, -0.19628524664150862, -0.5557259363997489, 0.1488845554681586, 0.047236424516189056, -0.2903218772126336, -1.090673964902957, -0.6067569155528515, 0.04550514332972607, 0.2700419151586811, 0.7580921581755291, -1.0661294342863605, 0.6160261243046795, -1.0505550308512974, -1.5384757405821916, 1.3866314817987866, 1.0029539364913351, 1.2104994970860223, 0.06650672780193842, 0.10848767890238241, -0.027939297678940402, -0.10750048963101293, 0.3182819558110025, -1.570883552198744, -0.4385330703008882, -0.7144315004012265, -0.801654606724944, 0.8063829358183103, 0.21755051959196, -1.0863290298311228, 0.682504091697842, 2.048277531821383, 0.6797542522737281, 0.5920194886639726, 0.5228788293012578, -2.019628892157078, -0.9994807900977701, -0.26245598827094874, 1.0690479481793904, 0.24146127208611937, -0.16796231431961733, 0.8603605122399767, 1.6567084492920388, -0.8449138419139662, 1.0312565287070916, 0.7455874329523854, -1.6056816198298856, -0.5077590518529885, 0.23389879855125614, -1.2727005588937401, 0.7735513255592934, -0.5124931139599332, -1.4606932674079047, -1.5834470428863154, 0.8154094877654668, -0.0018030565680753393, -0.4340304519634272, 0.037701747051414894, -1.0572655726025115, 0.4531457863300298, 0.7478052844951837, -1.05850957500241, -0.8496775508385562, -0.14785759381968663, -1.9390029907773279, -1.4075625517317352, -0.7121294436634558, 0.15708716599278924, -0.5617080794378644, 0.1017498280870816, -0.29913742915938835, 0.25024034628052994, 0.24857854935511983, 1.437623098936338, 1.020919576114804, -0.7863695170224112, 0.07425086083289935, 0.471590561157039, 0.6010072721369313, 0.652326572701646, -1.026830690649467, 0.06704132572531518, -0.44812037898593754, 0.21962951047757198, -1.7686842009899555, 0.12144778849858037, 0.49834426264733306, 1.1509058878592253, -1.1697884706128239, 1.635686725111291, -2.332739136756625, 1.2960541138126669, 0.71118732439537, -0.2127121109750238, -0.8755445574952366, -1.4703136304970654, 0.4739865849756309, -0.5447365325478246, -0.24140925614466865, 1.682931738159998, -0.580966656950434, -0.5043991051897493, 2.1147521054132614, -0.7635425622241386, 1.1195012622491676, -1.3761713022037516, -1.0348290177592372, 0.3676681487964044, 0.43367626246371554, 0.9241719010515924, -0.8606936656810537, -0.2489219458879354, -0.5987900892945988, -0.02154880310665107, -1.3580781209519868, 0.09962966515321851, -1.1510399476188367, 0.3091240108532699, 0.4038342701811026, 1.160371172712515, 2.1072908967334807, -0.8993562106955283, 0.43136973070292944, 1.1552882003911331, -2.470557213763556, 0.16625134703774594, -0.3844061972119107, -0.18480298745925797, -0.8003279493766774, 1.0213402938520881, -0.6172490545726927, 0.042527083840944675, -0.7019506775247978, 1.1500381027467386, -0.5167348011195447, -0.9389236319290867, -1.0127159238673449, 0.8194941374141039, 0.9473620177079247, -1.3560869405897953, 0.9531684788093377, -0.47202156662727257, -1.7767610601822486, -0.38495504227917565, -0.6102522293305023, -0.9034099214981723, 0.4216191091754511, 0.7586978578333907, -0.24343217669377978, -0.6266681022308787, -0.17586543608045196, -0.4707665698761179, 0.8688039772770568, -0.34117615904462184, 1.6032603243222956, -0.5790889934855046, -1.2089058174938776, 0.6465877492436333, -0.17713206343497737, -0.511354310484931, 0.15206370301577196, -1.8870618377910275, -0.7850346324905371, 0.3469063508390484, 0.42710955614686713, -0.7155119559429943, 0.13382284520874216, 0.7625957210510206, 1.1931848728893142, 0.6316830111924477, 1.7163765923851149, 0.10656060376628573, -2.0302940593270664, -0.2984410047545128, -0.30287524337892124, -1.848609109393809, 1.035364962108154, -0.2739067007176375, 0.6635779375613645, -0.13700080671358852, -0.3999945815747837, 0.6095050305860408, 0.5954257451222423, 0.3362432588152265, 0.05864104465166991, 0.07001817365648608, 2.1082438926934826, -0.26394822896052833, -0.05278058194282468, 0.12876316666764573, -0.14307639991394802, -0.26897225351588216, -0.0036802307418734755, 0.242421836747195, -1.3485695796782204, -1.047826651785056, -0.4019789637626424, 0.6078455660882462, 0.711500073468376, 0.8856963101169806, -1.2518392916633503, 1.248777879042616, -0.1515605265899991, -0.6925861670763627, 0.99522812185318, -0.9001327170535034, 1.98767728168785, -0.9319170283404588, 1.7477697330352324, 0.3160041384426246, 1.309706660091653, 2.6062415615960512, 0.7866782666640928, 2.0683900784858165, 0.18812832054360942, 1.4635630343938915, 0.32591475673852954, 0.5190246762454238, 1.1830835380977973, 1.129658944844468, 2.1874490834780196, -0.45270612541356886, 1.9682406170252429, -0.2653692090399628, 0.4273289712229813, -1.259353395386123, -0.371579552984315, 0.32017992412946933, -1.2519450329697626, -0.9038985870561336, -2.154008148285604, 1.3837384284986165, -0.7149367583728126, -0.3808262398085621, 1.4431887966251535, 2.548740655396366, 2.08570815734639, 0.8282419660556933, 0.08743672864444456, 2.985961027592751, -0.5146334529702857, -0.4174263770866746, -0.5924421351297419, -0.20786284180877815, 0.7807766047068859, 1.7544194442787737, 1.412470752131813, 1.1968342616226086, 1.1095188570431749, -0.5970777493924658, 0.6761801089312597, -0.5166437222519672, 0.9165918845773695, 0.85771850826956, -1.3346091896006438, 0.8451690191103617, -0.41922705417348805, -0.9080090305601173, -1.1437472860588898, -0.4154521445790136, 0.24145622922865217, -1.0468238490431796, 1.4489641505429869, 0.062341129519038516, 1.1763969073847604, -0.9699352736675203, 0.23300429415186122, -1.31844811622069, 0.8373435612408491, 0.791847212038415, -0.30961552573435863, 1.2225402177760312, -0.7116845378635801, -0.4759990515318619, 0.03105417977673934, -0.6123763888588727, -0.043340609782968144, 0.6695869345810618, -0.30577725196286737, -0.2888293245278217, 0.9611081833497553, 0.3712277142365253, -0.5651200826172317, },
{1.140991821643767, -0.055203705754008514, 1.5038796058628325, -0.07129487792663192, -0.2787131560347378, 0.6678680915005615, -1.2326070778976348, 0.36313018411004233, -0.9773323738120274, -0.16871562082960304, -0.4343779367090484, -0.7649722469372935, -1.107262391903315, -1.35920938233888, 0.5479759254752008, -0.902899574313234, 0.6599545809654817, -2.093109449606386, 0.4582462118133682, -0.5456085906760565, -2.359205513773268, -0.09942288883692393, 0.1348691570931715, 1.0942956795677325, -0.01335762755969763, 1.1123913734103912, 0.7842230078343378, 0.06965652170708654, 0.045569264091417955, -0.7946630445896249, -0.40861683440812746, 0.9153808812182507, -0.7154732931045756, -1.6045087744539164, 0.974219027706598, -1.196909334419449, -0.5873912551226022, -1.483990844382705, -1.1041510433722068, 0.24648556824935236, 2.1550272869408844, -0.5457369988801799, 0.3334948706112313, 0.6612650885744469, 1.1570108102956098, -0.4483413427249755, 0.624971446998017, -0.43807230481620785, 1.4407132127020248, 1.4939832350051943, -0.6621348839729462, -0.34682487946644625, 1.7286954328186848, -0.08333965233987184, 1.902681839098028, -0.835287765313754, -0.07259228526057616, 1.2129831955829877, 0.8865298193807157, -0.5948737785200483, 0.16234979237658873, 0.40105168717612677, 0.4081729600582505, 0.6632840303537098, -0.5531172767609555, -0.48133008942571387, 0.5386940966534836, -0.056160804962941104, -0.07004784611175104, -1.633042348811301, -0.08142583588264705, 0.45857336488305905, 1.60373594606558, 1.2049719674595687, 0.043548127268339246, 0.795522155857284, -1.7472176526225656, -0.3153031357798535, -1.0063135547031161, -0.6163485759855151, -0.04835612836096243, -0.21400018638042947, -1.646698542327505, 0.3656800847936694, -0.9436313285841118, 0.2946767785047403, -0.4915940714323186, 1.3653713770332674, -0.08882853411953409, 1.033954862003557, 0.4191600782574645, 0.22793387624506722, 0.15176976275452467, 0.7773020014600814, -0.1575658517779434, 1.4280546665592566, 1.0164104041175748, 1.2520050459708973, 1.8275353217604382, 0.04485846283077296, 1.8919299603626831, -0.7743802535205452, 0.6371019542414622, -0.9053500831119993, -1.1070200025252692, 2.0034691588461846, -0.9735162621574296, -0.518990910251467, 0.2940527600130393, -0.33008211422606926, 0.3175953347965584, 0.2065692139018171, 1.5932073700999394, 1.2383846054618775, -0.11351794761760102, -1.4756809402983895, 0.14790742418630884, -0.1711958481261954, -0.6311058977613512, -0.4360010732746313, -0.5635219766830524, -0.03631122142720857, 0.11044593405510138, -0.7946698122060953, 0.3916047245780359, 0.06388883740564928, -1.439508285135172, 0.062131080335642984, -1.3478922423043012, 0.4556985127308079, 0.15926152240759675, -0.1671911283067453, -0.5151965691176443, 0.05578863362100287, 0.2897255971951857, 0.24576587523605714, 0.024967272596458846, -0.4898640700386557, 1.6465682042001106, 0.014918531667586462, 0.7120970768295353, -0.45192778277327, 1.7062661740063012, -0.06983479090693986, -1.0589894312968748, -0.8971055527598523, -1.3556960197243326, 0.7659216578793273, 0.7459708712319487, 0.9610643198702914, 0.8415337389505987, -0.3113466373723217, -0.0858129931266595, 2.0350642457691395, -0.04361698208804395, 0.5291096856819014, 2.269385223788687, -1.0506807409360568, 0.30654249054384297, 1.1647644433556041, -0.39089298772258996, -1.2313742168151802, -1.1180792328819875, -0.754854085058957, 0.6712447196741155, -1.1490337686534857, -0.5208550644905026, -1.5029861668926872, -0.012619181080515247, -0.23788371134741668, -1.1605923628547725, 0.03302601389177053, 1.1141774815986518, -1.2155085280144171, -0.20955068908740163, 1.2684958276711817, 0.5393375863443255, -0.27786661669238977, -0.6419905005219372, -0.33115569215671925, 0.4094858694020448, -1.3791671664408116, 0.24175114962296573, 1.2834739608846975, -1.3549035762189787, 0.7676579207635507, 0.6659317029656139, -1.8579785487756826, -0.18220849337021766, 0.66222272187757, 2.4432358778335974, 0.9152047025583397, 0.03417414892185664, -0.259822182218953, -0.244307238932366, -0.9974227376989233, 0.06800963411813074, 0.29774182440929053, 0.8062447918079533, -0.11137135465583496, -0.2990058039566042, -0.625483113101444, -0.017385146936215637, -1.1852638412456125, -0.3206111475408484, 0.9773562521594352, -0.1569253878770119, -0.43056565237082467, -0.39920264481911455, 1.5349789811686847, -1.05549940939806, -0.9133493089748216, 1.7124047826882314, -1.5007869120346828, -0.4603669649980499, 1.1350148059225507, 0.03311724895947005, 0.34189807644981274, -0.3119274596568626, -1.7686868942559357, -0.9893895929004218, 0.7975034067962896, -0.08844652051966218, -0.8844386202969167, -1.1528292342143112, -0.40478424826354104, 0.8060095711911809, -0.41652533257634344, 0.20213182118998926, 1.1948437567701278, -2.2738594824520137, 0.8745024323687567, 0.46516289608186, 0.33180113408691375, 0.01054428041138045, -0.1590344487686881, 0.002908610354092508, -1.6980714073483436, 0.6749407809485425, -0.5034501647173066, -1.715060033496594, 0.5432723178018927, -0.15888434466573564, -1.0711897491258715, 0.35601480491880844, -0.5222195806982539, -0.9646893415234689, -0.6705014776381024, -0.8500034656721479, -0.3711461220082669, 1.9125763769307214, -0.12485332836641358, -0.09051906673289066, -1.0841400490589947, 2.040705398957151, -1.4749361548821203, -1.5603866341167045, 1.3795164719870816, 1.1323875742712102, -0.5952878768789015, -0.026083595530386104, 0.1350121745143926, 0.3873836816098515, 1.2467949712637822, -0.45987125851518607, -0.988148425448629, -0.25871520908826534, 2.3439863666869556, -0.4425721588716627, 0.2520004982466163, -0.8325730989537888, -0.090113510897153, 0.8346791131296968, 0.1727934190959223, 0.49538771680106997, -1.121789755847542, -0.9245940687879928, -0.3942513544941468, 2.6813058736417066, -0.8252551537358399, 0.24502800619673096, -0.363934289951239, -0.4516361084204658, -0.6889987412777681, -0.85247270298052, 0.09526756365972555, 1.7078561425921226, 1.015453852950563, -0.2346291018370979, 0.3404208272732355, 1.110395656318724, 0.46307293606664673, -1.3221655346491805, 1.473997114673429, -0.9758431042964806, -1.386265201686312, -0.05039500787541904, 0.2427546010904942, 0.6250696587589702, 0.8906705427995376, -2.320126606420012, 0.18062515076621188, -1.085915821474157, -1.5776150471110617, -0.09096088628282079, 0.15459854163431438, -0.08111781400705188, -0.8181387318383561, 0.9382647650076709, -0.2255012078261538, -1.8675554716022267, 1.5542568146733986, 1.5419208493866199, -0.8995391460288231, -0.3284905920723187, -0.8390671455004555, 0.5220521544760566, -1.5871982442927297, -0.3556288015295367, -0.7416254133117408, -0.67655386740592, -3.0658031111400823, -1.2125997548207281, -1.078733576197227, -1.249822938611774, -0.8219787733448749, -1.2004350738456302, 0.9809875220323224, -0.1747089927959275, 0.24339572168124357, -0.5141026868147404, -0.26251312523697895, -1.9364598422099486, 1.1149132560729118, -0.03981519313835512, -0.523734623409055, -1.6140487733896987, 0.39194347188810924, -0.12076135035396186, 0.03720066634477779, 0.5693245590132693, -0.07846649969913903, 1.277204639683029, -0.8747571515753758, -1.1779805881074001, -0.47263722706448347, -1.6645294122970662, -1.847292653901373, -1.55538338796047, -2.765816144334793, -1.297241472593216, -0.8262872580416846, -1.9152254472899022, -0.15253310616385501, -1.9874201212247515, 0.032314810813665426, 0.5800164155346926, -0.7273689999753348, 1.2982429610921258, -0.27410184958203015, -1.3428975943161972, 0.5472517265023538, 0.3106872496792552, 1.952213423033029, 0.34602808027075416, 0.34032300655213826, -0.5418342031188729, -1.6377308781480222, -0.4615043375810334, -0.07637187487800545, 1.4487808584133968, 0.031606206686941765, -0.266522809106467, 1.4458842172651594, -0.4875035135199322, -1.2951250426902035, -1.4945560236837567, 0.4526542511907188, -0.820910029934117, -0.19475434297585756, -1.1888144957947986, -0.558821025899204, -0.6949177149463082, -1.2898717509014743, -0.4420121394537256, 0.726336854615301, -0.8300457243148789, 0.5147346873882072, 0.28957499911263, -0.23151135392643407, 0.7560285446877658, 1.453773323015286, -0.3281521595074954, 0.5162609458371532, -0.06644057444511636, -0.45148927228320307, -0.02545512376526415, -0.555520301335708, 2.0458566938447937, 0.6366943947512116, 1.3192543242931716, -0.2743931514342207, -1.144726198734012, 0.254722600645015, -1.3583993563874033, 0.9181474220134238, -1.4466938595168544, -1.1333444542499327, -0.5042126131826711, 1.5157686275710374, -0.9398238178730651, 1.618458015143939, -1.2114716042647813, -0.6142545718563143, 0.9186432108894721, 3.0505360145217706, 0.40204969922556794, -0.4548128521131216, 0.749421597808496, 1.0516458246470255, -1.5383089958644987, -0.3228092012612782, 0.0007861605858712446, 0.03846902897648553, -0.21262771221495175, 1.1372299772966206, -0.08237524732473049, -0.04027984908556508, 1.385389418721309, 0.7956128433109072, -0.10873096237806919, 0.9969301239873667, -0.5730900098912947, -0.09489630354961882, -0.3391944964131934, 0.7836554362742082, -0.7049325920584434, -1.9453556368877054, -0.2386144046064232, -1.598156111415449, -0.999007165198261, 1.4520383796729817, -0.7786766499142027, -1.41980682976826, 0.6794655055713609, -0.6174129109415714, 0.45041719241194783, 1.6245090779865088, -0.22447646976100735, -0.6042529304823412, -0.5872165488108487, 1.7242555881041441, -1.6161450614864017, 1.5873324645804063, 1.854120629879182, 1.8228438937465294, 1.3620714838633323, 1.700729650957482, 0.8902266213814527, -0.7002037384139252, 0.014826417475188081, 0.5366491774246275, 0.4378334920046616, -1.243183677197376, 1.3252679537061407, 0.9971736354296769, -0.13182174061433274, 0.5167020894474122, -0.12389023544975782, 0.5586101282756318, 1.459697338026133, 1.5967730907462743, -0.3053021900035254, 1.579395461148235, -0.33708511237944855, 0.5648525988154, -0.11523535790817686, 0.037192470595641174, -1.4102220443942524, -0.25776804772789647, -0.7158219353207576, -0.47236230956601094, 0.23468905166576368, 0.06041532165907239, 1.2534759217898002, 0.5429953529171168, 1.2783601433553726, 0.2547866261662317, 0.4032457827446552, 0.15063386308011262, 0.3617954126517919, 1.3969835309444978, -1.4262413753176713, -0.6848067732838513, 0.6055344595426091, -1.082478417149642, 0.49975483692649053, 0.8057952456142613, -0.32700323923481683, 0.7877464347883238, 0.8996631851765989, 1.3138183611571415, -1.186041288694019, -0.8852576913020271, -0.7952226616465019, -0.660723768283245, -0.39950199318207097, 0.08670250170358337, -1.244557398744094, 0.9316664845936027, 1.245549569953701, -0.03958600403220287, 0.3597807102608256, 1.9121765297168831, 1.2108451553463004, 1.1010624199140453, -0.010400803553525824, 1.2565316252171048, 0.07117337525479482, 1.575858111946587, 0.08331469860264212, 1.775100549101357, -0.42261365839987003, 0.09758246320289542, -0.6579434439821145, 1.9379628643391476, 0.3741283017098065, 0.9092758206173767, 3.0853245729270564, 0.1536726223894881, 0.4686838545163021, -0.8238162878121202, -0.9866779921344229, -1.0915694050907647, 0.5783076083857712, 0.5867681311659197, -0.03969922270089002, -0.2909639740199635, -0.0672824416675536, 0.2283057407148395, 0.7458056523344271, -0.8784364363100435, 0.6546308210794808, 0.8870670243385743, 0.44610235665965464, 1.0856914447171568, -1.0274268672222837, -0.0024953216037362142, 0.651602870663889, -1.1461044516913477, -0.5035351394121617, 1.739572929800786, 0.8431983962225129, 0.00884581384370572, 0.2519282463717949, 2.44017448116383, 0.1109009772815377, 0.7957366507745496, 0.22698974314777978, 0.4321712164928484, -0.33439456334638773, 0.8815573359016239, 1.8175737143907171, -0.5484432842507133, 1.0089222705725698, -0.03767843989942565, -0.9117344161240785, -0.8864604660651592, 1.03195042874329, 0.14401863384358835, 1.7780520221702916, 0.6947496318539959, 0.6002385648017815, -0.3027143261534942, -0.271616995838725, 0.15596426364011964, -0.2658629616847899, 0.15689367811428612, -0.5963259794502135, 0.003436788367542256, 1.0988402370662664, 2.4022077837971016, -0.58245765079118, 0.49837801387061187, 0.4577295888552023, -0.3755001415422992, -0.3753710552432848, 1.7166511478835242, -1.0676011038352116, -0.0761412611264739, -0.2203893730683638, 1.0594925583732921, 0.2862242675205829, -0.5652421125038416, -1.606840726887665, 1.434306522345375, -1.1367334019263897, 1.3845258515156256, -1.6260133582483691, 0.15661340469893514, 1.2353615733829255, -0.3164540006358457, 0.44843795550184723, 1.0076379045330013, 2.394949473942106, 0.11021458425474365, 0.4397198783962419, 0.5165684833346488, -2.635290790012978, 0.9256117388013787, 1.5221854875443632, 2.7567526004093748, 3.5554407379216704, 0.7223907823671751, 1.3800715944039654, 0.7715829452537264, 0.9061060697469413, 0.992843127672927, 0.025843997215741706, -0.26030530064607893, 0.39109544182884126, 0.14306726721357563, -0.10026979754049817, 0.1754690824755107, 0.24875941369263815, 0.14618035215300423, 1.3456329800102462, 0.08484733484788104, 0.16320481632592038, 0.1630188762217048, -1.6954292806226026, -0.9709597085103351, -0.3202131512735894, -0.019456357160665086, 1.28741774291673, 0.8407053107458895, -0.12129861094905697, 1.2210154468689252, -0.7733711399925604, 1.154075557589748, 0.8466180390839138, 0.11848306901382127, -0.6274211745683171, 1.2096960814025062, -1.2891326563821752, -0.9627064410368482, 1.1285349888672924, -0.7789786622164094, -0.585963063010314, -1.18689327856104, -0.48574175719263085, 0.056967014275421946, -0.30083000813609667, 0.3746537678571385, -0.5305210866647738, 0.4433541630635014, -0.5995796539298056, 1.081410938320667, -0.6369594423725229, 0.09932656552736845, -1.8632849469347594, -1.0690643481414044, 1.3612218578267963, 0.7086243101565983, 1.5441798623681566, 0.29044700312972754, 1.9811121955754636, 1.5606297055373644, 0.8244421341265645, 2.1042227371181186, 0.01483665849768056, 0.6417676221017814, 0.51439199280552, 2.4872856236295164, -0.25754349027777546, 0.9879843588691107, 0.04928186439348642, -2.1024420213436965, -0.7146189561756124, -0.8955844329492155, -0.08667148213484062, -1.0562687533899215, -1.4706389474273331, -0.05981277931716678, -0.20488344738393885, -1.334412975642594, -1.4059560874269441, 0.11449809918766542, -0.09474653839212314, 0.9344874458911152, -0.1574879967893513, -0.2111139371698181, 1.4660499831851732, 1.7875170845668982, -0.7108520225851264, 1.5188298287244257, 1.0115042456419254, 0.48824085922402305, 0.7218899768673054, 1.1596871479180588, -2.8119186862816363, -0.40561396575656355, -2.1949616077798746, 0.5918752874625419, -0.7015169185601527, -0.40449489541693573, -0.5883799057900512, -0.45507331896406006, -2.405478494276244, -0.14839518265298465, -0.6991958623306646, -1.918416909339252, -1.5786962466291747, -1.188298815313259, 0.6030639963892678, -1.7389764012749815, -0.9261519147849407, -1.1613508725997368, -0.7275959767067545, -0.34496688340521886, -1.6770031086985324, 0.10258190160318321, 0.09366080590649749, 1.8501124329437653, -1.7505408844186063, -0.6501181607119402, 0.19406274000066995, 0.7440968781448561, -1.7608174837160147, 0.13091107688467082, -0.014331904600274776, -1.7889563756109668, -0.7745402393187906, -0.07424046920110683, 0.060807970606563365, -1.2623252363355388, -0.15734470224069683, 1.8091703544106064, 0.00488240756346671, -0.7848458391449932, 0.3097207883019321, 1.0622636976918722, -0.15224639919501887, -3.4250102173499553, 0.9846358173635242, 0.796281626680028, -0.7513385394335097, -0.3329220332591262, 0.26086454327104985, -1.0282997199108073, 1.0171518452454575, 0.20809142539214343, 0.7404962775694831, -0.8604863279845468, 0.25733144567388544, -0.8851773052470401, -0.8110386725902227, 1.4659248831740506, -0.41619401837288267, 0.4877189353757648, -0.3976646585238851, -0.978329589885178, -1.0074812252966379, 0.7367290356852446, -1.2612163993233678, 2.6230248292134264, 0.7069057208454369, 0.7611001633020231, 1.865742726373511, 0.21607465583522842, -0.7076404799082512, -0.48521830768092267, 0.09480568391479387, -2.4707911667741356, -0.3914290166168026, 1.091086665321173, -0.14376652908601195, -1.7204753442361727, 0.5147460642258795, 0.15335932155362214, -1.3718935173085396, 1.4595066503455298, 1.1093834310553716, 2.0333663415205177, },
