#ifndef WEIGHTS_H
#define WEIGHTS_H
double w0[30][784] = {{-0.14652697533259643, 1.2575294622660438, 1.0079429886717537, -1.3169442327141654, 1.114909497499462, 2.2016916506968234, 1.1234881144419515, -0.16710623716638404, -1.03368709249129, -0.17507958765409115, 0.39568263886327526, -1.4555157401947196, 0.23803404947238604, -0.46665697946430645, -0.4543736174105414, -0.3926158945890789, 0.053470568021013166, -1.398731961533671, -1.1217209974009719, 0.6758851488018283, 0.9753977131860982, 0.0984418008865869, -1.249962094508696, 0.3195118794352911, 0.9798673929771985, -0.03427882890200913, -1.1940426878830455, -0.2923030591022691, -0.2329410460397604, 0.09693982994327378, 1.61169988857854, 1.5643426685778876, 0.13958601343724647, -0.3344988306904019, 1.8022238559319421, 1.0351028388516603, -0.6206268102778757, 0.5894327777751296, -0.6212369596530906, 0.29738245849633466, 0.4677636478641378, 2.134401433093694, 2.7664768439121983, -1.9694456354685, 1.4898809576082157, -1.6164672846818122, -0.280310116494608, -0.33941003375279305, 0.36375839403354737, 0.9186504676234439, 0.14553262080239404, -0.6474471066771647, -0.3799065265913013, -0.3577062273138109, -0.9016903468787484, 0.45738060231913563, 0.20557228908915917, -0.34227600701655264, -0.13362364077876832, -1.5045201018776257, 0.04683166332973949, -0.8278225923636209, -0.9104881737085777, -0.5805768550224999, 0.023352547707666108, -0.3019849702554908, -0.6201164280362412, -0.718194204705393, 1.7053938557429271, 0.40758135436610915, -0.7194724281295957, 0.17241824013135312, -1.047454604392022, 0.8818446801044173, 0.09786151704986372, 1.5284605660220125, 0.3736230252116043, 0.6215336607090857, 1.1573749356695544, 0.4456316392812026, 1.9304105619196394, 0.8281057278975892, -0.8801481594087501, 0.65256396098518, -1.4175184152942308, -0.0508012025479193, -0.4981737046411983, -0.14423459668566802, 0.5681770966069701, 0.30748539480288023, 1.1434977408133165, 0.7123487765928062, 1.1475098820550966, 1.7994227040315478, 1.1231221423141782, -0.4073248209107736, 1.488280420029767, 1.0669413758781183, 1.4971875767845098, 2.0770553853912204, 0.708241204697383, 1.90102635974408, 1.1162446868924132, 1.9526370103908204, -0.7865236715811567, -1.2681998971996333, -1.0265979830555279, 0.9430433010378425, 1.1481043255402934, 0.36049127387361724, 0.6045484918352038, 1.2750679092597634, 0.4771219514737305, -0.18076001841389744, 1.0955700931159773, 0.3566395034144364, -1.0218005451161665, -0.1381920772678543, -0.18725427609594514, -2.000666349402615, -0.4036117388913349, 0.7988995606314945, 0.051846784458301175, -0.829995493847061, 0.313763525028469, 1.1755191624114836, -0.47990595374477657, 3.2230716412213973, 2.021093108491718, 1.3707781718394103, 0.11328403763689623, -1.7758194915907757, 0.5478746883401878, 0.10422369151925258, 0.12076596922110103, 0.5265911951392958, 0.1860433282042932, 0.3538040093337606, -1.6283927211455793, -0.4787513801888422, 0.3956286478357524, 1.2067198373617154, -0.01415558151401928, 1.8903252644955402, -0.5675812900949468, 0.16478906925960946, 0.5625574904350609, -0.47040518435753054, 0.3554860598075943, -1.3640431301608422, -0.983652139711617, -0.41403825465347366, -0.9056883754943975, 0.10580798047924544, -0.7235649261638408, 2.2821149921331467, 3.9017737587311916, 2.629474035316617, 0.9633705188315516, -1.8516295487908745, -1.4758604981858514, -1.5298301445408324, -0.4556241518269768, -0.14555027589567218, -0.6529888169599022, 1.208888700783297, -0.14119118231256408, 0.4720275808488956, 1.2103537318744961, 0.1293639642412553, -1.4553348464482243, 0.3985643747569362, -0.4759510964141765, -0.48810467121673584, -0.4594936208887489, -0.6593533003052723, -0.26499245680157235, -2.003580474744775, 1.3641536411978477, -1.1023193687083714, 0.07454746677622398, 1.3517776979193148, -1.696709956030137, 2.1194023041210652, 6.223633522969784, 2.1509520642440374, -1.3445247066251402, -1.2161857974850676, -0.6930032490537679, -1.3647341568897826, 0.10181955680553607, -1.0621094994158151, -1.6711482501717958, -0.7501201788151248, -0.13409356021975632, -0.7737844415652445, -0.9554413512889015, 0.9419152412254574, -0.590876943608835, 0.5150400420878302, -0.06851879289580863, -0.9765092896815948, 0.08017188355677005, -1.8006622600653368, 0.23112409387638802, -0.5284274256819923, -0.8453482146281781, -1.275600795827306, -2.233529618591668, -0.8540585623677116, 0.20560263908483165, 3.855761251919843, 5.647450837920603, -1.320646986875744, -2.2939490156771956, -0.9972819067020378, -0.10912667382596312, -1.7221097972412478, -0.5399832567362174, -1.34711020782324, 0.6230778950965724, -0.10834569198500053, -1.6136911043635325, 1.1318008249615001, -0.009308698558981981, -0.22051574860161827, -1.5650379024265566, 0.15010929006314613, 0.880958772157784, -0.7798442272457912, 1.3005478934284662, -0.9849524450670822, -0.5948465744716427, 0.4913916933504684, 0.6723184969684013, 0.4006026167439214, -0.4507793971539976, -1.3796598199435286, -0.5901956144381955, 5.142044478103379, 2.058899341591099, -0.7321096366423465, -0.6119654405842073, -1.3442253347868, -1.609712495378455, 1.7358147672480568, -1.979640722818375, 1.313601518115987, 1.4146482984799666, -0.012361335507650412, -0.6024106945318148, 0.013539754430805951, -0.602671741728846, 0.7739012863836985, 0.2591031521123136, -1.5306607083778097, -1.0052198016454732, -0.21076399831589307, -0.30790646087326995, 0.44629198617965793, -0.3768085555538373, -0.48344230991410886, -0.49348988896466284, -1.085618075581503, -0.12495320881071013, -1.7970315946221653, 1.0711230522553792, 4.098522819127465, 2.003109089536276, -1.2585050771675401, -0.9265155983487269, -2.160647504953485, -0.6149023502394249, -1.6588002988951238, -1.7208278371587207, -1.6936819323611836, 0.8479418442125697, 0.420289615521679, 0.9220561345159327, -0.8857883417315676, 0.0511982975327799, 0.516456239571972, -0.9558103673822509, 1.5218130066726763, -1.5459642258466182, 1.082094354354484, 0.42772656760124356, -1.1397415162018776, 1.8277478949815082, -0.18037173163280917, 1.2866630888273305, -0.1463948831752664, -0.11358688976372842, 1.4394837000724772, 2.4606874576664457, 3.981993472615295, -0.6697381073874289, -0.8575304711225319, -1.1015563495815006, -0.7355809131675262, -1.4840689045000108, -0.10963243465259945, 0.9176385689916023, 0.4720793748306009, 0.6284239181978943, -0.2191611853714079, 0.44548285357687034, -1.1246065122902793, 0.8550655266201446, -0.28569468057626185, 0.7109510148822343, 0.8629310474951749, -0.43597661374403845, 1.4960807899790685, 1.7603607635569096, 2.012013863924591, 1.4477060475630497, 1.8578939673956196, 0.2715817820332128, 1.1714040893258517, 0.1868513630022204, 1.5941301396690954, 1.2337493161922757, 1.1790914127180263, 1.1198261447675757, -0.5237327459999115, -0.6836503240844272, 0.7415133939817942, -0.046493758705849465, 0.2176240036107166, 0.008256239033350205, 1.4448836210766796, -0.865581039534436, 0.16682325624877062, -0.2823809289335025, 1.058228616716878, 0.722165866578174, -0.9008017068985638, -0.18012880399364398, 0.26020028073621443, 1.1306973288378475, 0.014141472801658748, 2.346232700140823, 0.2551414149149533, -0.5726573071964624, 1.5806302823637115, 0.5287076630752423, 0.3147688852861771, -1.2096737064816174, -1.6068193976325542, -0.8118068134959385, 0.08162683424727074, 0.1805793789366299, -0.7337010451046491, -0.04792447572333606, 0.08176991545089911, -0.6862813661247366, 1.3328608464453278, -0.5709640048185567, -0.010582096223664836, 1.0988486133871083, 0.4325325908636814, 0.08767977243444373, 0.5593139729936176, -0.3642415666947685, -1.1096975299317469, 0.6784939747127021, 0.1283353068625658, 0.21419045592986408, 2.0867843713479295, -0.18508696005265102, 1.040591660611102, -1.1545990271231708, -0.4742110272595426, 1.5913703696441486, -0.31478327349251445, 0.08047211114844817, -0.2693569819492909, 1.4723840744133172, 0.4880312254323995, -1.1179452513273247, 0.37850301613758575, -0.5530818127824721, -0.70125175421286, 0.8075867692136307, -0.5368602787051193, 1.2533234829617494, -0.016608595100645586, -0.6001849938677786, 2.122325781823878, -1.1456366929961483, 0.5989450411895054, 1.0510484546118435, 0.3193155610784007, 0.6246600265239016, -0.19120321049732864, 1.0185028953253625, -0.3077752042665394, 1.2947697963366618, 1.0406059701809847, 0.23228089526384257, -0.26591064561558525, -0.6588442912404712, -0.5647575532355413, -0.6436067726319861, 0.5702783589127999, -0.42590566083748876, -1.118534492754346, -1.5801079955262982, -0.40291914543289625, -0.9987037287559686, -1.8971333674499586, -0.18552661136402276, -1.6450414181265984, 0.5213354928112244, 0.31624102995709663, 0.8625003623956327, 0.601835018875118, -0.769754600937496, 1.4157127543382606, -0.5229849391091762, 0.06497103137917559, 0.006763676160799066, -0.16576739206825622, -0.15133448645128175, 0.2658655220144239, -0.054144215318132634, 0.3729464855915676, 0.1777880734649721, 1.0381661182858533, -0.0645474552835304, -0.1954265756340327, -0.29607836944351645, 0.22436547035141083, 0.24553922731283345, 0.17424464250622027, -0.02392025977770953, -0.3482661853413383, 0.13331636754629042, -0.634310904423308, -0.4957401421583895, -0.575751563527121, 0.018804828291595695, 0.48493723358429736, 1.9469805807722378, 0.9023534750485664, 0.7584673222946814, 1.0324872000657455, -0.8027095075443256, 0.21371131410037872, -0.03894438218532404, 2.0604346855309092, 0.6822987070506542, -0.7480455808326247, -0.1857734903523361, -1.9139035298097673, -0.7215147614736309, 0.06826859425114021, 0.5829398359231642, -0.10520791204560007, 0.8624514440020151, -0.9852171664129861, -0.8683983080090796, -0.4112022192313885, 0.5572697435705217, -0.3877468038405616, 0.014377944158462143, -1.1084471077512723, 0.8847745592867517, -0.9879341045732478, -1.145688910957077, 1.1905628931755363, 0.43284213841846453, 0.11025738999939569, -0.23188456344365246, -0.7355494769522518, 1.022604967087174, 0.20101045897626643, -1.1884383749133682, 0.12449063767841954, 2.4197723865342775, -0.38057205587028015, -1.0777940278072706, 0.7066072941638399, -0.22510699472470877, 0.5244389806441602, 0.3261407351855196, -0.36732961003392706, -0.5856631585125195, 1.3046023947042942, 0.07176385196513048, -1.535167487476239, 0.5507983804846359, -1.0187088652769136, 0.23557412367223168, -0.45549478216828837, 0.534006050225214, 0.18984920722893134, -0.9043955614067, 0.030485980058100735, 0.6593752858451597, 0.19128949182016305, 0.9052695830540975, -1.0290354268160116, 0.0854671449031578, -0.03310836841005959, -0.24883032002048383, 0.4867137006925827, 0.20492097158222686, 2.8561579712988117, 0.5670656235793466, 1.1745389083567075, 0.30337139267282204, -1.027782297546477, 1.2974715352515032, 2.638351835918726, -2.3033036108304894, -0.349405524894997, -0.08025401531823367, -0.5675745941926573, 0.5998294618171384, -1.205833258778862, 0.0003173192244298596, -0.08223538896781965, 1.4698771276205143, 0.021823554585130456, -1.3952054949448314, 1.4675098494474388, 0.5679050405523257, -0.31695159290196956, 0.33753903842000116, 0.44655779882704666, -0.6419885055101059, 0.4958261273652237, -1.144796768793003, -0.5628075602122934, -0.8053900177358825, -0.32418225539151074, 0.6277064661177841, -0.4771569198655761, 1.6917256132594474, -1.3328331021571607, 0.5462493283272511, 0.7434152840017806, 0.9826436012493472, 1.4394857583976044, -0.5328464535911653, 1.0369259650631963, 0.2602214846792111, -0.08067584575622325, 1.0230882861814425, -1.2330168729641884, -1.6440399488106727, 1.2526991876331628, 0.8759496432273054, 0.03673075824849706, 1.7064354682550478, -0.014245891618580734, -0.9901266563910768, 0.6942145188580859, -0.5505201008645393, -0.30150856209878407, 0.8113311502848023, -0.4248707486378374, -1.1051054547843342, -1.117326676561662, -0.5534415575939036, 2.1522023102015195, -0.41876952521792177, 0.2653746843884049, 2.5675865458296494, 1.8735938620403383, 0.3759188170010553, 0.7128805243541699, 0.6751566228056797, 0.23937650751200795, 1.069893351509782, 0.16643813776151745, 0.27353920258493686, -0.7874089934385201, 1.1753981518882157, 0.14006489249923076, -2.2180666178163833, -1.019121353648318, 1.0770013202628885, -1.2041577496069855, 0.14928682789126857, -0.037640368286670826, 2.6483096108856907, -0.40391855360512585, 0.6115511802941761, -0.8162642051448119, 0.2862650809714672, -0.9603808852606601, 1.9573272534020916, 0.0761900945390036, 1.2283854372654732, 0.5992464965310921, 0.5768025617000604, 0.010640714184842125, 0.5355244751267032, 1.0292015237989858, 1.4293449983979714, 0.11496849145817234, 1.0980904366991133, -0.47634644409606536, 0.1483225960989511, -0.8236046460813391, -0.9695824335793968, -1.0838242872672215, 1.094021073972693, 0.4588636449561225, -0.09869263462220487, 0.033747748568839615, 0.720149340206937, -0.4908384729470497, -0.09302282392234572, -0.9215698208070506, 0.1010613992401008, -2.8722412418670378, -1.3049437891854636, 0.45124772818356323, -0.8319354523767324, -0.31545541365900487, 0.5229062328489132, -0.11529813403496651, -1.212902961263749, -0.014381662316156153, -0.3791164906867228, 1.2309438271752362, 0.22792985846768823, -1.0779685211124248, -1.278703052577397, 0.5097324132334409, -0.8761368092248152, 0.8185998967078962, -0.12014735145299893, 1.1042081434530397, 0.7971601452380158, 1.6760868638971524, -0.4262460884611338, 0.9415529785847425, -1.4108200016609507, -0.3558954427169695, 1.3577827783954908, -0.049457212996344264, -1.2832407419362706, -0.13275868341775, -1.1913250294017201, -1.091323112910763, -2.5154294871061453, -0.3580646323460151, -0.3520078191683952, -0.5416148834607399, 0.022615470350876063, 0.7029921366850778, 1.2835058557140675, -1.0415812949232597, 0.19965008408312648, -1.3877324052430116, 0.9188657580026177, -1.4113394977900473, -0.6158765500456403, -0.25874914948834077, 1.5478964363956291, 1.0308360163791503, 0.5159017657921248, -1.5943721585463602, 0.5225785781645916, -0.8050293283977257, 0.12534458652661212, 0.1214006938997086, 0.9026187804936041, -0.9198187034396272, 0.5416404534530046, 0.1326796424903817, 2.0911291445815814, -1.2266100745203767, -1.640825237852494, 0.1841482441173294, -0.26074992573409916, -0.014199027269810996, -1.0692377437939597, -0.28415452246457845, -0.6372463632761236, 0.14114240356593694, 0.5251900366348435, 1.6922361113704059, 0.8240779688128061, 1.8532079547648963, 0.899970544704146, 1.0531260796015782, 0.16257704767344697, 2.452526880914934, 1.015756822053193, -1.0633002543169705, 1.2549487355563211, -0.0015114761915593642, -0.9268051020737252, -1.1709241612454222, -0.4007939733460479, 0.08642799429970253, 0.7514962594423501, -0.9203809324571373, -0.6729309590396686, 0.7794463466301342, 1.8524610215511637, -1.4673798844540558, 1.023947317506946, 2.158912083913184, 0.5330412597385061, -0.9089466970372064, -0.6586871815158158, -1.284192915914363, 0.5299180368911525, 1.3627122498056838, -0.060831849663078814, 0.2795134908854236, 0.90819793473835, 1.6712533980547724, 2.052830143066849, 0.35192276280694545, 0.002006785072294295, -2.112276982078734, -0.9976507343382668, -0.2390730837256345, -0.6126821501289962, -0.3748021073187036, -0.7107002351661403, -0.3862004546609878, 1.3167579090241293, 0.32779736447055846, -2.0161333995204167, 0.20302436946656535, 1.4560923934321195, 0.33336201535732746, 1.6057921955632275, -0.5577801170302839, 0.7303384514127141, 1.4517907870293028, 0.41462649641817356, -0.23878333154141335, 1.1880732937052263, 0.7142522982181269, -1.2673810410971351, 0.7776944425260105, 0.5538640384954939, 0.35749074652675666, -0.20823691912607506, 0.23647786115878294, -1.6102043945536502, 0.8252542624341338, -1.2467623369359002, -0.4624723023440225, -0.47052336085181473, 0.6348622461770342, 0.5967768069962051, -3.1914852669537295, -0.1764708743363393, -0.5805310224887114, 1.6969755161324853, 0.47163862456371486, -1.530815614881773, -1.5308780772518833, -1.3502231076721292, -2.049281857543389, -1.5061322430872681, -0.5624497543533786, -0.5896035558741802, 0.5399987786390736, 1.1896095912562272, -0.21088267539105363, -0.42307335211946406, -1.131361860983456, 1.6611664721777109, -1.20493852080565, 0.7326886622400652, 1.4064140189344605, 1.1589396066631705, -0.9021411150554365, -0.3331269595484453, 0.8483946203879074, 0.3404820423152905, 0.361154065245756, },
{1.2915833086168487, 1.4524521493488305, 0.9112962450294169, -1.2179134218132404, 1.10002155609707, 0.09190535189156089, 0.03916686487055024, -0.36214447296268687, 0.04280413122976948, -0.012544216390079159, 0.7894098722342253, 0.8608871345968669, 0.6541579745716852, 0.936666322621394, 1.7619970621987533, -0.3749311315547053, -0.44633598488485837, -0.9665492310595205, 1.7758052654736394, 0.30003440543607207, 1.1221735183013442, -1.339085879514075, 1.2960490709955699, 0.2059984101051546, -0.6246250288390037, -0.8972387295067228, -0.3010529906751593, -1.2615397769452663, -0.8422526845767719, 0.9062587676740368, -0.7036718950611361, -1.4216351365793172, -2.0657341972955643, 0.3859737515702257, 0.5495939745048899, 0.3532547138453007, -0.1482101038713102, -0.980830157598622, 0.6587866201562811, 1.7243042992103539, 0.020163229696535993, 0.7619711766847806, 0.5947672497707528, 0.504149261004765, 0.4395608179696145, 0.5512969166697327, 0.7779841028490183, 0.0853493394652299, -1.6085172875830311, -0.9835296176172043, -0.6015920100447814, 0.6972811526864606, 1.8950807023210148, -2.121376770570729, -0.37874827750931, 0.9573996830469124, 0.2971162112721602, -0.2377146318263119, 0.37196984954548923, 0.9493144774765677, 1.463180705819584, 0.40385803987683105, 0.29014762007277206, -1.0454250098810087, 0.7603882032856455, -0.7451376355770853, 2.135362773832226, -0.7702207755081274, 1.286230099221939, -0.8844231683616853, 0.10745099892099788, -1.4614461108228018, 0.37345004567246476, -0.4563417451551965, -0.03649329921862068, -0.18252264014129155, 1.4189444555169153, -0.16492856254715912, -0.4545418629392601, -1.185065338700696, -0.17820422479020603, -0.07625844579561046, -0.2577500017284638, -0.22804921052531446, 0.40207512624315345, -1.029393592975059, -0.6936358675274195, 1.0614510039319476, -1.9469841242975485, 1.864879498580215, 0.043242321378271595, -1.7661599237653995, -0.9294337911015197, 0.25713779991993413, -1.0226385108464193, -0.02730401374953006, 0.3996402867360034, -0.6214479836972895, 0.21844214445587268, -0.8208785061742874, -0.4492655379305592, -1.8964847018211577, -0.2291208370794181, -0.960633829222713, -0.136039430662385, -0.2715893198498504, -0.909177904838378, 0.17354752520392352, -0.7951441428791635, 1.9951366091508969, 0.7279928367209055, 1.2016067073094177, -1.0263028560340381, -1.405268759815253, -0.02058751586026823, -0.2005740614790373, 1.0467390459005503, -2.1415885050873578, -0.09846089276929573, -1.0465042622695504, -1.3330528786881155, 0.5557433677620791, -0.9077070150517692, 0.42635977739351577, -3.2202060340852983, -0.1741762960082663, -3.3087640437163452, -1.858559191119023, -3.063072629751711, -4.069983990606005, -1.1459580120381603, -2.0842633664028574, -1.5273789660324901, -0.0730102645353307, -0.5393572402050253, 0.2423259169803648, -0.3074313430382915, -0.4754766012269949, -0.7435216131023206, -0.26242723345958757, -1.356883493669215, 0.44896412732912916, 2.9964356033212596, -0.4745287472571871, -0.36989406897949256, -0.8806024981962575, -0.6239668790650124, -0.23805633962622966, -1.0361002553422236, 0.5628561691005235, -1.681750767822955, -1.2590820829751443, -1.384685286369993, -1.9578427708610033, -1.434982066476379, -0.06256048015310735, 0.05132094757231442, -2.4285495707281104, -0.5176864863876657, -1.4674672464576175, -1.1401788722931432, -1.5289797886561771, 0.5728796157536842, 0.1734924164622258, -0.43639031839784853, -0.733546762745643, -1.7763510533217992, -0.2934520900309283, -0.0769307221245821, 2.264844675383116, -1.5638621193713886, 2.1895963714613447, -0.6476011747202025, -0.30509036532605904, -0.2427342852293779, -0.8997868132524903, 0.21783229857120973, -0.37529937403476255, 1.3777162436754482, 0.21806116491938027, 0.6914571450336027, -2.500983797295937, -1.0869698913872945, 0.5993002331766867, 0.7385274174803323, 0.2963053380329895, 0.4851678610244324, -0.774495233667967, 1.1937474752669555, -0.5921991574288297, 0.21605829455950523, 0.6579476278953641, -0.5136441394242298, -0.8731149773393996, -1.2020722470930265, -1.397966823480797, 0.785479042638595, -0.7487765092311112, -0.5795409795357646, 0.9542781842366137, -1.4501261635994807, -1.1503439105775786, -0.7806817662572612, -1.4383827432601137, -0.5761703824132763, 0.24517240817073715, 0.8888915620500659, 0.38761827756347245, 0.8859149550685345, -0.8567865490006854, -0.9022938460079014, 0.6539041547705037, 2.2510639418077103, -1.2950876552258563, -0.8713706229008922, -0.6765387394974184, 1.8715639758752054, 0.4146094991305293, -1.0683346852245026, -0.5296350411750367, -0.188514463152992, 1.6729941494514697, 1.4311387790774894, -1.1636105244469928, -2.4248034798745133, 1.2086659941576114, 0.7606247490845148, 2.1889098550985024, -0.16963962400452648, 1.9465485023338582, 1.3928496536296247, -0.1151939696460954, -0.0372532675784144, 0.05471286510628552, -0.03137898813714878, -0.6936400390163986, 0.649453722941282, -1.7444855888379955, -1.13128791677792, -1.2012649542411695, 0.13373229013541824, 0.16112650212767943, 0.9093072000932422, -0.7979720613280069, -0.2520999400775943, -1.8485702204485988, -1.589474603149583, 0.23117532202915234, -1.623142536588637, 0.5710875768372451, -0.0748415662042345, 0.9664485245140678, -0.6715573536083055, 1.0364037534345845, 0.4641741934752158, 0.6733918644199386, 1.4434627177003359, -0.285100232241605, -1.3176317808617375, 0.7298617575765796, -0.030470704240439732, 0.9112970255465251, 1.3147051290473284, 0.10968362526185903, 1.9720137340440382, 1.5795184461418248, 1.982355657374251, 1.5201601905377153, -1.8971429625617766, 0.4215635612496981, 0.5132728073617563, 1.0736485721640892, -1.4715451720361892, 0.13271771963776427, -0.477811462446272, -1.95687727969805, -1.2916290162997859, -2.3159523645293105, -1.5623482506180966, 1.9420168868890195, -0.19715960350467399, -1.2147660264199807, -0.4968624477270901, 2.0234714755345227, 0.80353166479868, -0.14955550277181848, 0.39852560123815983, -0.43269618552184114, 0.22955534378406606, 0.6070426995117435, 1.1100871475604688, 1.3640147691985491, 0.1509677595197884, 1.8805192237334492, -0.7939141316034152, -0.17278768815282264, 0.10727432109778857, 0.7397735762314749, 1.3256079817909345, 1.058871739253263, -0.3183413763992163, -0.05126431570175245, -0.007994143201825177, -3.0679361771353486, -2.0038149932767397, -2.0689689805476066, 0.3586751118637358, -0.7998773999845294, 0.4802930954680018, -0.003357851489541552, -0.5850592509567765, 0.5461212582463092, 1.2627110273844302, -1.083736748597204, 1.9298521467738858, 1.083393818413211, 1.61469515185967, 0.5841112017583534, 0.9945889548049417, 1.2332496730342262, -0.7213169398426588, -1.65999405517482, -1.4035315692530153, 3.2373663454764565, 2.3026615792623097, 3.7836897830571767, 1.2924639131537516, 0.9870039619491221, 2.4858960142365594, 2.0010062280952607, -0.24771371830533734, -0.5972941024781804, -1.4656414034867364, -2.112856695623621, -0.16910499981314686, 1.1706094705670211, -0.04422266196044607, -0.22486841443121297, -0.5081059265699485, -0.2522163484191078, 0.8154091416391404, 1.4353873518431874, 0.9653688151413384, 0.9421714547116302, -0.05915152580695131, -0.23444105476140956, 0.06640164767598263, 1.9237430023866384, -1.2615228871979656, -1.5608747860621608, -3.214388233803117, 2.574618424822692, 1.4278627436748492, 2.4398004171760626, 1.4523857737596888, 2.3338169167083005, 2.458604663784872, -2.19137347229628, 3.2717530750636334, -1.5720135332003022, -2.529950858339359, -0.8163218095201608, 0.484803667780668, -0.7652065021639779, 0.20782127638858597, 1.957171503243538, -0.024350463177765652, -1.087774156767451, 1.6881037904450475, 2.1363114402405396, 1.8381887737682208, 1.5347223708318656, 2.0575839487630967, -1.0913444295864276, 1.028339199376236, -0.6317092778646407, -0.11824600741796792, -3.4427722773516627, 1.0834407991245543, 2.6253666469278487, 1.2492566071934097, 2.106955117728972, -0.09467184135352452, 0.07468581490646291, 0.8434554265796355, 1.8710005772522345, -2.3260947372050493, -0.763233121300867, -2.2741480805734375, -0.8177528336685886, 0.752209071698969, -0.17652468209867947, 0.25100606858100477, 1.333669156275804, 0.239214455253599, -0.17102753021765832, 1.3239924720071916, 0.5024687456332415, -0.13201193479814127, 0.20521897640351122, -0.6369812137151217, 1.3922539668274596, -0.17798060883755076, 1.0005586024183055, -2.290416260165338, -0.3683995164208815, 1.4869207867652048, 0.9928202511046056, 2.2504840517147784, 1.7221091725402409, 1.8015629436778515, 3.8114606275445198, 3.8816064829846035, 2.5234647924639617, 2.597488684462821, -0.595521113054445, -1.3427336990417083, -0.35560370728568463, 0.15426603715729376, 0.5172286292035416, -0.4431300022090977, 0.029142550037141026, -2.1607747494766496, 1.6877895422960842, 0.8338906869159488, -2.164467657461485, 0.6121942177116094, -0.603769031526626, 0.8645074714175014, -0.563297772363481, 1.9115403095477033, -0.9399508084581394, -4.625163781216706, -0.8229024420211365, 0.05964173072160134, 1.1092069573261072, 1.2028497414851451, 3.905290608037244, 1.1620557303849743, 2.5294639752830532, 1.121708818154104, 0.7896568942031394, 1.2998368736580854, -1.1814966014448536, -0.33663228937518974, -0.542516711643312, -0.7206684445626067, -0.1618665700920138, 0.9619650383983491, -1.3617844307046378, -0.19666981457299532, 0.5440241916967281, 0.15027016380135066, -0.2704203858090083, -0.45979826503447524, 1.3488131602601754, 1.6783051967911147, -1.5228616035278486, -1.8002610111418638, -0.9359091638279379, 1.9939699293543125, -1.5366886206454957, 0.14989149373054605, 1.9408834618725206, 2.6251424677665054, 1.4671306541834888, 1.8841469077650201, 0.3673915182608954, 0.7683814865793068, 2.2553973663212736, -1.470605844310146, -3.107554679020213, 0.10219276874234864, -1.2535389865431632, -0.38050584880561045, -0.32077724796526064, -0.10308780255757223, -0.01023909177178931, -1.0831374005477699, 0.27388073715471895, 0.060489095455550534, -2.338031161510582, -0.36570189095030153, 1.2513920112005916, 0.8211621385006517, -0.7722800610277686, 0.08677449893707452, -0.9632538146799664, -0.08344097561744761, 0.5706981812942282, 1.3494914479882016, 1.5508710672016546, 0.581225964727667, 0.552746542162496, 0.647881295874916, -2.004638445227012, -1.0172673739927687, 0.8198421312564674, -2.277116334073524, -2.662080337014156, 0.429584058885458, -1.072587106332577, 0.14247168642156124, 0.08264937152750135, -0.4882568195002283, -0.2049994334753868, 0.34188668459462646, -1.1427317578358784, -1.9453631482080656, -2.0253531101676367, -1.2544413955303777, -2.335608941917396, 1.626532193384011, 1.3316127422130557, -0.2947121276828424, 0.6997913599185878, 1.52451238355309, -0.19991961200854277, 1.2790107075028765, 2.3588951098299766, -0.46318558067501797, -1.2346853169612266, -0.7679953246499612, -1.7127399635593292, -1.297621732908646, 0.575817290681261, -1.320055763871931, -0.2893912101423127, -0.7586898382598057, -0.09560575375438193, 1.1910431682797746, 1.0426804635904556, 1.739280427191989, -0.060515060882473916, 0.5977071963205327, 0.19339629299386257, -0.9414023590815878, -1.404901546161715, -2.7031905089517596, -2.245196409714167, -2.116386684247107, -4.258479469536792, -1.4808613004323747, -1.0574162136705125, -2.8538258129851917, -0.6418793618404914, -0.9908302128388069, -0.8904567969494902, -1.1282815832940705, -1.7675254448623066, -2.4203653769972564, 0.4168979676281919, -1.3268298293376153, -2.854681222888239, -2.029684019736997, -1.8910450312802212, 0.44447069763260605, 0.09482462900784025, 0.7231208364038635, -0.05758463709029903, -1.5279271529914085, 0.5830506186914932, 1.1192902733593908, -0.6831862625388317, -2.4594973609365303, -2.7152613452304615, -1.8895539816815097, -2.644976537663381, -4.649927826691506, -4.109980196681527, -4.441922083699258, -1.7299078375193775, -2.172168345144123, -1.1355577547332114, -1.1996555169959708, -2.351861764052872, -1.5448210802709865, -2.0039388862339993, -1.8425019741447108, -2.26345264931574, -2.9458782430412143, -4.359216321205201, -3.3600167012081537, -2.765672363304227, -0.4239640428569384, 0.941953888220522, -0.451708685526219, 1.4634632893443393, 0.2551966833374771, 0.32855894119436585, -0.9633740906886179, -0.6298517754315316, -1.4524265334052124, -1.5857241564626121, -2.5399998124312515, -2.701893381599613, -2.719597790972448, -0.10909351992118206, -2.820449620460092, -3.3807965770563126, -2.1315495895594028, -2.6429598588914702, -2.471529883323265, -2.7394489044135972, 1.1926095614171337, -2.4210798553520103, -1.8655353163406638, -3.354753966267545, -1.8504053577976913, -1.9527035829813109, -2.340023399892245, -2.4853051955979417, -1.033051143512771, -0.1989355746726386, 1.074481360394018, -1.2325943690133074, 0.39807631136262445, -0.04523962753254616, -1.26497991316033, -1.515420187592584, -0.05467040564660949, -2.642660023939493, -1.070210013551993, -0.29672119822736787, -1.0207781881948947, -0.3533644585833, -0.310057467897165, -1.6253747404653056, -0.3655538754759957, -2.128355484528093, -0.05437930004946227, 0.694629883759983, -1.2072129767608006, -1.094689489772478, -0.840241478249348, -1.112705769000323, 0.16874259236236047, -1.2755998806687654, 0.7015059711177404, -1.5104529850243016, -0.21591719598668235, -0.682361579888845, -1.0369663028750755, -0.6822730713946216, -0.6551449410887775, 1.322857456079129, 0.058652734712864626, -0.7891071066059646, -0.44178852095099314, -0.19220825327967062, 0.3929038823464529, 1.1810087261061246, -0.016001287176239, -1.9865180858555533, 0.46852545041187404, -1.8068547091549685, -2.5755254563449164, -0.9218360756446261, -2.320149282650176, -3.6196575532623623, -2.009188550811789, -1.1369012760163058, -0.7911923015999212, -1.5102888122659366, -1.5077425935606898, 1.3298297931004122, -2.277156336885973, -0.5921672648448596, 0.6025674154326839, -0.1229828397233466, 1.6021094887856193, -1.0704782667338535, -0.6018880210990276, -0.8582841026263821, 0.6664158426122858, 0.34989446976010524, 1.4742100557317521, 1.102124678329162, 0.08165114059557171, -0.11290608884438369, -0.18967770812709592, -1.3661518269817852, 0.345975981054905, -0.0655419006398061, -2.536498008513036, -2.333521794563866, -3.9873795502532547, -0.7545392042071587, -2.748663012933327, 0.015566332162183427, -0.32522718350961777, -0.9460900463920308, 1.19699624525843, 0.8579971945992938, 0.9569768386150778, 0.19530036417650223, -0.718500502652345, 0.1478756881301091, -0.6821287557720159, -1.1570821601262724, 0.468984670525757, 0.40206189442756407, 1.7339433615677156, -0.6471857107354617, 0.0776793165087705, 1.592970536836029, 1.206250937067658, 1.2109468760900797, 1.0324913419068944, -0.8958090212534419, -2.099949249562087, -0.8851644552465083, -0.1757888680415892, -1.1597978499992934, 0.4186111484413061, -1.545432762700511, -1.0090043869763283, -0.002299199885048217, -1.3703531870600443, 0.8672694772994716, 0.9978036471527532, 0.8509821116625716, -0.5002132043869457, -0.8552798468287773, -0.6092645013189526, 1.9815789738845297, -1.6435134685635049, -0.4492871697167761, 0.8807014472467292, 0.4844299596895957, -0.9970477473467763, 1.7471574176868712, 2.4178880029541654, -0.6007514775092561, 0.20362063516370543, 0.9807489722931518, 0.04454916148946268, 1.965455039961288, 2.565582896213946, -0.9109158858162533, 0.05869639416692721, 1.401130753903587, -0.0992273324798096, 1.4276939170655316, 0.17438375404776366, -0.6712931749008889, 0.38175888737246905, 1.0091625333677783, 0.7763527207771075, 0.5600326171444081, 2.6310254309368215, 0.17563852090679338, 2.1146560825898244, -0.3870356107183327, -0.47652863811763435, 1.8227533736018526, 1.147677102264063, -0.03921513800332516, 0.4465325678352906, -0.771744847362404, 0.2513977718115405, 0.28219565221868853, 0.16826106560775475, 0.8594700686074923, -0.2517568043806054, -0.4410608091880327, -0.523555109970032, -0.5072331929167633, 0.18725069299957275, 0.30524730371383474, -2.025060404582482, 0.16453220762899215, 0.3421793879360777, 1.4781352601362894, 0.6785852282236259, 0.5083133060995837, 0.12412445709300922, -1.9156047983168671, 0.07914396392505967, 0.14340481372802819, -0.05068122774463143, 0.23984977743671002, -0.5728720254125711, 0.9898132291124414, },
{0.11995112661026643, -2.094004759649962, -1.2072217031037211, -0.8920359527071152, -0.7450543790099026, 1.5091833357087112, -1.0596742143718423, 0.631038478109672, 1.2029590830076038, 0.38573224609673146, 0.7146624404764549, 0.4312713407432923, 0.14699356722069115, 0.17315203794955825, -0.0712408148115319, -0.15045933202827702, 0.22236453170377082, 0.4189243640481732, -0.7094104193431411, -0.4679883460139605, -1.465054357723441, -1.5726229742031295, -0.025870601724414806, -0.2667716608131428, -0.8947869087909397, -0.11910338369503849, 0.8871904027567294, 0.2828445895928729, -0.6061612926336463, -0.3194304029934657, 0.09639359661859555, -0.8785864264765434, -0.15512304869462518, -0.2904995288026416, -0.36648276934194407, 0.10820742652874328, 0.8165456977147977, 0.6892190966457539, -0.6369375591578442, -1.038606592821449, 0.3105460849085848, -1.2190876633431256, 0.1748147097871743, 0.6559968124095532, 0.25016185091169335, -0.6277747851747629, 0.09170291340301821, -1.0079157036265676, -0.7369138032557466, -1.0205650582760193, 0.9604763855415647, 0.8555911209347637, -0.4172876928257799, -0.7826041521425692, 0.2122882590046476, 0.0268352804735147, -0.4908578736136276, 2.099837576680995, -0.12078053324841695, -0.9393496398837202, 0.8932819235635754, 0.4602931339846607, -0.487875962024052, -0.9368667288514185, 0.17873133127461271, 0.3052643412970376, 0.23426472378452096, 0.3246947133216961, 0.0041714988808179325, 0.7484052560808192, 1.7780916029961065, 1.2167411156559618, 0.6077965187579276, -1.3036376697580687, 0.4181667853906764, -0.26728943676519035, 0.11132829572870172, 0.20638269233417625, 0.4765092560399368, 0.7730626380644656, -0.6056046165272162, 2.075704945117914, 0.08084341627420256, 1.0342592772400043, -0.6398483495680766, 0.8038395681949613, -0.37087744262257943, 0.18137000853840526, 0.5685282882727654, -0.7871625267288909, 1.21216329698103, -0.11809655231378778, 0.8454180964357356, 0.6897665117603496, 0.1968836743704619, -0.8172810215034447, 1.167516319330775, 1.4554826316804335, 1.2582326256709404, 2.3311730982269316, 2.6957836811537197, 1.8715166446147329, 1.541218953082546, 0.2655544418251283, 1.5370040602844146, 0.058995610729997545, -0.19798178633392383, -0.9919842217636974, 0.5937585934421268, 0.11427554907131185, 0.7192974961439019, 0.36593217536441536, 0.8090662380291941, 1.341924466961486, 1.11088387697151, -0.4955493409138267, -1.440445820911302, -1.3519488782225728, -0.321876623532959, 0.9083971212818919, -1.9069751504089092, 0.13147984807284285, -0.3624139143482948, -0.8915829577441763, 0.6988508594212103, -0.9861478513176236, 0.604118609645589, 0.7621429351851957, 0.04820805671359308, -0.3828155902161929, 0.2056081748008586, -0.6194004834298689, -0.1821620255107367, 1.235456020537077, 0.7225455916711535, -0.6692123929708719, -0.010570321346799826, 1.1282643313109442, -1.1540747960113507, 0.19364986512450008, -1.0771583768740318, -0.11360801672560046, -0.05637335451099345, 1.3201974633823401, 0.17010837330824696, -0.9397955195404883, 0.5338622447625654, 1.082925398985548, -0.5213130812830274, -1.4949661910371481, -0.008748473668640918, -2.245745433679579, -2.473011555893535, 0.8688169490674328, 0.2403330531554577, 0.8103782373928851, -0.2503456549495857, 2.4677894016363693, 0.22301699376036183, 0.5364266394921783, 1.7537879395219322, 0.14449295259191922, 0.8375793273229999, 3.214840402606205, 1.2972978480037567, 0.5314667974244762, 0.8513942359875687, -1.0064335194003984, 0.05724634882550816, -1.1260626286530508, 0.9204944254721563, -0.5771489707406324, 1.623432019776125, 0.8738402633537935, -0.14806361040571756, -0.5776256736832774, -1.5871828892981559, -0.6074881876044165, 0.7908283470419593, 0.34638766116824377, -0.3406953728529857, 0.04389121385302038, 0.1721574635427419, -0.6425194665343401, -0.4789087242896523, 0.6227204244086305, -1.6842756438178799, -0.9917251094639521, 0.05012560998532294, 0.48268952674254323, 0.12237647030479332, -0.25031091167126, 2.710356797508553, -1.3739092943920412, 0.6759616349021597, -0.4201646999783409, -0.14195226198813296, 0.11312807575768098, -0.9973970201461122, -0.9517523574667394, -0.0015735781827548119, 1.967326434718735, -1.2454883469924298, 0.7640048990243322, -1.9898825688383617, -0.1832638536848124, -2.3451293017875945, 0.043284781061964095, 0.18066021650608793, -0.6808285679682788, 1.0053329457705025, 0.0371464578862088, -0.8625488982109087, -0.43386132753131507, -0.261024907859883, -0.6918415083180939, -0.5084699495843349, 0.06758148538827949, -0.6036278907889248, 0.6794109984217941, 2.0212328819683028, -0.937543902820956, 0.07809224761995356, -1.348603114042001, -1.5663414055180394, 1.1346343940218544, 0.14632523614880918, 1.022830662851945, -1.0594093394195427, 0.12445431252786064, -1.08618317560502, -0.8709519561273216, 1.104523490922797, -0.13055541885330735, 1.2121033857294947, 0.4247236069226576, 3.8233465084499905, -0.06395219275139802, -0.3549289462226373, 2.413344559367924, 0.48525204167697705, -0.264200396362176, -0.1068623779704071, -0.0672300230368858, -0.4013812391187434, -1.2654187557871872, -1.92047994571602, 1.7309938247705627, 1.4924834900277038, 0.5297023689287165, -0.5473033920327952, 0.6149114871740453, -0.0019671943328522035, -0.6574844438919203, 0.8457303498804826, 0.6917507597137807, -1.9164507210338944, -0.017215621325654455, 0.8847472953303951, 1.7879834992550003, -1.6147980980407373, -0.5193656049190819, -1.2086735011618042, -1.3824914371049444, -1.4231080725077847, 0.1440491158091272, 2.7176875900719155, -0.8253367355181241, -0.341807742255029, -2.00192031496911, -1.1767909841122313, -0.7681602230378318, -0.6419581512808659, -1.936737945148786, -0.8765800621325956, 0.37608510988156163, 1.5417587972135858, 1.916300391028615, -1.899384350346509, -0.0578253640738721, -0.10839853008748333, 0.20891925813384085, -1.0767150706990014, 0.7241638292078301, -1.327551549261925, 0.8742323989888721, 1.1208162223674638, -0.23645426991226542, -0.1625721528927289, 1.4925122131547912, 1.2981196102776138, 2.4873451499740034, 2.0880535798670317, 6.54210512865269, 1.8123044688164314, -0.6801973416691898, -1.1306919072602628, -2.4990000903981455, -3.731496337823952, -2.681154040756863, -1.0154857310590646, -1.8071180120712504, -0.5671369979982515, 0.37288951594791053, -1.3526431576774978, 0.45645966845633135, 1.6211208406020683, -0.7177374352222914, -2.1423549326403246, 0.921986683698332, -0.5888024433029108, 0.5390159989975101, 2.0171796333054135, -0.20973058800346248, -0.5458029616785991, -0.42599770898149375, 0.5062850339143501, -0.054107693489870656, 1.4065166000494216, 0.08229061712619345, 2.954437651339268, 1.3200063256585997, -0.34695330256385926, -3.6981034858624913, -0.9992620023277239, -0.8315575232781707, 1.4163278743424104, -1.660596446764789, -2.3196013581167674, -1.7130371337905077, 0.19506607466984194, -0.2748715967455118, 0.366908512378387, -2.4226321892522753, 0.33145979160113564, -0.18941130676659823, 1.8579725462613408, -0.7649182302790919, -0.2712274765712024, 1.9052579905745854, 1.5244543606952186, -2.4694573533968005, 0.6408172765110541, 0.8137750168952713, 1.082653157006482, 1.394591184304645, 2.002240616648545, 0.5704781477943147, 2.9506342186236285, -0.17657952763269383, -2.43873416883226, -2.7706289327734215, -3.6429265652682394, -1.0022855029114985, -1.7918946187377403, -0.8932436210163501, -2.1800541256707335, -2.4681054211891085, 0.898727903838042, -3.6710757667199525, -1.7349699602798236, -1.0129958557567866, -1.3584963023357677, -0.4028302256620362, -1.1330748634076244, -2.983728662855521, 0.32745928993505585, 0.3601301885771946, -0.12178373978248963, -0.15154122198981856, 0.8013431614666259, -0.6516096163220659, 1.9794904837647176, 0.8292240845347015, 3.561710173788995, 2.5969389136111625, -0.6908404535008562, -2.9100189814309374, -1.1826396053859585, -2.116131430793437, -1.3381242777793758, -2.2085667412554555, -1.9892799104113466, -2.3638364427085996, -1.1496781439891945, 0.37972514856386214, 2.510743973555209, -2.391628410250287, 2.202324017329711, 0.03333624022131419, -0.9438493592728059, 0.19967274692059445, -0.4891501864588934, 0.9602910722552213, -0.1939398791039795, 0.21746767629643984, 0.13400611421327202, 1.6206244413699893, 1.3008378178875015, 1.0800679470258125, 2.758872728428954, 1.4300288934501966, 0.030172964243408356, 0.35145702212236424, -0.8366952613489755, -1.4942344230516345, -1.9449006454848923, -1.840397095009022, -1.1279865350749194, -1.6978848984607808, -0.5150789994255737, -1.5709532607483045, -0.82279968520656, 0.20376404105393503, 0.9300298971790159, 2.36081771734629, 0.4215927602329105, 0.7509870914555896, 1.538208682232783, 0.35322400546064403, -1.5829009920899049, -0.3771183155742838, 1.8122840892019356, 1.2642185778130797, 2.1779640048599336, 0.235407848472201, 0.1983498040202219, 1.2209030688532623, 0.25204400168508106, 0.8742134992254698, 0.3046444165630018, -0.7743730403025285, -1.6655010926676317, -3.2084744962210245, -3.181710564889047, -1.042391419197518, -1.8346838317946395, -1.2697872163780817, -0.08907193927582714, -1.91812635608168, 1.7065332014348609, 0.754820803189197, -0.08722706119750924, 0.5329217219653929, 0.7625015740386591, 0.6674448094077862, -0.761550345168897, 0.8042914281476387, 1.0806623390163828, 0.47874772646736524, -0.0455816931206661, -0.8198568071148764, -0.09237710362177454, -0.27772561458643397, -1.086803874673305, 0.09917477847769349, 0.9690405304058307, -1.3979878208310623, 1.5088792288012502, -0.08023204919690088, -3.0660343209907053, -2.442827567191005, -0.5166047852628712, -1.1263420122833963, -1.3208917175813217, -1.9626286749817583, -0.7310509325094084, -1.4016781696363272, 0.9925820818787054, 0.5198025867526852, -0.8544618062530833, 0.9299066558406369, 0.4414845606108689, -1.956053221180615, -0.8156570480229863, 1.0952689842790908, -0.6200462967395458, -0.4954043369346337, -1.2941264001343435, 0.4152598177194018, 0.2919262605961551, -0.31157985331713295, -0.23501020351968824, -0.5450562636754595, -1.3754209579093584, -1.322925102556165, 0.3110861351527777, 0.9910098796561478, -1.9546251016887979, -3.237259918686504, -0.8633387900451468, -1.6566601279268978, -1.6858969546457916, -0.2987216696112921, 0.8437457496655665, 1.5110553788467005, 1.1305797959656247, 0.950674740733154, -0.17215405816323345, 1.516718538328371, -0.5436170089889246, 1.830196502825131, -0.4670988547870625, 1.032660144012396, 1.6563143520310095, -1.3252546796193831, 1.9966143261121487, -0.06387406917788535, 0.07257172417256548, 0.08227074429376892, 1.2035708772719944, -0.5083772471917225, 0.12658340279185132, -0.7584529459781952, 1.987871902512242, -2.959177833967171, -3.6970885835437275, -2.4294840751712536, -0.5562217096599256, -0.2663153800362426, 0.628400165145111, 1.5243249177645644, 1.0359301789030848, 1.039184698518044, 1.579943079680718, 1.207328197799154, 0.1609372544149942, -1.0348030030776585, -0.7590719108944413, 0.16981133540982066, 1.2255666994213847, -1.263481746053465, 0.875917818328682, 1.64734126664184, 0.2699479721441834, 0.5286046796208229, -0.778229433424368, 0.027631102380547695, -0.006862166638859365, -0.25742640701546354, 0.7308765425115101, -0.9002358722694945, -0.8149356587131988, -0.10062730659163045, 0.4872019866095607, -0.5974378617785461, 1.0922808978801515, 0.5267835936373896, 0.5446733570648788, -0.06668969449691925, -1.822146450725844, 0.1657992550901657, -1.0729704123909025, 0.6663801413692072, 2.2867556105446103, 0.0189841617443049, -0.3743372529188683, -0.15770410517564742, 0.0814664230585369, 0.19735443105392425, -1.281595820936222, -1.0946575078807916, -0.41339449916588095, -2.3502561859199673, 0.2949221344507147, -0.19001088248142736, 0.43891821041488616, 0.2111098392952905, -1.5847301953648274, -1.7936572675583742, 0.5857910751926775, 1.2853825637340917, 3.4942467882105848, 0.9515017840352926, 1.375884518186395, 1.9456537738699822, 1.5709762292640599, 1.7343619846470468, 1.8482714321321831, 0.0738855652093375, 0.5599553268498003, 0.15588986772017369, 1.084249669051544, 2.3167523863909394, 0.19687648689019516, -0.04253604402272998, 0.14382770737051767, -0.20095232003271632, -0.45480029316804715, 1.1383635681176905, -0.3953608996586395, -0.17195014001541892, -1.4791765489193378, -0.19209464363149897, -2.5212315908786773, -1.3745567932606613, 2.2632115923457925, 0.04946473756842846, 1.8455217915957745, 0.9320427937760966, 2.402821644810215, 1.6728845798168093, -0.11530266128687235, 1.5701235342303848, -0.31055601323938803, 1.295748126649925, 1.8224734819308004, 0.6609371258850539, -0.12033743429897778, 0.012648517821928221, 0.09440525704113387, -0.6593052002046546, -0.42138009986826946, -0.3993009736172792, 0.49742608395684995, -1.6428091599225265, 0.7151228562834594, -1.1025507238634498, -1.2888144186796755, -1.3618043811196112, 0.1946550174231726, -0.23027790978343726, 1.0668638953299976, -0.5890126878614447, -1.1083082547923733, 0.7641945080351593, -0.5885513552081172, 0.4642127590618814, 0.6471955924449891, -0.2600752695359078, 0.8454886681142644, 1.0361308521990273, 0.03172691833318868, 0.9206090113345063, 0.20504708358895074, 0.3996687946726475, 1.6975535541962707, 0.8967884199292692, -2.059365118981787, -0.01626297147242369, 0.32074561878269625, -0.6070532639613745, -0.805178530261731, -0.5768200201647461, -0.6913097593224287, -0.3905954751232881, -1.627066558081345, -1.2277000684286754, -1.6797361954739578, 0.612049008429507, 0.5281648227985702, -1.081847229394511, 0.48390887945764477, -1.7558165693768624, 2.0391642331356405, 1.2686658929206862, 0.2780621432846348, -0.4180782957536708, 0.5141067115113831, 0.4683385353647474, 0.18445238676646183, 0.29018206820538084, 0.08038532774614517, -1.0123225806618108, -1.1002159955204696, 1.8115674387162417, 0.6899346071598915, -2.664629695779784, -0.23806966094523135, 0.9740205561484375, 0.35759004182437043, -0.8902500791580854, 0.9995472939407152, 0.05322027748824006, 0.0731196440077378, 1.410532783296389, 1.860102679400153, -0.1877567606110268, -0.8729480025400156, 0.6921756334473429, 0.6238735183347289, 1.1664832133640592, 0.3140097947013584, 0.6931645095650557, -0.04881482048085161, 1.496194621106723, 0.2249145461436668, 1.6083260441925125, 1.2557721127948387, 0.5150153297167159, -0.6359965726366833, 1.3154475620732156, 0.9023491992505525, -2.4461418019188463, -1.011852921955825, -0.9809527134925751, -0.9565910938890678, 0.34621696694699317, -1.8339263931877452, -0.25647297483054804, -0.29559828073962885, -1.4031258472510821, -0.30654286040706424, -0.2547354411891043, 0.14175485901925752, -0.90301472892742, -0.35908523064121867, 0.4257783371692135, 1.4011136350843438, -0.05657403517991468, -0.45235808035897296, 1.0999589062106707, 1.749599916930799, 0.06039958442504713, -0.46143633350675684, 1.2427280329521988, 1.6262157149626002, 0.23207056629405348, 0.5814953955286488, -0.02870025092611444, -0.003727458926714061, 0.4130037155144703, -3.2890453489174796, -1.1152122361642374, -1.438260571882929, 0.6059225623247072, 0.12188408590082166, 0.5119626210379218, -0.2343066759778122, -0.10001222325543928, 0.1821528084288733, 0.18195972698526897, 0.2652053389627232, -2.3148077109906726, -0.318281212587316, -0.7713516517193679, 2.203419646297626, -0.2934783530068404, -0.2972969913873088, -1.0045715232444943, 0.6289460468865772, -0.4357496313315155, -0.8170843442719345, 1.00472376674007, 0.7771210449235022, 1.4906795145803449, 0.9523139226658638, 0.39002731289605136, -0.4759049772312615, 1.1065383507961073, 0.2890321762824148, -0.5917685848197564, 0.48857621056457007, -0.5640071457332191, 0.19154467983482584, 0.009313182111702052, 0.9657476432247537, -0.7722177505607062, -0.44540608449025737, -0.5791505380529588, 0.3046964144622907, -2.8015522341800736, 0.456376727239051, 0.3341909162337999, -0.24781456846707936, 0.5009471298625743, 0.06138825195790427, 0.5951719057921762, -1.1557104004129362, 1.1820443178434794, 0.47357600355143875, -0.3529372309830006, 2.6934925865574715, -0.4189866243490895, 1.0796976294529201, -0.05661585218634593, -1.4388856255049278, -0.2507704444756262, -0.4924607483243949, 1.7698137678399966, -0.8156208484496071, -0.8812612730631382, -0.6015646266548729, 0.7835860824811749, },
{-1.677228037710628, 0.7755676434656875, -1.4533938973814449, -0.5511849506078843, 0.4313031831608711, -0.072196511637041, 1.1298274960567602, 0.8537270961441586, 1.0725341010229497, -0.5987577128577544, 0.30213331621614403, -0.45091854341059356, -0.43681546606997734, 0.43141273659207097, -0.3077328298216306, 0.5325299519494932, -0.1064638854173445, 0.7069089526350251, -1.580054735648339, -0.9464056305063376, -0.5151340918296943, 0.3680970375342398, -0.13438695832669753, 0.6055893813942788, 1.3006649722403287, -0.10477899623626488, 0.42046049079394043, 0.10757299317957492, -2.080437789859528, 2.7276609200710342, -1.3576973394643426, 0.016529866551869117, 0.49211101453865264, -0.4251738091968104, -0.5056353348977378, -1.9394516136079005, -0.31565644945134863, -0.7272087745745981, 1.1235300771144683, -0.6617809590557772, 0.5126102977475586, 0.7115464239795508, 0.5765312801675397, 1.9703318288282319, -0.9479265110923045, -0.46701203721911494, 0.2828688710990337, -0.046299006169324045, 0.21000849325898632, -0.20564087131157402, -0.032976180651356456, 1.0569565835223143, -0.6633307505744414, -0.5177476121667671, 2.147645607817207, 1.5424079450458346, 1.574598006762418, 2.0668610593192036, -1.278059791365144, 0.18111541109309692, 0.33896748682399513, 0.1315393556160437, 0.7363469283245461, -0.07965317491164108, 0.3953006568024171, 0.3748893489160645, -1.4611496625267633, -0.31830973927298833, -1.0828388745121904, -0.4370165098030384, -0.6565849474280844, 0.8303034479173166, 0.5145584169989686, -0.3707550749800989, -0.7880148505296749, -0.1096206272190505, 1.5330427979922474, 1.2358680885683884, 0.46003136430020974, -1.362759558590302, -2.4284885236711506, 0.4851435800817304, -0.21045340830893994, -0.004096138087513694, 0.37689434582698955, 1.5387294350881782, -0.4564716596774423, -0.30390359053894617, -1.8977991037950706, -0.10601492160908506, -0.5535825929055633, 1.8507858748724146, -1.6822603622506296, 1.1204094764447285, -0.7460959503907245, -1.1422227046002524, 0.936401250502957, -0.6064476726448704, -1.5118908607915778, 1.152331132388482, 0.43797929955901893, -0.3930380472933563, 1.7481602319126799, -1.868134147114008, -0.966521792500327, -2.1802360820465108, 1.2777661477044633, 0.5443230148817316, -0.09710174524340708, -0.4531862909277447, 0.16403227878061008, -0.3990919461235616, -0.5537478705457276, 0.39030929167559075, -0.5786972027375785, -1.2158809448006538, -0.7212875510296948, 0.5253271371828939, 0.6290231195822693, -0.32360168387653304, -0.13846432866249447, 2.6217334017612557, -0.07110843499718825, 1.7856083578634423, 1.5456461583580925, 0.567783611190417, -0.16260476005379867, 2.5409932143496023, -0.012696793462839502, -1.5623870563464521, 1.5477198774497851, -0.057810065942817866, 0.10889688738537343, -1.827707818634928, -1.1790288287303634, 0.3496493754470007, -1.9896989806577574, -0.5923164492149379, 1.401044755040094, -0.6062079950349292, 0.6992452472560213, -0.6082771100140184, -0.251264343982826, -0.5384203028961351, 0.53041462149951, 1.2684007536818918, 0.9886982260186069, -0.10645043415467831, 0.4354051281393654, -0.4049033444434593, -0.45548359420691864, 1.0454864878158252, 0.14092680056496473, 1.8246177660658343, 1.107396542476446, 1.9896671525890772, 1.337937917811102, -1.7066982032031508, 0.6178549516417647, -0.08419289513982872, 0.3181849271199661, -1.6575567302001806, -0.9496516675514972, -1.7265334603621592, -0.9487535291169285, -0.6791950413198101, -0.8096190902410888, -0.6611296529178134, 1.4737671719778975, -0.49997365190289633, -0.7098656722451389, -1.4755988852362572, 0.6891630836441559, 2.40680377796514, 3.72331977250057, 0.25454580055964865, 1.6694231164652877, 0.13238979792179628, -0.3173072613319605, 1.0137213718386808, -0.10275857051829002, 0.34043113877037773, -0.6321894147848961, -0.07454767632920006, 1.8457259056207838, 1.4247476060423263, 0.007543828436006307, 0.6223759882677619, 0.2781856413654326, 0.5127840157581991, -1.8248907323352437, -1.9221023252593727, -1.3848229504358085, -0.34283036810985273, -0.13334173219287612, 0.019594934230714615, -1.9182039502155575, 0.18094621520873566, 0.6866962089421139, 0.6059229412836573, 0.2484292050740727, 1.3185758045167955, 1.6068987745524095, -1.247409688008636, -0.32524894187736475, 0.42225741527441657, -1.2143224927832932, -0.8003916479333543, 0.4651004064552582, 1.615408798511403, -0.9545588698872336, -0.14062175925844214, -0.23999342282566907, -1.7264333796959879, 0.5995327136397511, 0.40889108002067054, -1.8573911802485532, 0.33684513290679335, -1.6288451959770551, -2.767033816963717, -0.8617535987573168, -1.0285270964019697, -0.40251413776031136, -0.3816147287981478, -1.279283688329187, -0.45221075428953034, 1.2575831525093408, -0.03728985377327248, 2.5159505952830425, 1.541563892508142, 1.9079866663351641, 2.161751542541771, 0.48944097790648916, 1.0501054814420434, 0.26105818727267427, 0.21402515724598659, -0.2666746377464991, 0.034715399675381835, 1.2739943534287077, 0.5584947138761777, 0.12128774509170204, -0.09031883643273043, 0.6372831059111435, 0.8354378917094015, 0.327915011176844, 1.5152470794403072, -2.564168687999037, -3.6751476557402682, -2.507686947473028, -2.156962962773295, -0.6792195891399057, -0.4986191568720563, 0.07967593543427243, -0.4333865511810851, 1.00836788041286, 0.6642758560284857, -0.130322628229943, 1.653409290735714, 0.9107445449676027, 1.0664610136116763, 0.47799302057065945, 0.7506639316011936, -0.910678240044379, -1.2226263045030783, -0.5438210436241633, 1.2282610397007772, 0.7815470938554566, 2.87042208800087, 0.38991741853079065, 1.7085257255725799, 1.4028600270024056, 0.4164823583142416, 1.7951932334801461, 1.026215248340059, 0.27825551499097745, -3.0627688033161693, -3.623987967734868, 0.8026987812040491, 1.369290264898328, -0.06018924285627897, -1.1679273990547319, -0.8392572183473664, -0.3254939182419901, 0.6126400156942305, 0.26871225739234983, -0.7600470668105209, 0.8016826948364899, -1.3267607389808078, -2.7769544140771125, -0.7942504954352778, -0.04401035560617172, -1.3779218334434091, -0.277187025075118, 1.3975215435115858, 1.9786484376570026, 1.6831284282528778, 2.567564560886178, 2.230572479863349, 2.051417785071028, 2.138507138287163, 0.6152710268555102, -0.15944707635736413, -0.8247040954244251, -2.6521424698584033, -2.8335108297554115, -0.6555464584208522, -0.8902938592470113, 0.8904051395489523, -0.10749801467373891, -0.001742141721714656, -0.6457271092710559, -0.4210929237409729, -0.026874832591483773, -2.309455741315673, -0.5840320102658874, -1.0878254753462362, -1.5946531172798333, -2.054111822414755, -1.1900644584494913, -1.1904992143355189, 0.0058086077493914885, -0.9344031053745465, 2.0663840279734997, 0.6627835553266389, 0.1689146193626196, -0.34703702582288465, 2.198726600777083, 1.5455313338466434, 2.2973596179462334, -0.5836547570668763, -2.7124164736247502, -3.092916661781991, -2.443279099236911, -0.7531380916028992, 0.27359516653876137, -0.031448039549111365, -0.2286653754376635, 0.06049783518484786, -1.4327683099128725, 2.5584213625069703, -1.4572005833270396, -1.7275627443303543, -2.684999949925627, -0.4404465445634698, 1.816118535458552, 0.7358772637675689, -1.220151998098599, -0.04520466177370328, -3.510060911065254, -1.4576173818309812, 1.4553769092391473, 0.0072052046108738495, 2.36507042550708, 0.4791233496565235, 1.9392591467367128, 0.9474135559575779, -1.5954735249708556, -2.0863934464016305, -3.134937905712968, -1.2222165432093581, -1.9120305904766275, 1.8963934347681044, -0.35120270337312764, -0.6548422590016646, -0.8321626413628598, 0.8862006210451087, -0.9113919081516497, 1.335963337907597, -1.0904496502994563, -0.7755338818644396, -1.9248001956422156, -0.5515723886729758, -0.25144941514859465, 0.42319416982398844, -0.39888774653051057, -0.560294026571427, -0.7633651101632216, 0.015731912512964866, 1.0615395840461417, 1.747468419089123, 0.2895781036094976, 1.2385263651714746, 2.138731208101511, -2.3958351468960277, -3.3831314078870354, -2.3956946092460285, -1.4797393174815292, -3.1130056064249434, 0.8680255036583192, 0.2398695456739009, 2.3070071709005058, -0.39918128152489785, 0.05980177756035906, -1.9744337518212236, 0.053924720128034884, -0.0647853216612751, 0.13456663302770072, -1.453421348954584, -1.4888232329537348, -1.2258182424916122, -1.703570190044663, -0.36564728524791706, -1.6284585489761831, 0.6700590076905965, -0.7943685935728096, -1.4333622708106672, 1.0624936981178477, 0.17323140570199455, 1.0848638480318766, 1.9485004539915403, 0.12895547513083253, -1.234806483549074, -1.8228097434666675, 0.39603365935953266, -1.5816980206978475, -0.8429585232055407, 0.43817295379682014, 2.088988386803245, -0.18965517071005655, 1.7014908912357543, 0.12748792863993175, -0.08955032971176165, 0.5796320730617881, 0.16001779230311025, -0.4662731215883559, -1.8120844275893067, -2.619539445843916, -0.599743433381837, -0.5806428971871861, 0.05443325511284271, -0.8406392289558505, -1.1476725934830077, 0.3843569765488879, 1.1178620485030148, -0.15928812795294264, 1.4941352409595332, 2.2263474897233237, 0.8411996364271099, -3.0990490130100774, -0.07648618361535481, 0.5563255392661224, -0.2817214622926158, 1.5841329221392233, 1.0869069482020317, 0.6226769939859713, 0.07419398510765948, 0.7153451353218737, -0.953119712504653, 0.8302067770801899, -0.44997382754126625, -1.4705035083751279, 0.7038962512132451, 1.9946317017062898, 0.07524860333646993, 0.4334689595991065, -0.16718651193312925, 0.09121341542070834, 1.608356717712078, -0.44234003183306675, -1.6738636225006183, 0.46218740279521137, 0.7621584265572082, 0.4416535945559601, 0.3303416677791455, 0.24803256883470745, -1.551286544034298, 0.47292804350221923, -1.1306102514974687, 1.135342792112822, 0.16973035877652476, 0.6301024559854905, 1.1108088484193188, 1.9823814548879406, 0.841909949139306, -0.5701486848362468, 1.037588094298027, 0.5004251690523592, 0.63664795126954, 0.229278261345134, -0.665268177834622, 1.6662628093119976, -0.5229654775859712, 1.8063228916387053, 0.8476226623475054, -0.13677357750720567, 0.3949853688460303, -2.3939262346293297, -1.6439676048278153, 1.177270999521454, 2.7075894612394094, 0.8247259243179474, -0.8926234717715839, -0.18883638636788835, 0.8964745655619436, -0.2768865686755172, 1.1217693188207125, -0.10952529951099424, 1.4572797605385919, 0.6475552698789723, 0.8902208583785486, 1.3303120810740743, 0.10932092608035279, -0.16923729370643337, -1.315237952789146, -0.35330363966910033, 0.5437063797058811, -0.8747561172654983, 0.9285756699969864, -0.7693568868860211, -1.9467529844559401, 0.47133980627033034, -2.4293680370098496, -0.03019311677624842, 0.021339957005290577, -0.9598244237041498, -0.4489326882971441, -1.1439623176727853, -0.42808389166387717, 1.4197561365485378, -1.2809288031293642, -0.3434218265135267, 0.5706147797284368, 1.284179146380708, -0.6635499726990745, -0.3402419725681095, -0.10431580075477019, 2.578810470361764, 1.5923434418387143, 0.1125404887819506, 1.993934475720111, 0.2715249451122141, -0.8289535583500105, -0.5384519058929496, -1.3322862537030105, -1.2129303283188322, 0.2672284117968924, 1.9456758014083158, -0.1380782201945399, 0.154893732584836, 0.18393440845133713, -0.6355761057144949, -2.086462408576054, 1.760409596824246, -1.1970836889567538, -0.3527697941052162, -1.4356360925944207, -0.5584678537528106, -0.5280553120280154, -0.8200236720280248, 0.5437123678334116, -0.057186117376013035, 1.5728876669778487, 0.593324444361304, -0.058099369837182266, 0.5339982428835338, 1.099366137505408, -0.36908000497819116, 0.8171488620041945, -0.3001064402604477, 0.7015944343856545, -1.651636190952785, 0.9548344828484647, 0.09621794758640416, 0.8695380949371324, 0.4419627414236927, -1.579433637618826, 0.8179916367934815, 1.8492727308855645, -0.21251268493156747, 0.005657957290982463, -1.8509120851147631, -0.8916823777546345, -1.1280855123011209, -0.8043661637504276, 0.014144225495964672, -1.8862092542011761, -1.121784303238267, -0.19114020264793274, -0.13995969568261316, -0.09464003418948239, 1.036439371548865, -0.1681396365517874, -0.8449666763298294, 0.7514400893943127, 0.9032994495453268, 0.4348278901154458, 0.26560972135292965, -1.2768187233007655, 0.8037673564214884, -1.8668012172709227, -0.15637102971212669, 0.13177919326270093, 0.9641427846456614, 1.4301256366598178, -0.08605850077872627, -2.6567138120160827, 0.44248861674902795, -0.5207787624783496, -0.10148222111791741, -1.1602039845798082, -1.9738071628182283, -0.24677702367677412, -0.00824341485384878, -0.37874933545828277, 0.16562345342979512, 1.2454161718122758, -1.323991971065021, 0.2767587025304279, -1.135492511672955, -0.7262711313461334, -0.5075047734326418, -0.4441188315927212, 0.10700498155804372, 0.45578846665428097, 0.27620154129838836, -1.7632666899452438, -0.8084803923629308, 0.36710020165114093, -1.156977392363529, 1.3216780798548131, 0.702814388763948, -0.7498274770923709, 1.9871081221620586, -0.25963443847396883, -1.0624867820402166, 0.10381668098485683, -0.6366734443854963, -0.6438354355491422, -1.026469189951286, 0.6984888476966609, -0.11732776112938731, 0.35383076978007555, -1.4466122367083927, 0.4609610204255295, -0.9130055114245141, 1.4622704925735843, 0.5813863300150062, -2.219147394954441, -2.1540572585087876, -1.3880268366986823, -0.25902165951315764, 0.027741247430048025, -0.5711110286582048, 1.2966988562685624, 1.0223236483618303, 0.00433472900784468, -0.15639008386001366, -0.030576711210702875, -0.6277494913379975, -0.4068030073606944, 0.17894087603992492, -0.31301760223700104, -1.4954715516477384, -0.6192748746523479, -0.6313076346975364, -1.6849684666570235, -2.4502447218411474, 1.5187170265708916, -1.0523473474354799, -1.1126553012852485, 0.41781543274717975, -1.982032251068005, 1.3836471392675547, -1.2512403948096036, 0.2698973631005243, 0.8644363597661054, -0.3507428664521617, 0.16123895820563128, -0.31739463778055654, -0.8560051411125862, -0.6760792719395986, 1.3718756143147675, -0.020516614112862392, 0.12316615354951986, -1.156119292236766, -0.1871357584355138, 0.5068297499080753, -0.22462503994476918, 2.9637102887794273, 0.5664881506021593, -0.242465127373723, -1.9595413441573826, 1.6021856038352786, -0.1938782772868748, -0.6597870994584198, 0.26038316705987496, -0.0294837144373111, 1.494005310377363, -0.18831461585393725, 1.4869625510665418, -0.26103785460484424, -0.019654679979464604, 0.2622673821539583, -0.252094210952966, -0.4874797601593052, 0.6393556459935957, 0.8071084283034311, 1.030854361578462, -0.4473714412821889, -0.6881847514783516, -1.312247533547496, -0.4685960390329524, -0.5126555672893083, -0.36074804622655465, 0.6697403406684427, -1.9153191083463745, -0.5171145621301669, 1.5567114748561834, 1.1259736200777057, 2.5179894811946024, 0.8378445370860857, -1.1549240083544998, 0.8412043483758918, 0.28381345681639353, -0.1500323594023889, 0.5913872264333183, 0.6698921015731834, -1.3500190313933544, 2.147992634790806, -0.351238753807476, -2.21545820571952, -0.4408150664358013, -0.6519917200349832, -0.6240304472227083, 1.3445630327215368, -0.7525251545084867, -1.0933910157588869, 0.1981277952796528, -1.0348323672613537, -1.7152088373402945, -1.2099375095861038, 0.026521757272857018, -0.4052853268411776, -1.345822479477669, -0.44966163622028127, 0.06507786836383446, -1.6776337665477516, 1.4019254723401389, 2.514427717501874, 0.2439812296839826, 0.40945774694790266, -0.34913619804384705, 2.3227826735231973, -1.5817238181826165, -1.3490539423165044, 0.025447134709599042, 1.7084503137034546, 0.2186892525347409, 0.6020778453211755, -0.37771406350247744, -0.47122962704672666, 0.20331102923140912, 0.7271678100519715, -0.24145978800388573, 1.7519965056074565, 1.604869010922875, 0.6096686061125708, 0.6906746922910975, -0.6266440214890808, -0.23741475527841957, 0.34342813511047254, 0.7984337729650214, 0.6245860520788995, 0.6896454446023265, 0.972319247580166, -0.04941824053008109, -0.067196804333111, 0.15439209899721623, 0.7298717897694695, -0.15870228916131862, -1.2670846142774919, -1.0712807656856909, 0.5129090856978733, -1.0831734183631205, 2.460301387996515, -0.32769159593334934, 0.6394709213222799, -0.8764847909433893, 0.6514289386185098, -1.0229902305020826, 0.36248947674537285, 0.6575918045700376, 0.36915489175543736, 0.7572230450275073, },
{0.5129833090575336, 0.5439061378481818, 0.3734140324727423, -0.2652759871765332, -0.715367246835728, -0.05429288806687761, 1.515464929154117, -0.6542473616167822, 1.1555631565016191, 0.4856623622683029, 0.11607355619670219, -0.404899284347397, -0.9553212604367073, -1.5453768478476777, -0.11493753602008387, 0.9738732567386656, -0.09471090588294812, 1.1072436217197408, -1.9684927583658778, 1.8441613347587054, -1.3834770142687467, 0.05006923465191849, -0.36844072984689413, 1.5785513652166527, -0.02755777769371703, -0.46409469997211894, -0.5179874267762008, 0.8405254273603353, 1.2773890977334417, 0.565451210128173, 1.44451047104817, -0.7935390080430393, 1.1962064343013221, -0.9980545581747461, 1.7957485065313046, 0.5141788146000563, 0.8637534805050414, 0.7612861396501389, 1.113796402438843, 0.37208437256517846, -1.059525898094224, 1.604548355780268, 0.46320084366574693, 0.38883701221388944, -1.3156375215515606, -1.1828194283293916, 1.8173039433081837, 1.5369280609008125, 0.9318023775861564, -0.43673596377823515, 1.1789936153591043, -1.0022422268314444, 1.3683791006684092, 0.7883275771987596, -0.6913166198047701, 1.2433764120168154, 1.9204951471143026, -0.9649327609225613, -0.7204983571078152, -0.45999490552959765, -0.5997646402455724, -0.7071501405422634, -0.6374179416621967, 0.7445274396913486, 0.055281474302007826, 2.010733511160924, 1.383018362615769, -0.31640531233308034, 1.4239910449212778, -0.6845200700290149, 1.7740241113372117, 0.34544529982452277, -0.570715525027914, 1.0882310378406925, 0.043624861760600125, 0.308666648477624, 0.09922686107371519, -0.38839494406976777, 0.19030035848104715, 0.4697070983019042, -0.022832639384586725, 1.036970798777855, -0.3030180753436874, -0.8619188895460596, 1.0675114575041929, -1.7094118470746895, 1.534550534819715, 0.018731871325814678, 1.5707725516117597, 0.5786452592012127, -1.4098447772696932, -1.3888363035156812, 1.6922638467578177, -1.1806559295861399, 0.1429441648477327, 0.4592443361816423, 1.7647321091759594, 1.8256845634323313, 2.530372043902174, 0.6138066166931837, 1.0285347913439706, 1.292478733189471, 1.6006642091615235, -0.10796583129019716, 0.3998706194362053, 1.5182301586957154, 0.0613876692112553, 1.169152110133705, -2.3608442663375504, 0.1377323648664943, -1.208827863611998, 0.7560378941807836, 0.5216366028025062, 0.4363365272539251, -0.2255158685794938, 0.07598161570248436, 0.4281264542271193, -0.7135620144063647, 0.05757393475658796, -1.0014977977767665, 1.3253987169409278, -1.3530224748552315, 0.7112462971080992, -1.1047733643689188, 0.019388979150092224, -0.1026297709821092, 1.1876799196673722, -0.07322696820615354, 0.6543739724930407, -0.09479806166010452, 0.05085483420802166, -1.4626750117788792, 2.433792189193985, -0.39703000040876474, -0.7937863679923693, -0.5370421035474795, -0.049966435795818644, -0.24245443902233788, 1.3983014043921633, -0.6338202705986717, 1.632220198877231, -0.011321168596687659, -0.547134177691398, 1.1785097723916271, 1.5654367420653565, -0.46769691085882137, 0.07719463610216988, -0.1044098600850606, -0.5149096630746133, -0.8582898021510944, -0.37265522697993514, 0.19403897779155194, -0.40753273312755706, -0.6047635305747441, 0.7494807702949174, 0.21274825194106597, -0.8343488626988995, 1.2259778966000021, 0.8143294326521993, -0.6411164459267793, 1.0211214807178235, -0.1572775505071389, -1.6104499237498535, 0.4349452169797188, -0.40035667098054434, 0.4716900520617294, -0.8607271505742379, 0.8012037868680747, 0.16497116154445104, 0.17486276563461914, -0.8648622115087682, 0.16094508490630186, -1.330575342526588, -0.08993355036791466, -2.533213509652313, -0.9552919204692034, -0.39496841541217137, 0.1808461965433991, -0.6809665083215881, -0.6663121993038984, 1.1653308366184905, 0.15234708409429798, -0.5499952407110664, 0.23470769136007266, -0.09630470926376923, -0.8245156982959708, -1.111751387683125, -0.7291060762331762, -0.5106315220803083, -2.4334000234106528, -0.8074424361097897, -0.6025836010175908, -1.4905163902005552, -1.8232743568104315, -0.4757479045799306, -1.4020638652224386, 1.027498610779986, -1.7791795647964406, -1.8706567687373026, -0.020846577965859966, 0.08093825919589197, -0.28457735081614355, -0.8276919921374358, -0.3491044072546703, -0.76273157474058, -0.3345589479217456, 0.20990296954477103, -0.2567202153146168, -1.6759586336295527, -1.211467268468186, 0.26267099489028173, -0.7909127368155294, -0.768127618895742, 0.8440000551842983, 0.3684503851920878, -1.110095302401682, -0.7478541541420952, 0.6000292653420595, 0.13705517403324766, -0.6720323066751213, -0.9432313997198724, -1.077769831363843, -0.4782143961061857, -0.7212709739000935, -0.6920671079911729, 0.5537685466222062, 1.2157998238080305, -1.4754634981979478, -0.7979430493724001, -3.0665597363284847, 0.35343140987200916, 0.27970184933209485, -0.6604647527552842, 1.290942824466002, -0.3803331058327648, -1.5309659366343207, 1.096664159409947, -1.2605124804945205, 0.7891932324649087, -0.18065711642171717, -0.2492780751641352, -0.14642983358600636, -1.293076885100086, 0.42618491212718645, 0.5994115327258058, -0.41160869994366106, -0.3808747618579074, 2.230498343176603, -1.4509090491387442, -0.1493431689220684, 0.16970731196521208, -0.26916397048045626, 0.49379268767804335, 0.09334844847095251, -0.40495407296927927, -1.0925748609591037, -1.744696588344621, 1.0651558216509032, 0.2136065099168764, -1.017983026874875, -0.09071168412124012, -1.5994754221199527, -0.0278555217103552, -0.024419376180532727, -0.14728657514254534, 0.07429192988611319, -0.14580894109022569, -0.09876104772941038, 0.5509797187970219, 1.8972548561878693, 0.913843780244165, 1.1171497727455544, 1.1359451906920766, 0.5548241264139716, -1.0006751529348767, 0.9715374020680861, 0.7659342975953761, 0.560523241232468, 0.24945743415637725, 1.4740760146133185, 1.5779133215094039, -0.37143857628139015, -0.22211310720240585, 0.536100125834227, 1.0817249865771799, 0.5949977593597061, -0.4735862516200211, 1.0758273954446227, 0.6458510234258567, 2.1628337664804653, 0.9606331320954786, 0.22355986007271944, 0.8010377807554198, 0.5559314238573443, 0.8072228741516113, 0.7970542967862447, -0.14039507429640855, 0.16327892651754364, 1.6667828200699126, 3.5136719068481623, 0.5933307615375794, 0.4537704516004785, 2.6748317945168676, 2.093466993398108, 0.6635838561889069, -0.36194799785633947, 0.6512242956813444, 0.5682562809920474, 1.3140599882827557, -0.6178866519144379, 0.7117630093019004, 0.754632837082113, -1.0610256480840166, 0.8684605521827522, -0.1370050490615971, 2.117749677268523, -0.6208722265184813, 1.6112327082004136, 0.8865851906520317, -0.2987878564338287, 0.27455760679482843, -1.8377410770547418, 1.0228277978146296, -0.5378714906707973, 0.1342874441341728, -0.5772007348791568, -0.6162209260324989, 1.0535587305510101, 1.3334210647749498, 1.043038581833523, 2.2603698034333375, 1.5169995305245878, -0.598542538205051, -0.1775875905942953, 0.2665229584238799, -0.06170632520452573, 0.9130957487346278, 0.8358697000027034, -0.23262225616181934, -1.2153153978526547, 0.12163005017547233, 1.0586093127931782, 1.1743490244280554, 0.9923681040522103, 0.9278945160951692, 0.6463041387607579, -0.6285356090455805, 0.010531012458087397, -0.4770540793389591, 0.7494945899964334, 0.7592139486359346, 1.6200267822613403, 1.2151902422072995, -0.20724793675460138, -1.273232147219616, 0.7801191226251665, -0.03531618566577539, 0.9198784046245484, 0.28898277030336217, -0.28759405849141473, 1.9371593897770993, 0.5544635758674094, -0.5026375148764641, -0.5389301554103688, -0.6448300162709231, -0.3167177673262901, 0.7983814924173364, -0.02607589702515716, 1.0872421938991776, -1.057953949182091, 0.6875938058818408, -1.4315845077621614, -0.8049426520928903, 1.118712476458732, 0.3869271648236963, 0.4467128023426451, 0.03472163315968636, -0.8758663170246775, -1.2024000927440495, 0.12248185030265153, -0.06201574973878988, 0.12487616267004632, -1.0412066672209372, 0.5136066182548247, 0.8461702101912256, 0.012625448103234701, 1.5269959851853259, 0.7358239181530443, -0.3374624534531623, -0.19347326026258596, -2.4909468368895924, 1.6310235472688808, 1.2922664096749596, -0.17430033535284986, -0.7812661816077365, 0.5348320967339366, -1.004230001649347, 0.2863347606951344, -0.2563748073826595, -0.20422632316666847, -0.15898328518708865, -0.7268939876697534, -0.038184521958586785, 0.9617584450918361, -0.5018510117940765, 1.0420013942620991, -0.3876668720305603, -0.7434864756836553, -0.9207407275186447, 0.8308132263747096, -0.5244944732336561, 0.18237578033617682, -0.43064774799212896, -0.35640253689300766, -0.2843252848858003, 1.2903535807048045, 0.4140010388386593, -0.32417754218571676, -0.45244964619533246, 2.4156858722157777, -0.8562933868341109, -1.370601681763299, -0.2802466438481526, -0.1169413873140298, 0.6523112546449686, 0.518738668349382, 0.10927849860721332, 0.09370782080254532, 1.2222018207063157, -1.5847585706344032, -1.0507866620001054, -1.0459174098742328, 0.43440902835709677, 0.501351606426086, 0.6837201714039709, -0.222862688195995, 1.3529379777615111, 0.8976143463906373, 1.0147669464927838, -1.8627316294900247, -1.7771556124935624, 0.09810303459218284, -1.4731071206320279, -1.2014911844861569, 1.021969607878099, 0.8187000545867028, -0.7895647952608866, 0.2977931801285621, -0.0123096404104265, 2.2025250601540534, 0.4943613419510615, 2.2838606536068013, 0.43352622798292717, 3.501225065762634, 1.9801078899262303, 2.5966757627936183, 1.9196321311967062, 0.39573927030691297, -1.101185397858934, -1.5219680987129909, -1.9202564473484902, -2.143597827272848, -0.17737161330313123, 0.5074741267054429, 0.4431945076332523, 0.47758778717898437, -1.665772786569086, 0.16243907672281252, -0.24472335681377622, 0.8132701132023343, 0.8677910012461904, -0.48031330532122407, -0.6820028282920413, 0.9138600032968844, -0.120603243369181, -0.47665889543214407, -1.1328435529569554, 0.9607079543800945, 0.11135851058585992, -0.7949346843681147, 0.6643708070540739, 1.5179748673224147, 5.030171343015587, 1.1155231099240501, 4.56514812768115, 4.068258957228039, 2.3837394332851325, 0.6154058196793516, -0.4878499827200966, 0.23211276466897468, 2.2653438450012544, -1.0265042207512651, 0.1158817091335151, -1.3502677100999836, -1.0122738649754552, -0.40919892266488506, 1.452990690303531, 0.12878088194478515, -0.9467999905830862, 0.6537145966604261, -0.015047324927930709, -0.6134865827835895, 1.1698884606435362, -0.25075251299596496, 0.016681690736901015, -0.9386155768541791, 0.1052649211902079, -1.4095525869905823, 1.272705664592528, 4.0238759406571925, 4.1181428293185895, 2.8499091542987207, 5.115452576449909, 6.008574390269657, 7.036157875905559, 6.923466457232987, 5.536007825113281, 4.697704296476333, 4.253391457254737, 1.2768561706802195, -0.3967722401657622, 0.47974598517496264, 0.2583001866038276, -0.9651741730771748, -2.2476691603540075, -1.172094627130521, 0.6531633128269762, -1.545018539317514, 0.5063678685654087, -0.7320943572526433, 0.6177547284266484, -1.0432061123616412, -0.7598358783824127, 1.4321778790847222, -0.3890641044187335, -2.3897179495578214, 0.08889415394320062, 0.8050848553992805, 3.51759890210091, 0.19749182959250297, 2.8099683417475023, 3.6094915674923733, 5.653864895629823, 3.663577714292058, 5.959360366618865, 4.7815420644408135, 0.6561678712167011, 0.46812541225858023, 0.4813931088334813, 0.6838606381141185, -0.9088004832128015, -0.7652047148122019, -0.660946071213748, -0.6832668256703182, 0.036633115045034026, -0.5885725154347743, 0.19519286487735013, 0.0982334961964801, -0.5806191853339805, 2.0319765609048925, 0.30178524817066865, -0.05874796155066297, -0.8685166269180007, 0.2930581650580544, -2.4644860764429377, 0.627582899502021, -1.2727610530112299, 0.03165742512577254, 1.3392225066130146, 0.12133214526476796, -0.6647506742716268, 0.34616402010596414, -0.5778283907773853, 0.4990364754162974, -0.45302414312226186, -0.17953599526075245, -0.9144849905563569, -0.8488376826376812, -0.8346019980107249, 0.37841759642210787, -0.1874539424136892, -0.9936467328452073, -0.15674913343796074, -0.8020686039938301, 0.1320514627184529, 0.8090518357966237, 0.34618242746070393, 2.16224483422549, 1.6973337579400511, -0.029885886580172983, -0.23928668378874854, -0.0683184349333761, -2.8529651717215567, -0.28359969224587556, -1.2926175551731838, 0.1609063162745275, -1.820502855829094, -0.3588330585811139, -1.74400017196739, -0.4457090233692599, -1.9200460393853525, -1.2989590589978455, -1.11091612813746, -0.6334930077749424, -0.15434634989253165, -0.022721485171787046, 0.7514708566081328, 0.01835114695062474, -0.9679422033217235, 0.33991711074743514, 1.9583225085513936, -1.691128437471271, 0.059764346225271936, 1.775048647975774, 1.2151297621811188, 0.9425879733520446, -0.06136588627418872, 0.46927389432859995, -0.3306797494938879, -0.9262372144642569, 0.028069195136288874, -0.004208481876976682, 0.44347039017389334, -0.527923706100706, -1.1479922400904938, -0.317270766134017, -2.7130920399397223, -2.851152334376423, -1.2576991945720144, -1.4861304745082744, -1.2033228047525428, -1.211835848113929, 0.6151154255438225, 0.7497563656156929, -1.9831694916636196, 0.25508826010914853, 0.40329373573570587, -0.5130576677667056, 1.591129801910915, 0.9818315126592662, 0.03297356361499794, 0.774331573253532, -0.2608667848317218, 0.5245795535501105, 0.9934259697979896, 1.1643746464641376, 0.4456418037109153, -0.5500318344419656, -0.8545128501301541, 0.3215255313872361, -1.1694593480811228, 0.6148070882061764, -0.855498565648453, -0.816200498249642, 0.033164755946856035, 0.7386098704588773, -0.21118064659413058, 0.5967128348841176, -1.9640656455891654, -0.5855460108101501, 0.08555259543916584, -0.8703449833418163, -0.1679660529365373, 0.5422838274840682, 1.2633999033475891, 0.33321338156871677, 1.061627662096588, 1.5605569330507199, -1.1089369542525143, 0.7505288239526233, 1.0779319245127288, -1.1784287421813568, 0.29777052583606595, 1.7103491734465524, 0.7073026102277682, -1.1480941890779037, 1.2961289430309313, 0.5960070150883726, -2.8658348850633835, -3.3710339091705888, 0.3303285649105638, -1.6454519681567967, -2.441382264041494, -0.5722521846605781, -0.4587917185739368, -0.3687649156857859, -1.6913248835762393, -0.40542111673074793, 0.01868452459132075, -0.09019875280932298, 1.0511191232793051, -0.5175165171621781, -1.8110717503475051, 0.3058548755397121, -1.4143910535523672, 0.04673467784764405, 0.9450940527451164, 0.1883484010096462, 1.402765879521817, -0.21578838625949245, 0.06978933928956799, 0.1924647911612903, -0.0984803399894314, 1.765598769504667, 1.3226296432392854, 1.9234765158193818, 0.3305822689759579, -1.1007097700499424, -2.711309441046048, -2.799796270576575, -0.43480765100982244, -0.9125565503315163, -1.95359734112865, -2.2822298357861204, -1.8166789096981075, 0.2036259220145436, 2.2138967180527076, 1.2740728192479889, 0.420927101614099, -0.9045696386005851, -0.7475172418952539, 0.19784971345725494, -0.2917868105581811, 1.3851746594774779, 0.08424480730788377, 1.5665232402811013, 0.7441326459769007, -0.281582039884126, 0.51529964929929, 0.683712504767194, -1.597281974077776, -0.1884016348999801, 0.32976046625075395, -1.0324530036649715, 0.36748403959424436, 2.3635707836496334, 0.4031216872467164, 0.23216364671731382, -0.5720176265717344, 0.9592745467543413, 1.1777550588440873, -1.2559999222271883, 1.561373207915932, 0.5055220519062478, 1.8337084006300057, 0.825409919731124, -0.19365290115701764, 0.6129564608566217, -1.1981498218901387, -0.4692053392365082, 1.2097834509548797, -2.0993664682647055, -0.6830908784986404, 2.481810775875552, -0.6088139225522372, -1.2227950068063618, 0.14130435851450518, 0.3837631428867324, 1.0963658976290225, 1.282594860774162, -0.6364374202753815, -0.6115255534725937, -0.8402571356983279, -1.5112134708282463, -1.9232627877038566, 2.6323392897385, 0.5086293700338189, -1.3673565868787059, -0.9776076235175032, -1.220054630943429, 1.0038210923909334, -0.7451158900337039, 1.0924389552521956, 0.905261947540243, -0.07497281507476755, 0.36630359864198164, 0.9394159277488513, 0.48867388846361715, -1.151782199046203, 1.4371598525433777, 0.6706547205954091, 1.327192135700096, -1.464749847227874, -1.5184430186034534, },
{1.1439504315396203, 0.5037465970139169, 0.7602437656115152, 0.39628828002300776, 0.7302403053568504, 0.40588138835764537, 1.4835675265752586, 0.8081412398261102, 1.714128630328781, 1.0390003282061682, -0.41271092639689394, 1.035054174994232, 0.14396000365313988, -0.5653220194598813, 1.3453900861600656, -1.6459219510276815, -0.09297139494283753, 1.118861516426144, -0.3163842257562368, 1.7061107504997899, -0.12867213961283092, 1.1230516471000285, -0.45688020863466683, 0.47012753178402444, -0.7429257322563865, 0.6592869374031858, 1.9627737348321415, 1.4316357212805761, 0.557865595908569, -2.9552386188402897, -0.040018731622340126, 0.17525293622704627, -0.7865708688843557, -1.6150842041596896, 0.744322264444602, 1.6602464245798578, -0.372233401512241, -0.8018585704428322, 1.2064515859394656, 0.47464320058391307, -0.5151364628622531, 0.5741292109568563, 1.2852376827240517, 0.17668439387534784, 0.23862075822938136, 0.8355541613299893, 1.2686576193450292, -0.5996637039045309, 0.5779964545771727, -0.5884523866795712, 1.0164328754149363, -1.006109648362641, 0.8986835056654329, 1.2277249631720721, 0.011574041567131791, -0.2710632374569542, 0.06592759375762182, -1.000878323615132, 0.7249101890080661, -1.0962582267218923, -0.6195294374646853, 0.9000858949856315, -0.23459490728516047, -1.2445955790312206, -1.6098773396840862, -0.7202548416507532, -0.18996791779760003, -1.6383442292273382, -0.2719460827234396, -1.674452506325692, -2.179515831938034, -1.2962812798230698, -0.7065002572739734, -0.08354053101988068, 1.3349935279048495, -2.000108626672412, -0.6722089259867156, -1.6332671704869453, 0.1574351655557114, -0.8722094040290191, -2.105624337599376, 1.6703327931573537, -0.30818370115604726, -1.024140745360069, -0.09914722565240974, -0.05016467120986607, -1.3316824790981907, -0.7539506694476344, -0.2995571454688647, 0.4054040542360345, -0.9638276657111396, -2.252842998797305, -0.25712038950257515, -1.632287483227821, -1.6442860628793934, -1.6568459348365938, -1.1040036700494058, -1.2106455528476414, 0.6426353094312455, -0.9851252963790136, 0.4752262603855969, 0.11008371192478086, 0.6403066491771028, -0.3502269252986613, -1.882934005272822, -0.134788168267143, 0.09975094092009047, -0.744480761198254, 1.4982868076132938, -0.05261011386239023, 1.196954712883284, -0.20499634258793722, 0.10912768551474482, 0.28471072953904214, -0.45879269969994074, -0.8930636633265531, 0.814364994851602, 0.3976642658165477, 0.47423385793073847, -0.6262039449904158, 0.2717903084391117, -1.1201368915345384, -3.1600621105643434, 1.0348857909926878, 1.213725598905357, 1.7915986155207297, 0.04704517436496598, 0.512850198541046, 0.9028714781296697, -1.5808557889821029, 0.48944000644051133, -0.8295567384921311, -0.6133068102271905, -0.4557839964196695, 0.30526380084011245, -1.024727824536655, -0.08974696652253461, 0.038991086322927235, -0.20234523989126635, -1.2274284251590044, 0.666092749569664, -2.184380141171526, -0.39463787561956754, 2.2746800689620055, 0.6677638048365261, -0.41523783865900704, 1.1790313864199653, -0.22151316646138455, -0.08420428406989104, 0.9915958272503808, -1.7058669340784338, 1.0889232903752633, 0.6042779774177992, -1.735070539813547, 0.5581468197724136, 0.452265101301587, 0.3260146621203317, 1.6616763647000867, -0.2363360998704703, 0.32456264551626257, -0.22822307109352474, -0.23051930550432728, -0.6210970504948096, -0.3460384316035491, 0.7858029698849723, 0.16922254237901915, -0.918776212160991, 0.834559616945838, 0.4940075974671537, -0.26308001850037915, 3.8137661219285657, -1.0393637735659846, 0.12040959083920194, 2.3489595966288426, -0.5773264369602717, -1.7057016367364184, 2.1213678436882617, 0.47764341039469277, -1.3517874142111115, 0.13389549416272012, 1.0109766530751125, 1.0939739143503366, -1.0186304639159303, 1.3155386268248368, 0.3448535871964079, 0.7573608826694028, -0.6471916306841171, -0.018067532357340314, 0.030810036436165814, 1.538637558052954, 2.364705246362415, 1.4333706912868716, 1.1630093428872998, 0.5286132570694814, -0.5583233504919594, 0.14800147797087673, -0.7442343120950307, -1.4399647934933344, 1.892137761762976, 1.5751896393824556, 3.154952664512652, 0.24361634188819314, 0.33481742785997415, -0.283949224173046, 1.1492156152922, 1.7770698409382784, -0.49524891784240527, -1.2442601965191287, 1.4801624212060078, 0.6275962978941785, -0.6516387062696055, 0.9206293525136131, 0.40837737473101093, 0.6199179122073983, 0.5770811149847302, 0.978081977987529, 0.8634415267232043, 1.6754564368132754, -0.015114994160147974, 1.4604582190939004, 2.9182683690255526, 0.3369310724577084, 0.25690576108063096, -1.56198940536257, 0.11856410623449715, 0.6045347595858024, -1.0909903217233086, 2.437875156850143, 0.47516655637745314, -0.5994474948829526, -0.236982868421976, 0.2716996835906614, -1.2945368039506637, -0.3234657426076556, 0.6354585764898633, -0.9669102227315671, -0.44205908270176464, -2.151492875192915, 1.1835319548477177, 1.3107210233554887, 0.19317516286254888, 0.5474385001961203, 0.675372819277063, 0.44989461092789934, 1.414445943046866, 0.9194312503861408, 1.4361990629978258, 3.50645854269463, 2.1595837424403124, 0.0030295494360706218, 0.2532360586520763, 0.8450459315934385, -0.1443186852817045, -0.16291239077530797, 0.262454913570734, 0.07635968440019429, 0.4278399667363888, -0.4938614785145823, 0.011370273689599716, 0.777550300108885, 0.3348591403870913, -0.6278658714846854, 0.5910999266626477, -0.2018123156953493, 0.07285828721818419, -0.376736628308111, -2.6320072605590163, -0.27704941473176264, 2.113840271087145, 0.892255957622955, 2.0796923441036137, 0.44686898023916105, 2.8975014466535547, 1.4339551874380128, 1.5015274009024957, 0.12453269930958209, 1.7736386659072156, 1.4674029246426012, 2.3251466109665064, -0.7789444320649033, 0.503127230667641, 0.6032770642938406, 2.360266085423201, 1.1763917464653508, 0.8036373870400325, 0.44031805365087645, 0.6883201887868872, -0.35779938930319805, 0.6774232674757105, -0.7187046124385023, -0.20097860562599898, 0.862686778260215, 2.5610313319454305, -1.3398035719974646, -0.5217797325692657, 0.12048945456847054, 0.13270190249286962, 0.5111747498789251, -0.1210298059121176, 0.8401356567230049, 1.4403712552254138, 0.4984352827444998, 1.074526240494478, -0.30295803491664863, -0.37036870482905215, 0.7467897349911523, -0.9019593667905283, 1.683680223142105, 1.0898911736437116, -1.1799226365768558, -0.9748969609614876, 0.7135353146838298, -0.5255463452180561, 0.09879971910549303, 2.215570643941207, -1.2840056328678475, 0.2801635304036745, 0.21119958085183396, 2.207906247374779, 0.8834137995947293, 3.2777004026818655, 1.0465656362963787, 0.8198327465934178, 0.5424801282653586, -0.10692136932271754, 0.9526210401769971, 0.07889841095635712, 0.643782567788657, -1.2958415987578675, -0.17209881520396053, 0.29604805390010014, 1.2994090475462305, 0.877514759032835, 1.5348144662761873, 1.0608594555349173, 0.13331463306735317, -0.12471739032318827, 0.6156882253336561, -1.0764506410712982, -0.3850613499134255, 2.554710446561535, 0.7830706206563327, 0.8329047963923533, 2.334976733921894, 3.118801729500038, 3.576406884967771, 3.3688869201212346, 3.4499238162523076, 3.0050825641987666, 3.151674021277978, 0.7716128273537319, 1.402314714818662, -0.11991452986410994, 1.1418939216600805, 0.7055424608778005, -0.009672986014852988, -0.6338025755077942, -0.01029629678841541, -1.1821793666824765, -0.20773716296686684, 0.8173729124580981, 1.18400279886663, -1.5527925710999215, 0.5496527759689062, -0.18399733847409824, -0.13212669837759444, -0.7897536976279602, -0.21742433024064348, 0.4652330534657535, 1.1725734001737238, 2.446325403210817, 5.200916731914723, 2.0496312868347615, 3.0490588852994596, 2.3340531091013057, 0.5464952821733763, 0.07803295780097826, 1.5229414365634757, -1.3859138057574587, 0.2803467213468623, 0.6389221594729447, -0.8002070961122788, 1.912080998297744, 0.04906432958296953, 1.970077282188018, -0.43420887539790687, 1.0934493213970113, -2.5249657325530968, -0.18240491851894652, -0.16477212990384207, -0.35399261304121565, -1.0903883482836385, -0.5509698915416965, -2.255129640044873, 0.2757155251430663, 0.27906581859797114, 0.23198670898882773, 2.581512770639086, 1.84444200528581, 0.059609955267527125, 0.8318097239180325, -0.2144943224133176, -0.9172488233900976, 0.9877005117941272, -0.062309864971324236, 1.1731030277493475, -0.06723381240977361, 0.13501470874623586, -1.2014033782823494, 1.866717259431146, -0.32687035504469836, 0.015022767586273621, -0.9063083716448854, -0.8300432561587212, -0.38451700958583274, -3.6295386409328874, -1.0225936797049056, 0.20953791310009331, 0.7083324720939508, -1.3208890857773468, -1.8634445629574823, 0.4390405783183073, -0.07877309817975833, 1.804228106288958, -1.1492420310223115, 2.971449140551803, 0.8881138015694101, -0.44470611992229997, -0.5525799177278234, -0.5055363542831122, 0.6619705831844513, -1.6383018058843943, -0.42599851373875225, -1.2401019964455642, -2.3945149284431975, 1.234637338313202, -1.0683723397142975, -0.04159114039967731, 0.5032940977937818, 0.7938371668584121, -2.134471073795347, -2.1169915892701967, -0.038029918765589824, -0.27082794806016675, -0.5448121250779878, -0.9458462505211387, 0.4600866212132576, 0.5657018114379951, 1.775374755513626, -0.6491057156098263, 0.12412219899976511, 0.0772899053421466, 0.8902816795657386, 0.43490848537623805, -0.685932650487833, -0.6847721910178357, 0.412738116188706, -1.5202533445640913, -1.126049176750617, -0.21619486879485303, 0.4225215674289306, -1.1826931995944465, -1.7679170535218827, -0.5378434761447339, -1.0653380148336624, 1.131590168291674, -0.09157096847084789, 0.72502007268769, 0.9713261760661293, 0.10172115754868447, -0.2843728284096967, -2.595886807136765, -2.048323756407933, 0.2856482326213823, -0.48168584467654946, -1.3009481036820938, -0.24924256033116432, 1.3561697730673876, 0.21931551245170075, 0.2387516526159255, -0.5883438856584334, 0.39399670081222593, -2.7892623229870233, -0.750683688244106, 1.3051923646076058, -0.20730355068742023, -0.49510824866146147, -0.9515541044634261, -2.172205782217792, -0.4045965282886675, 0.054464322102760414, -0.5112572104000712, 0.4405490530083574, 0.8012579868530768, -0.09897841955424846, -0.03526548654504457, -1.8080971784954765, -0.16590793426256203, -0.42483617243872884, 0.41592934478997245, -1.6050325646650434, -1.3063109005919624, -0.057889510197309875, 0.8073724856263117, 1.9551349313447632, 1.9123326828867355, 0.8689806940379853, 1.4965179634528598, 0.17905431814628686, 1.6241280276028445, -0.18648015293421677, -1.1521381163611704, 2.1615963275159595, -1.5685133368625934, -2.2102079139060775, 0.30791764093602136, -1.8453120913329797, -1.6858581434678281, -2.0735003704261343, -0.4547257640083797, 0.5739440032858286, -0.08042770065397714, 0.9876271289844731, 0.8168516539525239, 0.5658091361028679, 1.4302337095580042, 0.9525047104796768, 0.2937559930383528, -2.2659098616693667, -2.3121221835908203, -1.1443147386752486, -1.4349911614975082, 0.29308654483874524, -1.1541491114381512, 2.572265181381826, -0.07312799744971132, 2.282793823978953, 2.352934678297006, 1.28792563022146, -0.6090674506164017, -0.9834739517747249, -2.070804416979503, 0.0052022794724439925, -2.1683470234549014, -1.0068142915655767, -3.2467315885559174, -1.9843275677940242, -1.6312770592814814, -1.0140866715692027, -0.1502748551034953, 0.8559122881891843, -0.028732875778686186, -0.3447395323465618, -0.05614835165744026, -0.08317588404656187, -1.1532419308556734, -0.5787344473165326, -1.1899454904799271, -0.8803332546575743, 0.4369408231028126, -0.012251308634928001, 0.48898270724173937, -0.159334706726984, -0.9667823859322681, 1.0681174568529004, 1.5383876372259953, 0.6190312705268987, -0.5116316033306036, -0.16371182717840518, -2.552685042944495, -2.012164628838783, -2.5326616986448025, -2.0501076371833924, -1.551738117752211, -0.17063741058227544, -0.8205426399689705, 0.4851054909017438, 0.4025268139036718, -0.08401618156143854, -0.5749221392661257, 1.3165653783845612, -1.216914650091324, 0.14160732823734465, -1.0393570670725472, -0.8809019427886212, -1.2354773313291898, 0.949155953568017, 0.7721636686753014, 1.0301238381897138, -0.5250332180388845, 0.39132764864475394, -0.39258903416208035, -0.4655548122153408, 2.228523831694688, 0.9287428402401837, -0.03893424832958193, -0.9362392600367664, -3.0403182120118104, -0.008357973638399602, -1.4781443292435155, -1.0727139389829, 0.1033532903342364, -1.0702693564424566, -0.9425439943512555, -1.2914579242825273, -2.4435549077287098, 0.2610709406750657, -0.8697244338049833, 1.2843759831640171, -0.6292166178723461, -0.48906774940589537, -1.4584170940523662, 1.061929378531824, 1.1450136334431542, 1.0644878221027105, -0.910134083633797, 0.6776259277134371, 0.8169369964965567, 0.5650610475616108, 0.7057999282586426, 1.1094556776649875, -0.9956222634830433, -0.8236514643577997, -0.35107324522901745, -0.4216314873903835, -0.8019583513967908, -0.7970353633466797, 0.09376658719328856, -0.3828594713405553, 0.018348611440456332, -0.5442909328656377, -0.9441093487751624, -0.5459692243504358, -1.2283649904462333, -0.23171444513705267, 0.7014036499302153, -0.7375128980694308, 0.3622288800653396, -0.3915216105731232, -0.8951084545284597, 0.8176621337418429, -1.6762518003666016, -0.04262682360402271, -0.9432515745913544, -0.8709160901356353, -0.756613556477453, 0.7751510431200862, 0.6137176139814214, -1.628951070253517, -1.5774717265152285, -0.38051317849631555, -1.4824880543851138, 0.8744026144218289, -0.4674971018744542, 1.8419226454568332, 1.2760136592641325, 0.580266793787168, 0.33341822156708245, 0.7799182111442406, 1.0623700958277202, -0.10367291915621724, -0.44506904469883674, -0.01766721965910283, -1.1295976217203474, -0.2768660576929054, -0.44129757739680514, 0.4075404232405152, 0.9561695688136278, 1.975560435020563, -0.1327468178636727, 0.642772045771332, -1.2675192326731979, 1.1498811497595773, 0.7061201980843862, 0.9920446376913192, 0.12501683574052652, 1.0299194321224376, 0.5589255791113468, -0.1477197103577931, -0.27824060384220456, 1.3848618103145656, 1.8582598642071635, 2.0286355672259164, -0.2817741354974566, -0.16125608035399022, -0.6161910583288759, -0.29437553643369424, -0.7287596166713989, 0.5318545818012149, -0.13793785276252202, -1.5862072247417502, 0.24847689689747565, 0.8706868138141693, -0.14354897915775763, 1.2398700982417328, -0.3749648987762876, -2.3437224710736495, 0.5760073769029231, 0.42187345392312364, 1.1572662182919333, 1.2945147686491374, 0.3900658868920113, -0.15945479179991037, -1.4591965233216866, 0.6224585465689981, -1.0787338739517516, 0.80036268772049, 2.515072099580407, -0.22334379611483257, -0.44847631966826734, 0.6379399511988229, 0.2676256394019457, 0.5233245805513781, 1.9705043002418834, -0.060961936428326126, -0.08218366718807796, -0.048296125609863176, 1.4142615111622614, 1.0342982834146681, 1.2267716864783078, -1.0258586206069327, 0.060843030290824406, -0.45347489511523226, 0.544242966895805, -0.023629937425099664, 1.0525069155356819, -3.2415616379865178, -0.39657400373328067, 0.7841401814957548, -0.15040368455617883, -0.7124014143820037, -1.3840483658924267, 1.2812507315121666, -0.43017234548559175, -1.617950167460562, -2.8188524037662237, 1.2116807382526096, -0.21717943785820673, -0.7326342499727162, -0.6303979015351833, -0.5388837756492906, 0.769078326394035, -0.5271281036708826, -0.7224533220187817, -0.19847331454926137, -0.7796030628763472, -1.315239865537216, -0.40893963516336385, 0.7072267924791635, 0.564892346832746, -0.9744858232342442, 1.0303184819031639, -0.9644858745622874, 1.7767589966535644, 1.8067899100129434, 1.9199237037199948, -0.8151246400176417, 0.521754799214789, 0.5271571963057835, 1.7962024602825577, -0.33606910308859156, -1.076703978034497, 0.15479644174151364, 0.04154541040058948, -0.09252416516054439, 0.6539101277413913, 0.5387151081162347, -0.7455810907157967, -0.6665111531170153, 1.00292276081494, 0.5215450666533427, -1.327484961669354, -0.4799574738837721, 0.3758075040675165, -0.8126211343347011, 0.08542976076529943, 2.2362316816085372, -0.515093703916238, 0.06384776665160229, -0.9843008830376467, 1.854089355676443, 1.1477553362385073, -0.819123591527319, -3.09503332759301, },
